// "PaperweightPenguin0.h" generated by "Obj2Header.exe" [Version 1.9d] Author: L.Norri Fullsail University.
// Data is converted to left-handed coordinate system and UV data is V flipped for Direct3D/Vulkan.
// The companion file "PaperweightPenguin0.h2b" is a binary dump of this format(-padding) for more flexibility.
// Loading *.h2b: read version, sizes, handle strings(max len 260) by reading until null-terminated.
/***********************/
/*  Generator version  */
/***********************/
#ifndef _PaperweightPenguin0_version_
const char PaperweightPenguin0_version[4] = { '0','1','9','d' };
#define _PaperweightPenguin0_version_
#endif
/************************************************/
/*  This section contains the model's size data */
/************************************************/
#ifndef _PaperweightPenguin0_vertexcount_
const unsigned PaperweightPenguin0_vertexcount = 450;
#define _PaperweightPenguin0_vertexcount_
#endif
#ifndef _PaperweightPenguin0_indexcount_
const unsigned PaperweightPenguin0_indexcount = 2688;
#define _PaperweightPenguin0_indexcount_
#endif
#ifndef _PaperweightPenguin0_materialcount_
const unsigned PaperweightPenguin0_materialcount = 1; // can be used for batched draws
#define _PaperweightPenguin0_materialcount_
#endif
#ifndef _PaperweightPenguin0_meshcount_
const unsigned PaperweightPenguin0_meshcount = 1;
#define _PaperweightPenguin0_meshcount_
#endif
/************************************************/
/*  This section contains the raw data to load  */
/************************************************/
#ifndef __OBJ_VEC3__
typedef struct _OBJ_VEC3_
{
	float x,y,z; // 3D Coordinate.
}OBJ_VEC3;
#define __OBJ_VEC3__
#endif
#ifndef __OBJ_VERT__
typedef struct _OBJ_VERT_
{
	OBJ_VEC3 pos; // Left-handed +Z forward coordinate w not provided, assumed to be 1.
	OBJ_VEC3 uvw; // D3D/Vulkan style top left 0,0 coordinate.
	OBJ_VEC3 nrm; // Provided direct from obj file, may or may not be normalized.
}OBJ_VERT;
#define __OBJ_VERT__
#endif
#ifndef _PaperweightPenguin0_vertices_
// Raw Vertex Data follows: Positions, Texture Coordinates and Normals.
const OBJ_VERT PaperweightPenguin0_vertices[450] =
{
	{	{ -9.907129f, -11.724075f, 4.207526f },	{ 0.000000f, 0.000000f, 0.000000f },	{ 0.051196f, -0.983451f, 0.173788f }	},
	{	{ -9.903906f, -11.785991f, 3.663526f },	{ 0.000000f, 0.000000f, 0.000000f },	{ 0.051596f, -0.991136f, 0.122422f }	},
	{	{ -9.502249f, -11.684133f, 3.663526f },	{ 0.000000f, 0.000000f, 0.000000f },	{ 0.426960f, -0.895945f, 0.122422f }	},
	{	{ -9.528920f, -11.628162f, 4.207526f },	{ 0.000000f, 0.000000f, 0.000000f },	{ 0.423650f, -0.888999f, 0.173788f }	},
	{	{ -9.170145f, -11.436319f, 3.663526f },	{ 0.000000f, 0.000000f, 0.000000f },	{ 0.737323f, -0.664355f, 0.122422f }	},
	{	{ -9.216206f, -11.394817f, 4.207526f },	{ 0.000000f, 0.000000f, 0.000000f },	{ 0.731606f, -0.659204f, 0.173788f }	},
	{	{ -10.293252f, -11.667953f, 4.207526f },	{ 0.000000f, 0.000000f, 0.000000f },	{ -0.329051f, -0.928183f, 0.173788f }	},
	{	{ -10.313969f, -11.726389f, 3.663526f },	{ 0.000000f, 0.000000f, 0.000000f },	{ -0.331623f, -0.935435f, 0.122422f }	},
	{	{ -9.544923f, -11.594584f, 4.362327f },	{ 0.000000f, 0.000000f, 0.000000f },	{ 0.418289f, -0.877751f, 0.233641f }	},
	{	{ -9.909063f, -11.686928f, 4.362327f },	{ 0.000000f, 0.000000f, 0.000000f },	{ 0.050549f, -0.971008f, 0.233641f }	},
	{	{ -10.628507f, -11.468338f, 4.207526f },	{ 0.000000f, 0.000000f, 0.000000f },	{ -0.659204f, -0.731606f, 0.173788f }	},
	{	{ -10.670009f, -11.514399f, 3.663526f },	{ 0.000000f, 0.000000f, 0.000000f },	{ -0.664355f, -0.737323f, 0.122422f }	},
	{	{ -10.280824f, -11.632893f, 4.362327f },	{ 0.000000f, 0.000000f, 0.000000f },	{ -0.324888f, -0.916439f, 0.233641f }	},
	{	{ -10.861852f, -11.155623f, 4.207526f },	{ 0.000000f, 0.000000f, 0.000000f },	{ -0.888999f, -0.423650f, 0.173788f }	},
	{	{ -10.917822f, -11.182296f, 3.663526f },	{ 0.000000f, 0.000000f, 0.000000f },	{ -0.895945f, -0.426960f, 0.122422f }	},
	{	{ -10.603607f, -11.440704f, 4.362327f },	{ 0.000000f, 0.000000f, 0.000000f },	{ -0.650863f, -0.722350f, 0.233641f }	},
	{	{ -10.957765f, -10.777414f, 4.207526f },	{ 0.000000f, 0.000000f, 0.000000f },	{ -0.983451f, -0.051196f, 0.173788f }	},
	{	{ -11.019680f, -10.780638f, 3.663526f },	{ 0.000000f, 0.000000f, 0.000000f },	{ -0.991136f, -0.051596f, 0.122422f }	},
	{	{ -10.828273f, -11.139621f, 4.362327f },	{ 0.000000f, 0.000000f, 0.000000f },	{ -0.877751f, -0.418289f, 0.233641f }	},
	{	{ -10.901642f, -10.391292f, 4.207526f },	{ 0.000000f, 0.000000f, 0.000000f },	{ -0.928183f, 0.329051f, 0.173788f }	},
	{	{ -10.960078f, -10.370575f, 3.663526f },	{ 0.000000f, 0.000000f, 0.000000f },	{ -0.935435f, 0.331623f, 0.122422f }	},
	{	{ -10.920617f, -10.775481f, 4.362327f },	{ 0.000000f, 0.000000f, 0.000000f },	{ -0.971008f, -0.050549f, 0.233641f }	},
	{	{ -10.702027f, -10.056037f, 4.207526f },	{ 0.000000f, 0.000000f, 0.000000f },	{ -0.731606f, 0.659204f, 0.173788f }	},
	{	{ -10.748088f, -10.014535f, 3.663526f },	{ 0.000000f, 0.000000f, 0.000000f },	{ -0.737323f, 0.664355f, 0.122422f }	},
	{	{ -10.866582f, -10.403720f, 4.362327f },	{ 0.000000f, 0.000000f, 0.000000f },	{ -0.916439f, 0.324888f, 0.233641f }	},
	{	{ -10.389313f, -9.822692f, 4.207526f },	{ 0.000000f, 0.000000f, 0.000000f },	{ -0.423650f, 0.888999f, 0.173788f }	},
	{	{ -10.415985f, -9.766722f, 3.663526f },	{ 0.000000f, 0.000000f, 0.000000f },	{ -0.426960f, 0.895945f, 0.122422f }	},
	{	{ -10.674394f, -10.080936f, 4.362327f },	{ 0.000000f, 0.000000f, 0.000000f },	{ -0.722350f, 0.650863f, 0.233641f }	},
	{	{ -10.373310f, -9.856271f, 4.362327f },	{ 0.000000f, 0.000000f, 0.000000f },	{ -0.418289f, 0.877751f, 0.233641f }	},
	{	{ -10.009171f, -9.763927f, 4.362327f },	{ 0.000000f, 0.000000f, 0.000000f },	{ -0.050549f, 0.971008f, 0.233641f }	},
	{	{ -10.011104f, -9.726779f, 4.207526f },	{ 0.000000f, 0.000000f, 0.000000f },	{ -0.051196f, 0.983451f, 0.173788f }	},
	{	{ -9.909416f, -11.680135f, 4.390637f },	{ 0.000000f, 0.000000f, 0.000000f },	{ 0.031885f, -0.612487f, 0.789838f }	},
	{	{ -9.547849f, -11.588443f, 4.390637f },	{ 0.000000f, 0.000000f, 0.000000f },	{ 0.263846f, -0.553662f, 0.789838f }	},
	{	{ -9.248894f, -11.365364f, 4.390637f },	{ 0.000000f, 0.000000f, 0.000000f },	{ 0.455639f, -0.410548f, 0.789838f }	},
	{	{ -9.288753f, -11.329450f, 4.390637f },	{ 0.000000f, 0.000000f, 0.000000f },	{ 0.000000f, 0.000000f, 1.000000f }	},
	{	{ -9.570930f, -11.540009f, 4.390637f },	{ 0.000000f, 0.000000f, 0.000000f },	{ 0.000000f, 0.000000f, 1.000000f }	},
	{	{ -10.278550f, -11.626481f, 4.390637f },	{ 0.000000f, 0.000000f, 0.000000f },	{ -0.204931f, -0.578066f, 0.789838f }	},
	{	{ -9.912206f, -11.626554f, 4.390637f },	{ 0.000000f, 0.000000f, 0.000000f },	{ 0.000000f, 0.000000f, 1.000000f }	},
	{	{ -10.599053f, -11.435650f, 4.390637f },	{ 0.000000f, 0.000000f, 0.000000f },	{ -0.410548f, -0.455639f, 0.789838f }	},
	{	{ -10.260623f, -11.575912f, 4.390637f },	{ 0.000000f, 0.000000f, 0.000000f },	{ 0.000000f, 0.000000f, 1.000000f }	},
	{	{ -10.822132f, -11.136695f, 4.390637f },	{ 0.000000f, 0.000000f, 0.000000f },	{ -0.553662f, -0.263846f, 0.789838f }	},
	{	{ -10.563139f, -11.395791f, 4.390637f },	{ 0.000000f, 0.000000f, 0.000000f },	{ 0.000000f, 0.000000f, 1.000000f }	},
	{	{ -10.913824f, -10.775127f, 4.390637f },	{ 0.000000f, 0.000000f, 0.000000f },	{ -0.612487f, -0.031885f, 0.789838f }	},
	{	{ -10.773698f, -11.113613f, 4.390637f },	{ 0.000000f, 0.000000f, 0.000000f },	{ 0.000000f, 0.000000f, 1.000000f }	},
	{	{ -10.860170f, -10.405993f, 4.390637f },	{ 0.000000f, 0.000000f, 0.000000f },	{ -0.578066f, 0.204931f, 0.789838f }	},
	{	{ -10.860244f, -10.772338f, 4.390637f },	{ 0.000000f, 0.000000f, 0.000000f },	{ 0.000000f, 0.000000f, 1.000000f }	},
	{	{ -10.669339f, -10.085490f, 4.390637f },	{ 0.000000f, 0.000000f, 0.000000f },	{ -0.455639f, 0.410548f, 0.789838f }	},
	{	{ -10.809602f, -10.423921f, 4.390637f },	{ 0.000000f, 0.000000f, 0.000000f },	{ 0.000000f, 0.000000f, 1.000000f }	},
	{	{ -10.370384f, -9.862412f, 4.390637f },	{ 0.000000f, 0.000000f, 0.000000f },	{ -0.263846f, 0.553662f, 0.789838f }	},
	{	{ -10.629480f, -10.121405f, 4.390637f },	{ 0.000000f, 0.000000f, 0.000000f },	{ 0.000000f, 0.000000f, 1.000000f }	},
	{	{ -10.347302f, -9.910846f, 4.390637f },	{ 0.000000f, 0.000000f, 0.000000f },	{ 0.000000f, 0.000000f, 1.000000f }	},
	{	{ -10.006027f, -9.824300f, 4.390637f },	{ 0.000000f, 0.000000f, 0.000000f },	{ 0.000000f, 0.000000f, 1.000000f }	},
	{	{ -10.008817f, -9.770720f, 4.390637f },	{ 0.000000f, 0.000000f, 0.000000f },	{ -0.031885f, 0.612487f, 0.789838f }	},
	{	{ -10.014327f, -9.664864f, 3.663526f },	{ 0.000000f, 0.000000f, 0.000000f },	{ -0.051596f, 0.991136f, 0.122422f }	},
	{	{ -10.453448f, -9.688108f, 3.007526f },	{ 0.000000f, 0.000000f, 0.000000f },	{ -0.429259f, 0.900770f, 0.065952f }	},
	{	{ -10.812784f, -9.956242f, 3.007526f },	{ 0.000000f, 0.000000f, 0.000000f },	{ -0.741294f, 0.667933f, 0.065952f }	},
	{	{ -11.042157f, -10.341477f, 3.007526f },	{ 0.000000f, 0.000000f, 0.000000f },	{ -0.935917f, 0.343794f, 0.076584f }	},
	{	{ -11.106647f, -10.785165f, 3.007526f },	{ 0.000000f, 0.000000f, 0.000000f },	{ -0.995792f, -0.040646f, 0.082136f }	},
	{	{ -10.996435f, -11.219759f, 3.007526f },	{ 0.000000f, 0.000000f, 0.000000f },	{ -0.900100f, -0.428940f, 0.076364f }	},
	{	{ -10.728302f, -11.579095f, 3.007526f },	{ 0.000000f, 0.000000f, 0.000000f },	{ -0.658782f, -0.747836f, 0.082136f }	},
	{	{ -10.343067f, -11.808468f, 3.007526f },	{ 0.000000f, 0.000000f, 0.000000f },	{ -0.322472f, -0.943476f, 0.076584f }	},
	{	{ -9.899379f, -11.872957f, 3.007526f },	{ 0.000000f, 0.000000f, 0.000000f },	{ 0.051874f, -0.996473f, 0.065952f }	},
	{	{ -9.464786f, -11.762746f, 3.007526f },	{ 0.000000f, 0.000000f, 0.000000f },	{ 0.429259f, -0.900770f, 0.065952f }	},
	{	{ -9.105449f, -11.494613f, 3.007526f },	{ 0.000000f, 0.000000f, 0.000000f },	{ 0.741294f, -0.667933f, 0.065952f }	},
	{	{ -10.018854f, -9.577897f, 3.007526f },	{ 0.000000f, 0.000000f, 0.000000f },	{ -0.051874f, 0.996473f, 0.065952f }	},
	{	{ -10.453448f, -9.688108f, 2.532859f },	{ 0.000000f, 0.000000f, 0.000000f },	{ -0.426896f, 0.895811f, -0.123618f }	},
	{	{ -10.812784f, -9.956242f, 2.532859f },	{ 0.000000f, 0.000000f, 0.000000f },	{ -0.733870f, 0.669466f, -0.115105f }	},
	{	{ -11.042157f, -10.341477f, 2.532859f },	{ 0.000000f, 0.000000f, 0.000000f },	{ -0.927766f, 0.359044f, -0.101678f }	},
	{	{ -11.134332f, -10.715549f, 2.532859f },	{ 0.000000f, 0.000000f, 0.000000f },	{ -0.990633f, 0.107242f, 0.084533f }	},
	{	{ -11.005384f, -11.224023f, 2.532859f },	{ 0.000000f, 0.000000f, 0.000000f },	{ -0.788399f, -0.373471f, 0.488822f }	},
	{	{ -10.691669f, -11.644446f, 2.532859f },	{ 0.000000f, 0.000000f, 0.000000f },	{ -0.504896f, -0.858348f, 0.091203f }	},
	{	{ -10.343067f, -11.808468f, 2.532859f },	{ 0.000000f, 0.000000f, 0.000000f },	{ -0.305494f, -0.946750f, -0.101678f }	},
	{	{ -9.899379f, -11.872957f, 2.532859f },	{ 0.000000f, 0.000000f, 0.000000f },	{ 0.057741f, -0.991674f, -0.115105f }	},
	{	{ -9.464786f, -11.762746f, 2.532859f },	{ 0.000000f, 0.000000f, 0.000000f },	{ 0.426896f, -0.895811f, -0.123618f }	},
	{	{ -9.105449f, -11.494613f, 2.532859f },	{ 0.000000f, 0.000000f, 0.000000f },	{ 0.733870f, -0.669466f, -0.115105f }	},
	{	{ -10.018854f, -9.577897f, 2.532859f },	{ 0.000000f, 0.000000f, 0.000000f },	{ -0.057741f, 0.991674f, -0.115105f }	},
	{	{ -10.417856f, -9.762795f, 2.205748f },	{ 0.000000f, 0.000000f, 0.000000f },	{ -0.412357f, 0.865302f, -0.284979f }	},
	{	{ -10.751320f, -10.011623f, 2.205748f },	{ 0.000000f, 0.000000f, 0.000000f },	{ -0.696903f, 0.654943f, -0.292192f }	},
	{	{ -10.964178f, -10.369122f, 2.099128f },	{ 0.000000f, 0.000000f, 0.000000f },	{ -0.873667f, 0.355164f, -0.332514f }	},
	{	{ -10.994117f, -10.743013f, 2.020349f },	{ 0.000000f, 0.000000f, 0.000000f },	{ -0.870477f, 0.154896f, -0.467200f }	},
	{	{ -11.008754f, -10.778169f, 2.075678f },	{ 0.000000f, 0.000000f, 0.000000f },	{ -0.797252f, 0.341814f, -0.497547f }	},
	{	{ -11.189363f, -10.805412f, 2.475560f },	{ 0.000000f, 0.000000f, 0.000000f },	{ -0.595638f, 0.803117f, 0.014780f }	},
	{	{ -11.092828f, -11.265694f, 2.475560f },	{ 0.000000f, 0.000000f, 0.000000f },	{ 0.432525f, 0.206766f, 0.877593f }	},
	{	{ -10.782357f, -11.659483f, 2.475560f },	{ 0.000000f, 0.000000f, 0.000000f },	{ 0.256481f, -0.966544f, 0.003291f }	},
	{	{ -10.624683f, -11.518242f, 2.020349f },	{ 0.000000f, 0.000000f, 0.000000f },	{ -0.393088f, -0.788771f, -0.472571f }	},
	{	{ -10.315422f, -11.730489f, 2.099128f },	{ 0.000000f, 0.000000f, 0.000000f },	{ -0.274432f, -0.902287f, -0.332514f }	},
	{	{ -9.903680f, -11.790335f, 2.205748f },	{ 0.000000f, 0.000000f, 0.000000f },	{ 0.069745f, -0.953813f, -0.292192f }	},
	{	{ -9.500377f, -11.688059f, 2.205748f },	{ 0.000000f, 0.000000f, 0.000000f },	{ 0.412357f, -0.865302f, -0.284979f }	},
	{	{ -9.166913f, -11.439231f, 2.205748f },	{ 0.000000f, 0.000000f, 0.000000f },	{ 0.696903f, -0.654943f, -0.292192f }	},
	{	{ -10.014553f, -9.660520f, 2.205748f },	{ 0.000000f, 0.000000f, 0.000000f },	{ -0.069745f, 0.953813f, -0.292192f }	},
	{	{ -10.375652f, -9.851357f, 1.919526f },	{ 0.000000f, 0.000000f, 0.000000f },	{ -0.383527f, 0.804804f, -0.452988f }	},
	{	{ -10.678437f, -10.077293f, 1.919526f },	{ 0.000000f, 0.000000f, 0.000000f },	{ -0.647399f, 0.602254f, -0.467082f }	},
	{	{ -10.871713f, -10.401901f, 1.919526f },	{ 0.000000f, 0.000000f, 0.000000f },	{ -0.796499f, 0.319089f, -0.513587f }	},
	{	{ -10.907317f, -10.733287f, 1.868342f },	{ 0.000000f, 0.000000f, 0.000000f },	{ -0.808819f, 0.010472f, -0.587965f }	},
	{	{ -10.865381f, -11.157305f, 1.875498f },	{ 0.000000f, 0.000000f, 0.000000f },	{ -0.678858f, -0.323508f, -0.659162f }	},
	{	{ -10.918107f, -11.182431f, 1.907915f },	{ 0.000000f, 0.000000f, 0.000000f },	{ -0.663788f, -0.316326f, -0.677734f }	},
	{	{ -10.798182f, -11.125282f, 1.844130f },	{ 0.000000f, 0.000000f, 0.000000f },	{ -0.695026f, -0.331213f, -0.638151f }	},
	{	{ -10.661209f, -11.507466f, 2.075678f },	{ 0.000000f, 0.000000f, 0.000000f },	{ -0.213458f, -0.830396f, -0.514663f }	},
	{	{ -10.562458f, -11.456950f, 1.868342f },	{ 0.000000f, 0.000000f, 0.000000f },	{ -0.501311f, -0.634811f, -0.587965f }	},
	{	{ -10.282642f, -11.638023f, 1.919526f },	{ 0.000000f, 0.000000f, 0.000000f },	{ -0.253847f, -0.819628f, -0.513587f }	},
	{	{ -9.908780f, -11.692364f, 1.919526f },	{ 0.000000f, 0.000000f, 0.000000f },	{ 0.060002f, -0.882176f, -0.467082f }	},
	{	{ -9.542581f, -11.599497f, 1.919526f },	{ 0.000000f, 0.000000f, 0.000000f },	{ 0.383527f, -0.804804f, -0.452988f }	},
	{	{ -9.239796f, -11.373561f, 1.919526f },	{ 0.000000f, 0.000000f, 0.000000f },	{ 0.647399f, -0.602254f, -0.467082f }	},
	{	{ -10.009453f, -9.758491f, 1.919526f },	{ 0.000000f, 0.000000f, 0.000000f },	{ -0.060002f, 0.882176f, -0.467082f }	},
	{	{ -10.299843f, -10.010438f, 1.667081f },	{ 0.000000f, 0.000000f, 0.000000f },	{ -0.358989f, 0.753313f, -0.551040f }	},
	{	{ -10.547521f, -10.195253f, 1.667081f },	{ 0.000000f, 0.000000f, 0.000000f },	{ -0.619943f, 0.558592f, -0.551040f }	},
	{	{ -10.705620f, -10.460783f, 1.667081f },	{ 0.000000f, 0.000000f, 0.000000f },	{ -0.779269f, 0.285734f, -0.557760f }	},
	{	{ -10.750071f, -10.766603f, 1.667081f },	{ 0.000000f, 0.000000f, 0.000000f },	{ -0.823413f, -0.032584f, -0.566506f }	},
	{	{ -10.674106f, -11.066154f, 1.667081f },	{ 0.000000f, 0.000000f, 0.000000f },	{ -0.743882f, -0.354495f, -0.566545f }	},
	{	{ -10.489290f, -11.313831f, 1.667081f },	{ 0.000000f, 0.000000f, 0.000000f },	{ -0.543946f, -0.619027f, -0.566506f }	},
	{	{ -10.223761f, -11.471931f, 1.667081f },	{ 0.000000f, 0.000000f, 0.000000f },	{ -0.268901f, -0.785236f, -0.557760f }	},
	{	{ -9.917941f, -11.516381f, 1.667081f },	{ 0.000000f, 0.000000f, 0.000000f },	{ 0.043382f, -0.833350f, -0.551040f }	},
	{	{ -9.618390f, -11.440416f, 1.667081f },	{ 0.000000f, 0.000000f, 0.000000f },	{ 0.358989f, -0.753313f, -0.551040f }	},
	{	{ -9.370712f, -11.255601f, 1.667081f },	{ 0.000000f, 0.000000f, 0.000000f },	{ 0.619943f, -0.558592f, -0.551040f }	},
	{	{ -10.000292f, -9.934473f, 1.667081f },	{ 0.000000f, 0.000000f, 0.000000f },	{ -0.043382f, 0.833350f, -0.551040f }	},
	{	{ -10.239693f, -10.136659f, 1.442959f },	{ 0.000000f, 0.000000f, 0.000000f },	{ -0.386225f, 0.810466f, -0.440426f }	},
	{	{ -10.443647f, -10.288848f, 1.442959f },	{ 0.000000f, 0.000000f, 0.000000f },	{ -0.666978f, 0.600971f, -0.440426f }	},
	{	{ -10.573836f, -10.507502f, 1.442959f },	{ 0.000000f, 0.000000f, 0.000000f },	{ -0.846189f, 0.299984f, -0.440426f }	},
	{	{ -10.610439f, -10.759334f, 1.442959f },	{ 0.000000f, 0.000000f, 0.000000f },	{ -0.896575f, -0.046674f, -0.440426f }	},
	{	{ -10.547885f, -11.006003f, 1.442959f },	{ 0.000000f, 0.000000f, 0.000000f },	{ -0.810466f, -0.386225f, -0.440426f }	},
	{	{ -10.395696f, -11.209958f, 1.442959f },	{ 0.000000f, 0.000000f, 0.000000f },	{ -0.600971f, -0.666978f, -0.440426f }	},
	{	{ -10.177042f, -11.340147f, 1.442959f },	{ 0.000000f, 0.000000f, 0.000000f },	{ -0.299984f, -0.846189f, -0.440426f }	},
	{	{ -9.925210f, -11.376750f, 1.442959f },	{ 0.000000f, 0.000000f, 0.000000f },	{ 0.046674f, -0.896575f, -0.440426f }	},
	{	{ -9.678540f, -11.314196f, 1.442959f },	{ 0.000000f, 0.000000f, 0.000000f },	{ 0.386225f, -0.810466f, -0.440426f }	},
	{	{ -9.474586f, -11.162006f, 1.442959f },	{ 0.000000f, 0.000000f, 0.000000f },	{ 0.666978f, -0.600971f, -0.440426f }	},
	{	{ -9.993023f, -10.074104f, 1.442959f },	{ 0.000000f, 0.000000f, 0.000000f },	{ -0.046674f, 0.896575f, -0.440426f }	},
	{	{ -10.204720f, -10.210046f, 1.223025f },	{ 0.000000f, 0.000000f, 0.000000f },	{ -0.426098f, 0.894136f, -0.137700f }	},
	{	{ -10.383252f, -10.343266f, 1.223025f },	{ 0.000000f, 0.000000f, 0.000000f },	{ -0.735834f, 0.663013f, -0.137700f }	},
	{	{ -10.497214f, -10.534665f, 1.223025f },	{ 0.000000f, 0.000000f, 0.000000f },	{ -0.934478f, 0.325667f, -0.143846f }	},
	{	{ -10.529255f, -10.755107f, 1.223025f },	{ 0.000000f, 0.000000f, 0.000000f },	{ -0.986079f, -0.056605f, -0.156343f }	},
	{	{ -10.474498f, -10.971030f, 1.223025f },	{ 0.000000f, 0.000000f, 0.000000f },	{ -0.890528f, -0.424750f, -0.162932f }	},
	{	{ -10.341278f, -11.149563f, 1.223025f },	{ 0.000000f, 0.000000f, 0.000000f },	{ -0.664856f, -0.730509f, -0.155958f }	},
	{	{ -10.149879f, -11.263525f, 1.223025f },	{ 0.000000f, 0.000000f, 0.000000f },	{ -0.335653f, -0.930937f, -0.143856f }	},
	{	{ -9.929437f, -11.295566f, 1.223025f },	{ 0.000000f, 0.000000f, 0.000000f },	{ 0.051485f, -0.989136f, -0.137692f }	},
	{	{ -9.713513f, -11.240808f, 1.223025f },	{ 0.000000f, 0.000000f, 0.000000f },	{ 0.428315f, -0.898788f, -0.093411f }	},
	{	{ -9.534981f, -11.107589f, 1.223025f },	{ 0.000000f, 0.000000f, 0.000000f },	{ 0.735840f, -0.663009f, -0.137692f }	},
	{	{ -9.988796f, -10.155289f, 1.223025f },	{ 0.000000f, 0.000000f, 0.000000f },	{ -0.051492f, 0.989135f, -0.137700f }	},
	{	{ -10.211266f, -10.196311f, 1.028991f },	{ 0.000000f, 0.000000f, 0.000000f },	{ -0.425333f, 0.892531f, 0.149933f }	},
	{	{ -10.394556f, -10.333080f, 1.028991f },	{ 0.000000f, 0.000000f, 0.000000f },	{ -0.734513f, 0.661823f, 0.149933f }	},
	{	{ -10.511555f, -10.529581f, 1.028991f },	{ 0.000000f, 0.000000f, 0.000000f },	{ -0.944888f, 0.301680f, 0.127184f }	},
	{	{ -10.534906f, -10.753430f, 1.027542f },	{ 0.000000f, 0.000000f, 0.000000f },	{ -0.993621f, -0.083044f, 0.076300f }	},
	{	{ -10.478780f, -10.974757f, 1.027524f },	{ 0.000000f, 0.000000f, 0.000000f },	{ -0.900660f, -0.431368f, 0.052278f }	},
	{	{ -10.343557f, -11.154977f, 1.027540f },	{ 0.000000f, 0.000000f, 0.000000f },	{ -0.688865f, -0.720709f, 0.077748f }	},
	{	{ -10.154963f, -11.277865f, 1.028991f },	{ 0.000000f, 0.000000f, 0.000000f },	{ -0.360878f, -0.923905f, 0.127147f }	},
	{	{ -9.928645f, -11.310760f, 1.028991f },	{ 0.000000f, 0.000000f, 0.000000f },	{ 0.051393f, -0.987358f, 0.149940f }	},
	{	{ -9.817803f, -11.282665f, 1.028928f },	{ 0.000000f, 0.000000f, 0.000000f },	{ 0.290221f, -0.945443f, 0.148019f }	},
	{	{ -9.989588f, -10.140094f, 1.028991f },	{ 0.000000f, 0.000000f, 0.000000f },	{ -0.051400f, 0.987359f, 0.149933f }	},
	{	{ -10.231736f, -10.153354f, 0.818849f },	{ 0.000000f, 0.000000f, 0.000000f },	{ -0.425085f, 0.892009f, 0.153696f }	},
	{	{ -10.429908f, -10.301228f, 0.818849f },	{ 0.000000f, 0.000000f, 0.000000f },	{ -0.734084f, 0.661436f, 0.153696f }	},
	{	{ -10.556405f, -10.513681f, 0.818849f },	{ 0.000000f, 0.000000f, 0.000000f },	{ -0.957081f, 0.259246f, 0.129563f }	},
	{	{ -10.552220f, -10.748292f, 0.817228f },	{ 0.000000f, 0.000000f, 0.000000f },	{ -0.987094f, -0.141371f, 0.075235f }	},
	{	{ -10.491895f, -10.986171f, 0.817228f },	{ 0.000000f, 0.000000f, 0.000000f },	{ -0.898717f, -0.431738f, 0.076872f }	},
	{	{ -10.350544f, -11.171576f, 0.817088f },	{ 0.000000f, 0.000000f, 0.000000f },	{ -0.727203f, -0.682132f, 0.076630f }	},
	{	{ -10.170862f, -11.322716f, 0.818849f },	{ 0.000000f, 0.000000f, 0.000000f },	{ -0.440223f, -0.881815f, 0.169136f }	},
	{	{ -9.926171f, -11.358281f, 0.818849f },	{ 0.000000f, 0.000000f, 0.000000f },	{ 0.032961f, -0.960455f, 0.276476f }	},
	{	{ -9.806334f, -11.327890f, 0.818849f },	{ 0.000000f, 0.000000f, 0.000000f },	{ 0.320530f, -0.903421f, 0.284764f }	},
	{	{ -9.686497f, -11.297501f, 0.818849f },	{ 0.000000f, 0.000000f, 0.000000f },	{ 0.414696f, -0.870211f, 0.266008f }	},
	{	{ -9.706967f, -11.254543f, 1.028991f },	{ 0.000000f, 0.000000f, 0.000000f },	{ 0.423701f, -0.889107f, 0.173108f }	},
	{	{ -9.587411f, -11.223563f, 0.818849f },	{ 0.000000f, 0.000000f, 0.000000f },	{ 0.499803f, -0.817989f, 0.284764f }	},
	{	{ -9.615314f, -11.186170f, 1.028928f },	{ 0.000000f, 0.000000f, 0.000000f },	{ 0.551533f, -0.820916f, 0.148019f }	},
	{	{ -9.992062f, -10.092573f, 0.818849f },	{ 0.000000f, 0.000000f, 0.000000f },	{ -0.051370f, 0.986782f, 0.153696f }	},
	{	{ -10.241637f, -10.132579f, 0.551509f },	{ 0.000000f, 0.000000f, 0.000000f },	{ -0.429266f, 0.900784f, -0.065718f }	},
	{	{ -10.447004f, -10.285822f, 0.551509f },	{ 0.000000f, 0.000000f, 0.000000f },	{ -0.741305f, 0.667943f, -0.065718f }	},
	{	{ -10.578096f, -10.505992f, 0.551509f },	{ 0.000000f, 0.000000f, 0.000000f },	{ -0.964960f, 0.257089f, -0.052502f }	},
	{	{ -10.557210f, -10.744925f, 0.555357f },	{ 0.000000f, 0.000000f, 0.000000f },	{ -0.995167f, -0.095547f, -0.022658f }	},
	{	{ -10.531310f, -10.912216f, 0.549418f },	{ 0.000000f, 0.000000f, 0.000000f },	{ -0.715272f, -0.698041f, -0.033534f }	},
	{	{ -10.522434f, -10.935870f, 0.606283f },	{ 0.000000f, 0.000000f, 0.000000f },	{ -0.740602f, -0.574245f, -0.348928f }	},
	{	{ -10.498572f, -10.988788f, 0.628693f },	{ 0.000000f, 0.000000f, 0.000000f },	{ -0.803765f, -0.369112f, -0.466603f }	},
	{	{ -10.473703f, -11.039972f, 0.603520f },	{ 0.000000f, 0.000000f, 0.000000f },	{ -0.918678f, -0.188864f, -0.346931f }	},
	{	{ -10.350978f, -11.177690f, 0.555357f },	{ 0.000000f, 0.000000f, 0.000000f },	{ -0.695365f, -0.718268f, -0.023628f }	},
	{	{ -10.178552f, -11.344407f, 0.551509f },	{ 0.000000f, 0.000000f, 0.000000f },	{ -0.549237f, -0.831726f, -0.081060f }	},
	{	{ -9.839796f, -11.562572f, 0.326761f },	{ 0.000000f, 0.000000f, 0.000000f },	{ -0.248864f, -0.964992f, 0.082808f }	},
	{	{ -9.726463f, -11.501390f, 0.328758f },	{ 0.000000f, 0.000000f, 0.000000f },	{ 0.383552f, -0.753002f, 0.534673f }	},
	{	{ -9.628775f, -11.418627f, 0.311598f },	{ 0.000000f, 0.000000f, 0.000000f },	{ 0.360119f, -0.755684f, 0.547042f }	},
	{	{ -9.502960f, -11.394881f, 0.328758f },	{ 0.000000f, 0.000000f, 0.000000f },	{ 0.343276f, -0.772196f, 0.534673f }	},
	{	{ -9.993258f, -10.069591f, 0.551509f },	{ 0.000000f, 0.000000f, 0.000000f },	{ -0.051875f, 0.996489f, -0.065718f }	},
	{	{ -10.211737f, -10.195321f, 0.236698f },	{ 0.000000f, 0.000000f, 0.000000f },	{ -0.380923f, 0.799340f, -0.464708f }	},
	{	{ -10.395370f, -10.332347f, 0.236698f },	{ 0.000000f, 0.000000f, 0.000000f },	{ -0.657821f, 0.592721f, -0.464708f }	},
	{	{ -10.512588f, -10.529215f, 0.236698f },	{ 0.000000f, 0.000000f, 0.000000f },	{ -0.852897f, 0.269120f, -0.447371f }	},
	{	{ -10.545545f, -10.755956f, 0.236698f },	{ 0.000000f, 0.000000f, 0.000000f },	{ -0.935329f, -0.108771f, -0.336642f }	},
	{	{ -10.520001f, -10.931683f, 0.491409f },	{ 0.000000f, 0.000000f, 0.000000f },	{ -0.754190f, -0.590390f, 0.287465f }	},
	{	{ -10.438874f, -10.926436f, 0.555044f },	{ 0.000000f, 0.000000f, 0.000000f },	{ -0.617224f, -0.783835f, -0.068105f }	},
	{	{ -10.432447f, -10.936049f, 0.529127f },	{ 0.000000f, 0.000000f, 0.000000f },	{ -0.560273f, -0.735161f, 0.381618f }	},
	{	{ -10.423535f, -10.954352f, 0.521686f },	{ 0.000000f, 0.000000f, 0.000000f },	{ -0.824735f, -0.386982f, 0.412380f }	},
	{	{ -10.425178f, -10.956419f, 0.554224f },	{ 0.000000f, 0.000000f, 0.000000f },	{ -0.907969f, -0.412801f, -0.072027f }	},
	{	{ -10.415543f, -10.973168f, 0.528758f },	{ 0.000000f, 0.000000f, 0.000000f },	{ -0.912331f, 0.051909f, 0.406150f }	},
	{	{ -10.412392f, -10.984706f, 0.555162f },	{ 0.000000f, 0.000000f, 0.000000f },	{ -0.996766f, 0.061452f, -0.051783f }	},
	{	{ -10.462396f, -11.059439f, 0.545511f },	{ 0.000000f, 0.000000f, 0.000000f },	{ -0.995216f, -0.096182f, -0.017160f }	},
	{	{ -10.352197f, -11.161681f, 0.236698f },	{ 0.000000f, 0.000000f, 0.000000f },	{ -0.671698f, -0.658925f, -0.338585f }	},
	{	{ -10.155329f, -11.278898f, 0.236698f },	{ 0.000000f, 0.000000f, 0.000000f },	{ -0.418711f, -0.751913f, -0.509223f }	},
	{	{ -9.928589f, -11.311855f, 0.236698f },	{ 0.000000f, 0.000000f, 0.000000f },	{ -0.328996f, -0.522636f, -0.786519f }	},
	{	{ -9.721014f, -11.504404f, 0.088285f },	{ 0.000000f, 0.000000f, 0.000000f },	{ -0.643447f, 0.038381f, -0.764528f }	},
	{	{ -9.672079f, -11.647950f, 0.143712f },	{ 0.000000f, 0.000000f, 0.000000f },	{ -0.424749f, -0.893234f, 0.147382f }	},
	{	{ -9.603864f, -11.628685f, 0.146130f },	{ 0.000000f, 0.000000f, 0.000000f },	{ 0.281752f, -0.732045f, 0.620263f }	},
	{	{ -9.537063f, -11.611077f, 0.145869f },	{ 0.000000f, 0.000000f, 0.000000f },	{ 0.326171f, -0.684447f, 0.652031f }	},
	{	{ -9.481311f, -11.570283f, 0.146130f },	{ 0.000000f, 0.000000f, 0.000000f },	{ 0.391119f, -0.679926f, 0.620263f }	},
	{	{ -9.989645f, -10.139000f, 0.236698f },	{ 0.000000f, 0.000000f, 0.000000f },	{ -0.046033f, 0.884267f, -0.464708f }	},
	{	{ -10.144034f, -10.337390f, 0.066800f },	{ 0.000000f, 0.000000f, 0.000000f },	{ -0.236299f, 0.495857f, -0.835637f }	},
	{	{ -10.278454f, -10.437693f, 0.066800f },	{ 0.000000f, 0.000000f, 0.000000f },	{ -0.408068f, 0.367684f, -0.835637f }	},
	{	{ -10.364258f, -10.581800f, 0.066800f },	{ 0.000000f, 0.000000f, 0.000000f },	{ -0.517712f, 0.183535f, -0.835637f }	},
	{	{ -10.388382f, -10.747774f, 0.066800f },	{ 0.000000f, 0.000000f, 0.000000f },	{ -0.548540f, -0.028556f, -0.835637f }	},
	{	{ -10.489223f, -10.978047f, 0.236698f },	{ 0.000000f, 0.000000f, 0.000000f },	{ -0.828876f, -0.393946f, -0.397205f }	},
	{	{ -10.495132f, -10.982866f, 0.466236f },	{ 0.000000f, 0.000000f, 0.000000f },	{ -0.818707f, -0.394690f, 0.417061f }	},
	{	{ -10.347154f, -10.910345f, 0.066800f },	{ 0.000000f, 0.000000f, 0.000000f },	{ -0.495857f, -0.236299f, -0.835637f }	},
	{	{ -10.471272f, -11.035785f, 0.488646f },	{ 0.000000f, 0.000000f, 0.000000f },	{ -0.928254f, -0.210579f, 0.306594f }	},
	{	{ -10.246851f, -11.044765f, 0.066800f },	{ 0.000000f, 0.000000f, 0.000000f },	{ -0.367684f, -0.408068f, -0.835637f }	},
	{	{ -10.102743f, -11.130569f, 0.066800f },	{ 0.000000f, 0.000000f, 0.000000f },	{ -0.183535f, -0.517712f, -0.835637f }	},
	{	{ -9.936769f, -11.154693f, 0.066800f },	{ 0.000000f, 0.000000f, 0.000000f },	{ 0.028556f, -0.548540f, -0.835637f }	},
	{	{ -9.817542f, -11.283694f, 0.236698f },	{ 0.000000f, 0.000000f, 0.000000f },	{ 0.120856f, -0.106743f, -0.986914f }	},
	{	{ -9.774199f, -11.113464f, 0.066800f },	{ 0.000000f, 0.000000f, 0.000000f },	{ 0.253831f, -0.532646f, -0.807377f }	},
	{	{ -9.614679f, -11.187020f, 0.236698f },	{ 0.000000f, 0.000000f, 0.000000f },	{ 0.006785f, -0.161104f, -0.986914f }	},
	{	{ -9.706496f, -11.255533f, 0.236698f },	{ 0.000000f, 0.000000f, 0.000000f },	{ -0.041857f, 0.087835f, -0.995255f }	},
	{	{ -9.981463f, -10.296162f, 0.066800f },	{ 0.000000f, 0.000000f, 0.000000f },	{ -0.028556f, 0.548540f, -0.835637f }	},
	{	{ -10.045688f, -10.543763f, -0.014431f },	{ 0.000000f, 0.000000f, 0.000000f },	{ -0.113312f, 0.237777f, -0.964688f }	},
	{	{ -10.108618f, -10.590721f, -0.014431f },	{ 0.000000f, 0.000000f, 0.000000f },	{ -0.195680f, 0.176315f, -0.964688f }	},
	{	{ -10.148787f, -10.658187f, -0.014431f },	{ 0.000000f, 0.000000f, 0.000000f },	{ -0.248257f, 0.088010f, -0.964688f }	},
	{	{ -10.160081f, -10.735889f, -0.014431f },	{ 0.000000f, 0.000000f, 0.000000f },	{ -0.263040f, -0.013693f, -0.964688f }	},
	{	{ -10.140780f, -10.811998f, -0.014431f },	{ 0.000000f, 0.000000f, 0.000000f },	{ -0.237777f, -0.113312f, -0.964688f }	},
	{	{ -10.093822f, -10.874928f, -0.014431f },	{ 0.000000f, 0.000000f, 0.000000f },	{ -0.176315f, -0.195680f, -0.964688f }	},
	{	{ -10.026357f, -10.915098f, -0.014431f },	{ 0.000000f, 0.000000f, 0.000000f },	{ -0.088010f, -0.248257f, -0.964688f }	},
	{	{ -9.948655f, -10.926392f, -0.014431f },	{ 0.000000f, 0.000000f, 0.000000f },	{ 0.013693f, -0.263040f, -0.964688f }	},
	{	{ -9.872545f, -10.907091f, -0.014431f },	{ 0.000000f, 0.000000f, 0.000000f },	{ 0.113312f, -0.237777f, -0.964688f }	},
	{	{ -9.809615f, -10.860133f, -0.014431f },	{ 0.000000f, 0.000000f, 0.000000f },	{ 0.195680f, -0.176315f, -0.964688f }	},
	{	{ -9.639779f, -11.013162f, 0.066800f },	{ 0.000000f, 0.000000f, 0.000000f },	{ 0.408068f, -0.367684f, -0.835637f }	},
	{	{ -9.522862f, -11.118507f, 0.236698f },	{ 0.000000f, 0.000000f, 0.000000f },	{ 0.613157f, -0.073656f, -0.786519f }	},
	{	{ -9.969579f, -10.524463f, -0.014431f },	{ 0.000000f, 0.000000f, 0.000000f },	{ -0.013693f, 0.263040f, -0.964688f }	},
	{	{ -10.006557f, -10.625875f, -0.032092f },	{ 0.000000f, 0.000000f, 0.000000f },	{ -0.041173f, 0.086399f, -0.995409f }	},
	{	{ -10.041043f, -10.651608f, -0.032092f },	{ 0.000000f, 0.000000f, 0.000000f },	{ -0.094767f, 0.085388f, -0.991831f }	},
	{	{ -10.063056f, -10.688580f, -0.032092f },	{ 0.000000f, 0.000000f, 0.000000f },	{ -0.090208f, 0.031980f, -0.995409f }	},
	{	{ -10.069245f, -10.731160f, -0.032092f },	{ 0.000000f, 0.000000f, 0.000000f },	{ -0.127389f, -0.006632f, -0.991831f }	},
	{	{ -10.058668f, -10.772868f, -0.032092f },	{ 0.000000f, 0.000000f, 0.000000f },	{ -0.086399f, -0.041173f, -0.995409f }	},
	{	{ -10.032935f, -10.807354f, -0.032092f },	{ 0.000000f, 0.000000f, 0.000000f },	{ -0.085388f, -0.094767f, -0.991831f }	},
	{	{ -9.995964f, -10.829367f, -0.032092f },	{ 0.000000f, 0.000000f, 0.000000f },	{ -0.031980f, -0.090208f, -0.995409f }	},
	{	{ -9.953383f, -10.835556f, -0.032092f },	{ 0.000000f, 0.000000f, 0.000000f },	{ 0.006632f, -0.127389f, -0.991831f }	},
	{	{ -9.911675f, -10.824979f, -0.032092f },	{ 0.000000f, 0.000000f, 0.000000f },	{ 0.041173f, -0.086399f, -0.995409f }	},
	{	{ -9.877190f, -10.799246f, -0.032092f },	{ 0.000000f, 0.000000f, 0.000000f },	{ 0.094767f, -0.085388f, -0.991831f }	},
	{	{ -9.964849f, -10.615298f, -0.032092f },	{ 0.000000f, 0.000000f, 0.000000f },	{ -0.006632f, 0.127389f, -0.991831f }	},
	{	{ -9.959117f, -10.725428f, -0.032092f },	{ 0.000000f, 0.000000f, 0.000000f },	{ -0.000000f, 0.000000f, -1.000000f }	},
	{	{ -9.855177f, -10.762275f, -0.032092f },	{ 0.000000f, 0.000000f, 0.000000f },	{ 0.090208f, -0.031980f, -0.995409f }	},
	{	{ -9.501742f, -11.685194f, 0.018910f },	{ 0.000000f, 0.000000f, 0.000000f },	{ 0.408187f, -0.856551f, -0.315761f }	},
	{	{ -9.463115f, -11.658025f, 0.018371f },	{ 0.000000f, 0.000000f, 0.000000f },	{ 0.651173f, -0.756047f, 0.066085f }	},
	{	{ -9.544833f, -11.594771f, -0.020024f },	{ 0.000000f, 0.000000f, 0.000000f },	{ -0.083524f, 0.175270f, -0.980971f }	},
	{	{ -9.580751f, -11.604671f, -0.019808f },	{ 0.000000f, 0.000000f, 0.000000f },	{ -0.129677f, 0.309456f, -0.942030f }	},
	{	{ -9.661818f, -11.488956f, 0.088165f },	{ 0.000000f, 0.000000f, 0.000000f },	{ -0.106211f, 0.568140f, -0.816049f }	},
	{	{ -9.602620f, -11.473509f, 0.117415f },	{ 0.000000f, 0.000000f, 0.000000f },	{ -0.255119f, 0.535349f, -0.805181f }	},
	{	{ -9.553336f, -11.437260f, 0.088165f },	{ 0.000000f, 0.000000f, 0.000000f },	{ -0.374380f, 0.440345f, -0.816049f }	},
	{	{ -9.634616f, -11.626896f, 0.001417f },	{ 0.000000f, 0.000000f, 0.000000f },	{ -0.507869f, -0.137523f, -0.850386f }	},
	{	{ -9.607434f, -11.703035f, 0.028764f },	{ 0.000000f, 0.000000f, 0.000000f },	{ -0.377787f, -0.852176f, -0.362040f }	},
	{	{ -9.547175f, -11.698084f, 0.018371f },	{ 0.000000f, 0.000000f, 0.000000f },	{ 0.177077f, -0.981976f, 0.066085f }	},
	{	{ -9.514521f, -11.573109f, -0.019808f },	{ 0.000000f, 0.000000f, 0.000000f },	{ -0.158678f, 0.295636f, -0.942030f }	},
	{	{ -9.463331f, -11.545271f, 0.001417f },	{ 0.000000f, 0.000000f, 0.000000f },	{ 0.426703f, 0.307844f, -0.850386f }	},
	{	{ -9.421313f, -11.614340f, 0.028764f },	{ 0.000000f, 0.000000f, 0.000000f },	{ 0.899845f, -0.243324f, -0.362040f }	},
	{	{ -10.427399f, -10.956996f, 0.585538f },	{ 0.000000f, 0.000000f, 0.000000f },	{ -0.776034f, -0.343031f, -0.529246f }	},
	{	{ -10.418611f, -10.975018f, 0.578031f },	{ 0.000000f, 0.000000f, 0.000000f },	{ -0.865754f, 0.096553f, -0.491068f }	},
	{	{ -9.922269f, -10.621488f, -0.032092f },	{ 0.000000f, 0.000000f, 0.000000f },	{ 0.031980f, 0.090208f, -0.995409f }	},
	{	{ -11.065536f, -11.252688f, 2.840480f },	{ 0.000000f, 0.000000f, 0.000000f },	{ 0.902828f, 0.428414f, -0.036913f }	},
	{	{ -10.765503f, -11.694851f, 2.840480f },	{ 0.000000f, 0.000000f, 0.000000f },	{ 0.935072f, -0.353959f, 0.018796f }	},
	{	{ -10.778892f, -11.509954f, 2.143544f },	{ 0.000000f, 0.000000f, 0.000000f },	{ -0.311786f, -0.751280f, -0.581694f }	},
	{	{ -11.020321f, -11.231141f, 2.028688f },	{ 0.000000f, 0.000000f, 0.000000f },	{ -0.669576f, -0.319281f, -0.670618f }	},
	{	{ -10.994663f, -11.707501f, 2.475560f },	{ 0.000000f, 0.000000f, 0.000000f },	{ -0.288502f, -0.900998f, -0.323991f }	},
	{	{ -11.084809f, -10.868007f, 2.143544f },	{ 0.000000f, 0.000000f, 0.000000f },	{ -0.777801f, 0.271923f, -0.566643f }	},
	{	{ -11.374933f, -10.909532f, 2.475560f },	{ 0.000000f, 0.000000f, 0.000000f },	{ -0.863568f, 0.391089f, -0.318276f }	},
	{	{ -11.390676f, -10.876496f, 2.840480f },	{ 0.000000f, 0.000000f, 0.000000f },	{ -0.924349f, 0.381534f, -0.003181f }	},
	{	{ -11.219656f, -10.741842f, 2.840480f },	{ 0.000000f, 0.000000f, 0.000000f },	{ 0.336217f, 0.941734f, 0.009741f }	},
	{	{ -11.307300f, -11.367900f, 2.475560f },	{ 0.000000f, 0.000000f, 0.000000f },	{ -0.848568f, -0.404675f, -0.340839f }	},
	{	{ -10.977808f, -11.742869f, 2.840480f },	{ 0.000000f, 0.000000f, 0.000000f },	{ -0.303337f, -0.952874f, 0.004233f }	},
	{	{ -11.307300f, -11.367900f, 2.840480f },	{ 0.000000f, 0.000000f, 0.000000f },	{ -0.901556f, -0.429273f, -0.054050f }	},
	{	{ -11.027653f, -11.234635f, 3.143158f },	{ 0.000000f, 0.000000f, 0.000000f },	{ 0.899389f, 0.425060f, 0.102096f }	},
	{	{ -10.821029f, -11.629750f, 3.143158f },	{ 0.000000f, 0.000000f, 0.000000f },	{ 0.881437f, -0.352338f, 0.314525f }	},
	{	{ -11.056339f, -11.699469f, 3.143158f },	{ 0.000000f, 0.000000f, 0.000000f },	{ -0.294958f, -0.947528f, 0.123247f }	},
	{	{ -11.329618f, -11.378535f, 3.143158f },	{ 0.000000f, 0.000000f, 0.000000f },	{ -0.898745f, -0.427333f, -0.098204f }	},
	{	{ -11.404778f, -10.968295f, 3.143158f },	{ 0.000000f, 0.000000f, 0.000000f },	{ -0.920977f, 0.369063f, 0.124876f }	},
	{	{ -11.202414f, -10.829442f, 3.143158f },	{ 0.000000f, 0.000000f, 0.000000f },	{ 0.286374f, 0.905796f, 0.312289f }	},
	{	{ -11.108944f, -11.273375f, 3.564043f },	{ 0.000000f, 0.000000f, 0.000000f },	{ 0.849992f, 0.394004f, 0.349677f }	},
	{	{ -11.020922f, -11.510700f, 3.564043f },	{ 0.000000f, 0.000000f, 0.000000f },	{ 0.787751f, -0.363929f, 0.496996f }	},
	{	{ -11.213463f, -11.575053f, 3.564043f },	{ 0.000000f, 0.000000f, 0.000000f },	{ -0.254528f, -0.950467f, 0.178402f }	},
	{	{ -11.374630f, -11.399986f, 3.564043f },	{ 0.000000f, 0.000000f, 0.000000f },	{ -0.899622f, -0.428184f, -0.085669f }	},
	{	{ -11.409093f, -11.164538f, 3.564043f },	{ 0.000000f, 0.000000f, 0.000000f },	{ -0.897896f, 0.403413f, 0.176187f }	},
	{	{ -11.229996f, -11.051788f, 3.564043f },	{ 0.000000f, 0.000000f, 0.000000f },	{ 0.223953f, 0.838838f, 0.496182f }	},
	{	{ -11.228194f, -11.330203f, 3.842010f },	{ 0.000000f, 0.000000f, 0.000000f },	{ 0.843021f, 0.390676f, 0.369712f }	},
	{	{ -11.186693f, -11.451354f, 3.828243f },	{ 0.000000f, 0.000000f, 0.000000f },	{ 0.813051f, -0.426292f, 0.396514f }	},
	{	{ -11.298985f, -11.491038f, 3.828243f },	{ 0.000000f, 0.000000f, 0.000000f },	{ -0.188387f, -0.980551f, 0.055047f }	},
	{	{ -11.411707f, -11.417655f, 3.842010f },	{ 0.000000f, 0.000000f, 0.000000f },	{ -0.893024f, -0.425568f, -0.146287f }	},
	{	{ -11.397705f, -11.283881f, 3.828243f },	{ 0.000000f, 0.000000f, 0.000000f },	{ -0.879665f, 0.472391f, 0.055110f }	},
	{	{ -11.293316f, -11.220307f, 3.828243f },	{ 0.000000f, 0.000000f, 0.000000f },	{ 0.190027f, 0.895598f, 0.402236f }	},
	{	{ -11.458237f, -11.439829f, 4.110007f },	{ 0.000000f, 0.000000f, 0.000000f },	{ -0.708478f, -0.337623f, 0.619734f }	},
	{	{ -11.385613f, -11.504457f, 4.088945f },	{ 0.000000f, 0.000000f, 0.000000f },	{ -0.087015f, -0.922444f, 0.376198f }	},
	{	{ -11.267955f, -11.459184f, 4.088945f },	{ 0.000000f, 0.000000f, 0.000000f },	{ 0.635314f, -0.465373f, 0.616282f }	},
	{	{ -11.301385f, -11.365081f, 4.126974f },	{ 0.000000f, 0.000000f, 0.000000f },	{ 0.526229f, 0.246422f, 0.813854f }	},
	{	{ -11.353418f, -11.279844f, 4.088945f },	{ 0.000000f, 0.000000f, 0.000000f },	{ 0.041908f, 0.783570f, 0.619889f }	},
	{	{ -11.462691f, -11.342714f, 4.088945f },	{ 0.000000f, 0.000000f, 0.000000f },	{ -0.771008f, 0.513823f, 0.376207f }	},
	{	{ -9.016592f, -11.059563f, 4.207526f },	{ 0.000000f, 0.000000f, 0.000000f },	{ 0.928183f, -0.329051f, 0.173788f }	},
	{	{ -9.051651f, -11.047134f, 4.362327f },	{ 0.000000f, 0.000000f, 0.000000f },	{ 0.916439f, -0.324888f, 0.233641f }	},
	{	{ -9.243839f, -11.369918f, 4.362327f },	{ 0.000000f, 0.000000f, 0.000000f },	{ 0.722350f, -0.650863f, 0.233641f }	},
	{	{ -8.958155f, -11.080279f, 3.663526f },	{ 0.000000f, 0.000000f, 0.000000f },	{ 0.935435f, -0.331623f, 0.122422f }	},
	{	{ -8.960469f, -10.673440f, 4.207526f },	{ 0.000000f, 0.000000f, 0.000000f },	{ 0.983451f, 0.051196f, 0.173788f }	},
	{	{ -8.997616f, -10.675374f, 4.362327f },	{ 0.000000f, 0.000000f, 0.000000f },	{ 0.971008f, 0.050549f, 0.233641f }	},
	{	{ -8.898553f, -10.670217f, 3.663526f },	{ 0.000000f, 0.000000f, 0.000000f },	{ 0.991136f, 0.051596f, 0.122422f }	},
	{	{ -9.056381f, -10.295231f, 4.207526f },	{ 0.000000f, 0.000000f, 0.000000f },	{ 0.888999f, 0.423650f, 0.173788f }	},
	{	{ -9.089960f, -10.311234f, 4.362327f },	{ 0.000000f, 0.000000f, 0.000000f },	{ 0.877751f, 0.418289f, 0.233641f }	},
	{	{ -9.000411f, -10.268559f, 3.663526f },	{ 0.000000f, 0.000000f, 0.000000f },	{ 0.895945f, 0.426960f, 0.122422f }	},
	{	{ -9.289726f, -9.982516f, 4.207526f },	{ 0.000000f, 0.000000f, 0.000000f },	{ 0.659204f, 0.731606f, 0.173788f }	},
	{	{ -9.314626f, -10.010150f, 4.362327f },	{ 0.000000f, 0.000000f, 0.000000f },	{ 0.650863f, 0.722350f, 0.233641f }	},
	{	{ -9.248224f, -9.936456f, 3.663526f },	{ 0.000000f, 0.000000f, 0.000000f },	{ 0.664355f, 0.737323f, 0.122422f }	},
	{	{ -9.624981f, -9.782903f, 4.207526f },	{ 0.000000f, 0.000000f, 0.000000f },	{ 0.329051f, 0.928183f, 0.173788f }	},
	{	{ -9.637409f, -9.817962f, 4.362327f },	{ 0.000000f, 0.000000f, 0.000000f },	{ 0.324888f, 0.916439f, 0.233641f }	},
	{	{ -9.604264f, -9.724465f, 3.663526f },	{ 0.000000f, 0.000000f, 0.000000f },	{ 0.331623f, 0.935435f, 0.122422f }	},
	{	{ -9.058063f, -11.044861f, 4.390637f },	{ 0.000000f, 0.000000f, 0.000000f },	{ 0.578066f, -0.204931f, 0.789838f }	},
	{	{ -9.108631f, -11.026934f, 4.390637f },	{ 0.000000f, 0.000000f, 0.000000f },	{ 0.000000f, 0.000000f, 1.000000f }	},
	{	{ -9.004409f, -10.675727f, 4.390637f },	{ 0.000000f, 0.000000f, 0.000000f },	{ 0.612487f, 0.031885f, 0.789838f }	},
	{	{ -9.057989f, -10.678516f, 4.390637f },	{ 0.000000f, 0.000000f, 0.000000f },	{ 0.000000f, 0.000000f, 1.000000f }	},
	{	{ -9.096102f, -10.314159f, 4.390637f },	{ 0.000000f, 0.000000f, 0.000000f },	{ 0.553662f, 0.263846f, 0.789838f }	},
	{	{ -9.144535f, -10.337241f, 4.390637f },	{ 0.000000f, 0.000000f, 0.000000f },	{ 0.000000f, 0.000000f, 1.000000f }	},
	{	{ -9.319180f, -10.015204f, 4.390637f },	{ 0.000000f, 0.000000f, 0.000000f },	{ 0.410548f, 0.455639f, 0.789838f }	},
	{	{ -9.355094f, -10.055063f, 4.390637f },	{ 0.000000f, 0.000000f, 0.000000f },	{ 0.000000f, 0.000000f, 1.000000f }	},
	{	{ -9.639683f, -9.824373f, 4.390637f },	{ 0.000000f, 0.000000f, 0.000000f },	{ 0.204931f, 0.578066f, 0.789838f }	},
	{	{ -9.657610f, -9.874942f, 4.390637f },	{ 0.000000f, 0.000000f, 0.000000f },	{ 0.000000f, 0.000000f, 1.000000f }	},
	{	{ -9.575167f, -9.642386f, 3.007526f },	{ 0.000000f, 0.000000f, 0.000000f },	{ 0.322472f, 0.943476f, 0.076584f }	},
	{	{ -9.189931f, -9.871759f, 3.007526f },	{ 0.000000f, 0.000000f, 0.000000f },	{ 0.658782f, 0.747836f, 0.082136f }	},
	{	{ -8.921798f, -10.231096f, 3.007526f },	{ 0.000000f, 0.000000f, 0.000000f },	{ 0.900100f, 0.428940f, 0.076364f }	},
	{	{ -8.811586f, -10.665689f, 3.007526f },	{ 0.000000f, 0.000000f, 0.000000f },	{ 0.995792f, 0.040646f, 0.082136f }	},
	{	{ -8.876076f, -11.109377f, 3.007526f },	{ 0.000000f, 0.000000f, 0.000000f },	{ 0.935917f, -0.343794f, 0.076584f }	},
	{	{ -9.575167f, -9.642386f, 2.532859f },	{ 0.000000f, 0.000000f, 0.000000f },	{ 0.305494f, 0.946750f, -0.101678f }	},
	{	{ -9.226565f, -9.806408f, 2.532859f },	{ 0.000000f, 0.000000f, 0.000000f },	{ 0.540667f, 0.836979f, 0.084533f }	},
	{	{ -8.912848f, -10.226831f, 2.532859f },	{ 0.000000f, 0.000000f, 0.000000f },	{ 0.786660f, 0.377119f, 0.488822f }	},
	{	{ -8.783901f, -10.735306f, 2.532859f },	{ 0.000000f, 0.000000f, 0.000000f },	{ 0.984700f, -0.148486f, 0.091203f }	},
	{	{ -8.876076f, -11.109377f, 2.532859f },	{ 0.000000f, 0.000000f, 0.000000f },	{ 0.927766f, -0.359044f, -0.101678f }	},
	{	{ -9.602811f, -9.720366f, 2.099128f },	{ 0.000000f, 0.000000f, 0.000000f },	{ 0.274432f, 0.902287f, -0.332514f }	},
	{	{ -9.293550f, -9.932612f, 2.020349f },	{ 0.000000f, 0.000000f, 0.000000f },	{ 0.427972f, 0.773669f, -0.467200f }	},
	{	{ -8.825405f, -10.185161f, 2.475560f },	{ 0.000000f, 0.000000f, 0.000000f },	{ -0.433028f, -0.205711f, 0.877593f }	},
	{	{ -9.122106f, -9.820267f, 2.475560f },	{ 0.000000f, 0.000000f, 0.000000f },	{ -0.248616f, 0.968489f, 0.014780f }	},
	{	{ -8.715101f, -10.674337f, 2.475560f },	{ 0.000000f, 0.000000f, 0.000000f },	{ 0.589173f, -0.808001f, 0.003291f }	},
	{	{ -8.954055f, -11.081733f, 2.099128f },	{ 0.000000f, 0.000000f, 0.000000f },	{ 0.873667f, -0.355164f, -0.332514f }	},
	{	{ -8.924116f, -10.707842f, 2.020349f },	{ 0.000000f, 0.000000f, 0.000000f },	{ 0.860235f, -0.191504f, -0.472571f }	},
	{	{ -8.909480f, -10.672686f, 2.075678f },	{ 0.000000f, 0.000000f, 0.000000f },	{ 0.779423f, -0.357241f, -0.514663f }	},
	{	{ -9.635591f, -9.812832f, 1.919526f },	{ 0.000000f, 0.000000f, 0.000000f },	{ 0.253847f, 0.819628f, -0.513587f }	},
	{	{ -9.355776f, -9.993904f, 1.868342f },	{ 0.000000f, 0.000000f, 0.000000f },	{ 0.501311f, 0.634811f, -0.587965f }	},
	{	{ -9.052852f, -10.293550f, 1.875498f },	{ 0.000000f, 0.000000f, 0.000000f },	{ 0.678858f, 0.323508f, -0.659162f }	},
	{	{ -9.120050f, -10.325573f, 1.844130f },	{ 0.000000f, 0.000000f, 0.000000f },	{ 0.695026f, 0.331213f, -0.638151f }	},
	{	{ -9.257025f, -9.943388f, 2.075678f },	{ 0.000000f, 0.000000f, 0.000000f },	{ 0.236670f, 0.834527f, -0.497547f }	},
	{	{ -9.010916f, -10.717567f, 1.868342f },	{ 0.000000f, 0.000000f, 0.000000f },	{ 0.808819f, -0.010472f, -0.587965f }	},
	{	{ -9.000126f, -10.268423f, 1.907915f },	{ 0.000000f, 0.000000f, 0.000000f },	{ 0.663788f, 0.316326f, -0.677734f }	},
	{	{ -9.046521f, -11.048953f, 1.919526f },	{ 0.000000f, 0.000000f, 0.000000f },	{ 0.796499f, -0.319089f, -0.513587f }	},
	{	{ -9.694472f, -9.978924f, 1.667081f },	{ 0.000000f, 0.000000f, 0.000000f },	{ 0.268901f, 0.785236f, -0.557760f }	},
	{	{ -9.428943f, -10.137023f, 1.667081f },	{ 0.000000f, 0.000000f, 0.000000f },	{ 0.543946f, 0.619027f, -0.566506f }	},
	{	{ -9.244127f, -10.384701f, 1.667081f },	{ 0.000000f, 0.000000f, 0.000000f },	{ 0.743882f, 0.354495f, -0.566545f }	},
	{	{ -9.168162f, -10.684252f, 1.667081f },	{ 0.000000f, 0.000000f, 0.000000f },	{ 0.823413f, 0.032584f, -0.566506f }	},
	{	{ -9.212613f, -10.990071f, 1.667081f },	{ 0.000000f, 0.000000f, 0.000000f },	{ 0.779269f, -0.285734f, -0.557760f }	},
	{	{ -9.741191f, -10.110707f, 1.442959f },	{ 0.000000f, 0.000000f, 0.000000f },	{ 0.299984f, 0.846189f, -0.440426f }	},
	{	{ -9.522537f, -10.240896f, 1.442959f },	{ 0.000000f, 0.000000f, 0.000000f },	{ 0.600971f, 0.666978f, -0.440426f }	},
	{	{ -9.370348f, -10.444851f, 1.442959f },	{ 0.000000f, 0.000000f, 0.000000f },	{ 0.810466f, 0.386225f, -0.440426f }	},
	{	{ -9.307794f, -10.691521f, 1.442959f },	{ 0.000000f, 0.000000f, 0.000000f },	{ 0.896575f, 0.046674f, -0.440426f }	},
	{	{ -9.344397f, -10.943353f, 1.442959f },	{ 0.000000f, 0.000000f, 0.000000f },	{ 0.846189f, -0.299984f, -0.440426f }	},
	{	{ -9.768354f, -10.187329f, 1.223025f },	{ 0.000000f, 0.000000f, 0.000000f },	{ 0.335645f, 0.930941f, -0.143846f }	},
	{	{ -9.576955f, -10.301291f, 1.223025f },	{ 0.000000f, 0.000000f, 0.000000f },	{ 0.665061f, 0.730241f, -0.156343f }	},
	{	{ -9.443735f, -10.479824f, 1.223025f },	{ 0.000000f, 0.000000f, 0.000000f },	{ 0.890817f, 0.424145f, -0.162932f }	},
	{	{ -9.388978f, -10.695747f, 1.223025f },	{ 0.000000f, 0.000000f, 0.000000f },	{ 0.986159f, 0.056278f, -0.155958f }	},
	{	{ -9.421019f, -10.916189f, 1.223025f },	{ 0.000000f, 0.000000f, 0.000000f },	{ 0.934479f, -0.325659f, -0.143856f }	},
	{	{ -9.763271f, -10.172989f, 1.028991f },	{ 0.000000f, 0.000000f, 0.000000f },	{ 0.360833f, 0.923918f, 0.127184f }	},
	{	{ -9.574697f, -10.295846f, 1.027542f },	{ 0.000000f, 0.000000f, 0.000000f },	{ 0.690345f, 0.719445f, 0.076300f }	},
	{	{ -9.438144f, -10.478845f, 1.027524f },	{ 0.000000f, 0.000000f, 0.000000f },	{ 0.902339f, 0.427846f, 0.052278f }	},
	{	{ -9.383337f, -10.697387f, 1.027540f },	{ 0.000000f, 0.000000f, 0.000000f },	{ 0.993669f, 0.081098f, 0.077748f }	},
	{	{ -9.406678f, -10.921273f, 1.028991f },	{ 0.000000f, 0.000000f, 0.000000f },	{ 0.944907f, -0.301637f, 0.127147f }	},
	{	{ -9.523677f, -11.117774f, 1.028991f },	{ 0.000000f, 0.000000f, 0.000000f },	{ 0.734517f, -0.661817f, 0.149940f }	},
	{	{ -9.747371f, -10.128139f, 0.818849f },	{ 0.000000f, 0.000000f, 0.000000f },	{ 0.401472f, 0.906661f, 0.129563f }	},
	{	{ -9.567783f, -10.279161f, 0.817228f },	{ 0.000000f, 0.000000f, 0.000000f },	{ 0.731537f, 0.677638f, 0.075235f }	},
	{	{ -9.421018f, -10.475847f, 0.817228f },	{ 0.000000f, 0.000000f, 0.000000f },	{ 0.901402f, 0.426104f, 0.076872f }	},
	{	{ -9.366044f, -10.702415f, 0.817088f },	{ 0.000000f, 0.000000f, 0.000000f },	{ 0.987854f, 0.135173f, 0.076630f }	},
	{	{ -9.361828f, -10.937173f, 0.818849f },	{ 0.000000f, 0.000000f, 0.000000f },	{ 0.962191f, -0.213498f, 0.169136f }	},
	{	{ -9.488326f, -11.149627f, 0.818849f },	{ 0.000000f, 0.000000f, 0.000000f },	{ 0.725231f, -0.630556f, 0.276476f }	},
	{	{ -9.739681f, -10.106448f, 0.551509f },	{ 0.000000f, 0.000000f, 0.000000f },	{ 0.408110f, 0.911422f, -0.052502f }	},
	{	{ -9.567255f, -10.273165f, 0.555357f },	{ 0.000000f, 0.000000f, 0.000000f },	{ 0.701031f, 0.712771f, -0.022658f }	},
	{	{ -9.414779f, -10.472309f, 0.628693f },	{ 0.000000f, 0.000000f, 0.000000f },	{ 0.792953f, 0.391799f, -0.466603f }	},
	{	{ -9.440852f, -10.420444f, 0.606283f },	{ 0.000000f, 0.000000f, 0.000000f },	{ 0.912498f, 0.213535f, -0.348928f }	},
	{	{ -9.390688f, -10.523864f, 0.603520f },	{ 0.000000f, 0.000000f, 0.000000f },	{ 0.725333f, 0.594585f, -0.346931f }	},
	{	{ -9.340137f, -10.944862f, 0.551509f },	{ 0.000000f, 0.000000f, 0.000000f },	{ 0.991951f, -0.097277f, -0.081060f }	},
	{	{ -9.361023f, -10.705929f, 0.555357f },	{ 0.000000f, 0.000000f, 0.000000f },	{ 0.995868f, 0.087684f, -0.023628f }	},
	{	{ -9.382691f, -10.544909f, 0.545511f },	{ 0.000000f, 0.000000f, 0.000000f },	{ 0.701555f, 0.712409f, -0.017160f }	},
	{	{ -9.384056f, -11.345390f, 0.326761f },	{ 0.000000f, 0.000000f, 0.000000f },	{ 0.906266f, -0.414518f, 0.082808f }	},
	{	{ -9.762905f, -10.171956f, 0.236698f },	{ 0.000000f, 0.000000f, 0.000000f },	{ 0.328181f, 0.831959f, -0.447371f }	},
	{	{ -9.566036f, -10.289173f, 0.236698f },	{ 0.000000f, 0.000000f, 0.000000f },	{ 0.673612f, 0.657965f, -0.336642f }	},
	{	{ -9.453633f, -10.398652f, 0.549418f },	{ 0.000000f, 0.000000f, 0.000000f },	{ 0.992696f, 0.115887f, -0.033534f }	},
	{	{ -9.472232f, -10.536675f, 0.555162f },	{ 0.000000f, 0.000000f, 0.000000f },	{ 0.580095f, 0.812901f, -0.051783f }	},
	{	{ -9.479209f, -10.526961f, 0.528758f },	{ 0.000000f, 0.000000f, 0.000000f },	{ 0.534325f, 0.741309f, 0.406150f }	},
	{	{ -9.488789f, -10.508902f, 0.521686f },	{ 0.000000f, 0.000000f, 0.000000f },	{ 0.820041f, 0.396832f, 0.412380f }	},
	{	{ -9.486150f, -10.508927f, 0.554224f },	{ 0.000000f, 0.000000f, 0.000000f },	{ 0.892521f, 0.445218f, -0.072027f }	},
	{	{ -9.484302f, -10.507566f, 0.585538f },	{ 0.000000f, 0.000000f, 0.000000f },	{ 0.755229f, 0.386689f, -0.529246f }	},
	{	{ -9.475841f, -10.525743f, 0.578031f },	{ 0.000000f, 0.000000f, 0.000000f },	{ 0.470313f, 0.733252f, -0.491068f }	},
	{	{ -9.497392f, -10.490452f, 0.529127f },	{ 0.000000f, 0.000000f, 0.000000f },	{ 0.923900f, -0.027883f, 0.381618f }	},
	{	{ -9.500811f, -10.479404f, 0.555044f },	{ 0.000000f, 0.000000f, 0.000000f },	{ 0.997576f, -0.014307f, -0.068105f }	},
	{	{ -9.405645f, -10.921639f, 0.236698f },	{ 0.000000f, 0.000000f, 0.000000f },	{ 0.847746f, -0.148386f, -0.509223f }	},
	{	{ -9.372689f, -10.694899f, 0.236698f },	{ 0.000000f, 0.000000f, 0.000000f },	{ 0.934869f, 0.106680f, -0.338585f }	},
	{	{ -9.395473f, -10.523116f, 0.488646f },	{ 0.000000f, 0.000000f, 0.000000f },	{ 0.748231f, 0.588345f, 0.306594f }	},
	{	{ -9.815490f, -10.320287f, 0.066800f },	{ 0.000000f, 0.000000f, 0.000000f },	{ 0.183535f, 0.517712f, -0.835637f }	},
	{	{ -9.671382f, -10.406090f, 0.066800f },	{ 0.000000f, 0.000000f, 0.000000f },	{ 0.367684f, 0.408068f, -0.835637f }	},
	{	{ -9.429010f, -10.472807f, 0.236698f },	{ 0.000000f, 0.000000f, 0.000000f },	{ 0.828058f, 0.395662f, -0.397205f }	},
	{	{ -9.571079f, -10.540509f, 0.066800f },	{ 0.000000f, 0.000000f, 0.000000f },	{ 0.495857f, 0.236299f, -0.835637f }	},
	{	{ -9.445636f, -10.419697f, 0.491409f },	{ 0.000000f, 0.000000f, 0.000000f },	{ 0.933596f, 0.213919f, 0.287465f }	},
	{	{ -9.529851f, -10.703080f, 0.066800f },	{ 0.000000f, 0.000000f, 0.000000f },	{ 0.548540f, 0.028556f, -0.835637f }	},
	{	{ -9.421545f, -10.471251f, 0.466236f },	{ 0.000000f, 0.000000f, 0.000000f },	{ 0.822231f, 0.387294f, 0.417061f }	},
	{	{ -9.553976f, -10.869054f, 0.066800f },	{ 0.000000f, 0.000000f, 0.000000f },	{ 0.517712f, -0.183535f, -0.835637f }	},
	{	{ -9.423381f, -11.529434f, 0.143712f },	{ 0.000000f, 0.000000f, 0.000000f },	{ 0.961314f, -0.232709f, 0.147382f }	},
	{	{ -9.504052f, -11.401011f, 0.088285f },	{ 0.000000f, 0.000000f, 0.000000f },	{ 0.375472f, 0.523944f, -0.764528f }	},
	{	{ -9.891876f, -10.535756f, -0.014431f },	{ 0.000000f, 0.000000f, 0.000000f },	{ 0.088010f, 0.248257f, -0.964688f }	},
	{	{ -9.824410f, -10.575926f, -0.014431f },	{ 0.000000f, 0.000000f, 0.000000f },	{ 0.176315f, 0.195680f, -0.964688f }	},
	{	{ -9.777452f, -10.638856f, -0.014431f },	{ 0.000000f, 0.000000f, 0.000000f },	{ 0.237777f, 0.113312f, -0.964688f }	},
	{	{ -9.758152f, -10.714966f, -0.014431f },	{ 0.000000f, 0.000000f, 0.000000f },	{ 0.263040f, 0.013693f, -0.964688f }	},
	{	{ -9.769445f, -10.792667f, -0.014431f },	{ 0.000000f, 0.000000f, 0.000000f },	{ 0.248257f, -0.088010f, -0.964688f }	},
	{	{ -9.885298f, -10.643500f, -0.032092f },	{ 0.000000f, 0.000000f, 0.000000f },	{ 0.085388f, 0.094767f, -0.991831f }	},
	{	{ -9.859565f, -10.677986f, -0.032092f },	{ 0.000000f, 0.000000f, 0.000000f },	{ 0.086399f, 0.041173f, -0.995409f }	},
	{	{ -9.848988f, -10.719694f, -0.032092f },	{ 0.000000f, 0.000000f, 0.000000f },	{ 0.127389f, 0.006632f, -0.991831f }	},
	{	{ -8.852697f, -10.198166f, 2.840480f },	{ 0.000000f, 0.000000f, 0.000000f },	{ -0.901410f, -0.431391f, -0.036913f }	},
	{	{ -9.152400f, -9.756697f, 2.840480f },	{ 0.000000f, 0.000000f, 0.000000f },	{ -0.943222f, 0.332022f, 0.009741f }	},
	{	{ -9.139342f, -9.940900f, 2.143544f },	{ 0.000000f, 0.000000f, 0.000000f },	{ 0.278704f, 0.775397f, -0.566643f }	},
	{	{ -8.897912f, -10.219713f, 2.028688f },	{ 0.000000f, 0.000000f, 0.000000f },	{ 0.669728f, 0.318961f, -0.670618f }	},
	{	{ -8.833424f, -10.582848f, 2.143544f },	{ 0.000000f, 0.000000f, 0.000000f },	{ 0.779906f, -0.231037f, -0.581694f }	},
	{	{ -8.544081f, -10.539683f, 2.475560f },	{ 0.000000f, 0.000000f, 0.000000f },	{ 0.881527f, -0.343424f, -0.323991f }	},
	{	{ -8.527226f, -10.575051f, 2.840480f },	{ 0.000000f, 0.000000f, 0.000000f },	{ 0.931164f, -0.364577f, 0.004233f }	},
	{	{ -8.698246f, -10.709705f, 2.840480f },	{ 0.000000f, 0.000000f, 0.000000f },	{ -0.314045f, -0.949222f, 0.018796f }	},
	{	{ -8.924351f, -9.741714f, 2.475560f },	{ 0.000000f, 0.000000f, 0.000000f },	{ 0.240168f, 0.917071f, -0.318276f }	},
	{	{ -8.610933f, -10.082954f, 2.475560f },	{ 0.000000f, 0.000000f, 0.000000f },	{ 0.848795f, 0.404199f, -0.340839f }	},
	{	{ -8.940094f, -9.708678f, 2.840480f },	{ 0.000000f, 0.000000f, 0.000000f },	{ 0.285874f, 0.958262f, -0.003181f }	},
	{	{ -8.610933f, -10.082954f, 2.840480f },	{ 0.000000f, 0.000000f, 0.000000f },	{ 0.901276f, 0.429861f, -0.054050f }	},
	{	{ -8.890580f, -10.216220f, 3.143158f },	{ 0.000000f, 0.000000f, 0.000000f },	{ -0.896638f, -0.430832f, 0.102096f }	},
	{	{ -9.095222f, -9.825265f, 3.143158f },	{ 0.000000f, 0.000000f, 0.000000f },	{ -0.883913f, 0.348099f, 0.312289f }	},
	{	{ -8.859911f, -9.755547f, 3.143158f },	{ 0.000000f, 0.000000f, 0.000000f },	{ 0.293435f, 0.947788f, 0.124876f }	},
	{	{ -8.588615f, -10.072319f, 3.143158f },	{ 0.000000f, 0.000000f, 0.000000f },	{ 0.897998f, 0.428900f, -0.098204f }	},
	{	{ -8.511473f, -10.486720f, 3.143158f },	{ 0.000000f, 0.000000f, 0.000000f },	{ 0.921734f, -0.367717f, 0.123247f }	},
	{	{ -8.713837f, -10.625574f, 3.143158f },	{ 0.000000f, 0.000000f, 0.000000f },	{ -0.281522f, -0.906542f, 0.314525f }	},
	{	{ -8.809289f, -10.177480f, 3.564043f },	{ 0.000000f, 0.000000f, 0.000000f },	{ -0.841404f, -0.412026f, 0.349677f }	},
	{	{ -8.905149f, -9.943890f, 3.564043f },	{ 0.000000f, 0.000000f, 0.000000f },	{ -0.792591f, 0.354407f, 0.496182f }	},
	{	{ -8.704770f, -9.875801f, 3.564043f },	{ 0.000000f, 0.000000f, 0.000000f },	{ 0.252218f, 0.951496f, 0.176187f }	},
	{	{ -8.543603f, -10.050868f, 3.564043f },	{ 0.000000f, 0.000000f, 0.000000f },	{ 0.899212f, 0.429045f, -0.085669f }	},
	{	{ -8.509141f, -10.286316f, 3.564043f },	{ 0.000000f, 0.000000f, 0.000000f },	{ 0.898552f, -0.400971f, 0.178402f }	},
	{	{ -8.680399f, -10.395330f, 3.564043f },	{ 0.000000f, 0.000000f, 0.000000f },	{ -0.213509f, -0.841076f, 0.496996f }	},
	{	{ -8.690039f, -10.120652f, 3.842010f },	{ 0.000000f, 0.000000f, 0.000000f },	{ -0.834428f, -0.408708f, 0.369712f }	},
	{	{ -8.734378f, -10.000853f, 3.828243f },	{ 0.000000f, 0.000000f, 0.000000f },	{ -0.815308f, 0.416509f, 0.402236f }	},
	{	{ -8.619248f, -9.959816f, 3.828243f },	{ 0.000000f, 0.000000f, 0.000000f },	{ 0.187159f, 0.980783f, 0.055110f }	},
	{	{ -8.506526f, -10.033199f, 3.842010f },	{ 0.000000f, 0.000000f, 0.000000f },	{ 0.893024f, 0.425568f, -0.146287f }	},
	{	{ -8.520528f, -10.166973f, 3.828243f },	{ 0.000000f, 0.000000f, 0.000000f },	{ 0.880258f, -0.471292f, 0.055047f }	},
	{	{ -8.622080f, -10.229195f, 3.828243f },	{ 0.000000f, 0.000000f, 0.000000f },	{ -0.181007f, -0.900007f, 0.396514f }	},
	{	{ -8.459996f, -10.011025f, 4.110007f },	{ 0.000000f, 0.000000f, 0.000000f },	{ 0.708478f, 0.337623f, 0.619734f }	},
	{	{ -8.532619f, -9.946397f, 4.088945f },	{ 0.000000f, 0.000000f, 0.000000f },	{ 0.086540f, 0.922485f, 0.376207f }	},
	{	{ -8.650278f, -9.991671f, 4.088945f },	{ 0.000000f, 0.000000f, 0.000000f },	{ -0.635000f, 0.460992f, 0.619889f }	},
	{	{ -8.616848f, -10.085773f, 4.126974f },	{ 0.000000f, 0.000000f, 0.000000f },	{ -0.522850f, -0.253513f, 0.813854f }	},
	{	{ -8.564815f, -10.171010f, 4.088945f },	{ 0.000000f, 0.000000f, 0.000000f },	{ -0.038702f, -0.786574f, 0.616282f }	},
	{	{ -8.455542f, -10.108140f, 4.088945f },	{ 0.000000f, 0.000000f, 0.000000f },	{ 0.771276f, -0.513428f, 0.376198f }	},
	{	{ -10.435576f, -10.937737f, 0.578240f },	{ 0.000000f, 0.000000f, 0.000000f },	{ -0.513720f, -0.697913f, -0.499009f }	},
	{	{ -9.494110f, -10.489083f, 0.578240f },	{ 0.000000f, 0.000000f, 0.000000f },	{ 0.865646f, -0.040580f, -0.499009f }	},
	{	{ -9.959117f, -10.725428f, 4.390637f },	{ 0.000000f, 0.000000f, 0.000000f },	{ 0.000000f, 0.000000f, 1.000000f }	},
};
#define _PaperweightPenguin0_vertices_
#endif
#ifndef _PaperweightPenguin0_indices_
// Index Data follows: Sequential by mesh, Every Three Indices == One Triangle.
const unsigned int PaperweightPenguin0_indices[2688] =
{
	 0, 1, 2,
	 3, 0, 2,
	 2, 4, 5,
	 3, 2, 5,
	 6, 7, 1,
	 0, 6, 1,
	 3, 8, 9,
	 0, 3, 9,
	 10, 11, 7,
	 6, 10, 7,
	 0, 9, 12,
	 6, 0, 12,
	 13, 14, 11,
	 10, 13, 11,
	 6, 12, 15,
	 10, 6, 15,
	 16, 17, 14,
	 13, 16, 14,
	 10, 15, 18,
	 13, 10, 18,
	 19, 20, 17,
	 16, 19, 17,
	 13, 18, 21,
	 16, 13, 21,
	 22, 23, 20,
	 19, 22, 20,
	 16, 21, 24,
	 19, 16, 24,
	 25, 26, 23,
	 22, 25, 23,
	 19, 24, 27,
	 22, 19, 27,
	 28, 29, 30,
	 25, 28, 30,
	 22, 27, 28,
	 25, 22, 28,
	 31, 9, 8,
	 32, 31, 8,
	 33, 34, 35,
	 32, 33, 35,
	 36, 12, 9,
	 31, 36, 9,
	 32, 35, 37,
	 31, 32, 37,
	 38, 15, 12,
	 36, 38, 12,
	 31, 37, 39,
	 36, 31, 39,
	 40, 18, 15,
	 38, 40, 15,
	 36, 39, 41,
	 38, 36, 41,
	 42, 21, 18,
	 40, 42, 18,
	 38, 41, 43,
	 40, 38, 43,
	 44, 24, 21,
	 42, 44, 21,
	 40, 43, 45,
	 42, 40, 45,
	 46, 27, 24,
	 44, 46, 24,
	 42, 45, 47,
	 44, 42, 47,
	 48, 28, 27,
	 46, 48, 27,
	 44, 47, 49,
	 46, 44, 49,
	 50, 51, 52,
	 48, 50, 52,
	 46, 49, 50,
	 48, 46, 50,
	 25, 30, 53,
	 26, 25, 53,
	 26, 54, 55,
	 23, 26, 55,
	 23, 55, 56,
	 20, 23, 56,
	 20, 56, 57,
	 17, 20, 57,
	 17, 57, 58,
	 14, 17, 58,
	 14, 58, 59,
	 11, 14, 59,
	 11, 59, 60,
	 7, 11, 60,
	 7, 60, 61,
	 1, 7, 61,
	 1, 61, 62,
	 2, 1, 62,
	 62, 63, 4,
	 2, 62, 4,
	 26, 53, 64,
	 54, 26, 64,
	 54, 65, 66,
	 55, 54, 66,
	 55, 66, 67,
	 56, 55, 67,
	 56, 67, 68,
	 57, 56, 68,
	 57, 68, 69,
	 58, 57, 69,
	 58, 69, 70,
	 59, 58, 70,
	 59, 70, 71,
	 60, 59, 71,
	 60, 71, 72,
	 61, 60, 72,
	 61, 72, 73,
	 62, 61, 73,
	 73, 74, 63,
	 62, 73, 63,
	 54, 64, 75,
	 65, 54, 75,
	 65, 76, 77,
	 66, 65, 77,
	 66, 77, 78,
	 67, 66, 78,
	 67, 78, 79,
	 68, 67, 79,
	 79, 80, 81,
	 68, 79, 81,
	 68, 81, 82,
	 69, 68, 82,
	 69, 82, 83,
	 70, 69, 83,
	 70, 84, 85,
	 71, 70, 85,
	 71, 85, 86,
	 72, 71, 86,
	 72, 86, 87,
	 73, 72, 87,
	 87, 88, 74,
	 73, 87, 74,
	 65, 75, 89,
	 76, 65, 89,
	 76, 90, 91,
	 77, 76, 91,
	 77, 91, 92,
	 78, 77, 92,
	 78, 92, 93,
	 79, 78, 93,
	 94, 95, 80,
	 79, 94, 80,
	 79, 93, 96,
	 94, 79, 96,
	 84, 97, 95,
	 94, 84, 95,
	 94, 96, 98,
	 84, 94, 98,
	 70, 83, 97,
	 84, 70, 97,
	 84, 98, 99,
	 85, 84, 99,
	 85, 99, 100,
	 86, 85, 100,
	 86, 100, 101,
	 87, 86, 101,
	 101, 102, 88,
	 87, 101, 88,
	 76, 89, 103,
	 90, 76, 103,
	 90, 104, 105,
	 91, 90, 105,
	 91, 105, 106,
	 92, 91, 106,
	 92, 106, 107,
	 93, 92, 107,
	 93, 107, 108,
	 96, 93, 108,
	 96, 108, 109,
	 98, 96, 109,
	 98, 109, 110,
	 99, 98, 110,
	 99, 110, 111,
	 100, 99, 111,
	 100, 111, 112,
	 101, 100, 112,
	 112, 113, 102,
	 101, 112, 102,
	 90, 103, 114,
	 104, 90, 114,
	 104, 115, 116,
	 105, 104, 116,
	 105, 116, 117,
	 106, 105, 117,
	 106, 117, 118,
	 107, 106, 118,
	 107, 118, 119,
	 108, 107, 119,
	 108, 119, 120,
	 109, 108, 120,
	 109, 120, 121,
	 110, 109, 121,
	 110, 121, 122,
	 111, 110, 122,
	 111, 122, 123,
	 112, 111, 123,
	 123, 124, 113,
	 112, 123, 113,
	 104, 114, 125,
	 115, 104, 125,
	 115, 126, 127,
	 116, 115, 127,
	 116, 127, 128,
	 117, 116, 128,
	 117, 128, 129,
	 118, 117, 129,
	 118, 129, 130,
	 119, 118, 130,
	 119, 130, 131,
	 120, 119, 131,
	 120, 131, 132,
	 121, 120, 132,
	 121, 132, 133,
	 122, 121, 133,
	 122, 133, 134,
	 123, 122, 134,
	 134, 135, 124,
	 123, 134, 124,
	 115, 125, 136,
	 126, 115, 136,
	 126, 137, 138,
	 127, 126, 138,
	 127, 138, 139,
	 128, 127, 139,
	 128, 139, 140,
	 129, 128, 140,
	 129, 140, 141,
	 130, 129, 141,
	 130, 141, 142,
	 131, 130, 142,
	 131, 142, 143,
	 132, 131, 143,
	 132, 143, 144,
	 133, 132, 144,
	 133, 144, 145,
	 134, 133, 145,
	 126, 136, 146,
	 137, 126, 146,
	 137, 147, 148,
	 138, 137, 148,
	 138, 148, 149,
	 139, 138, 149,
	 139, 149, 150,
	 140, 139, 150,
	 140, 150, 151,
	 141, 140, 151,
	 141, 151, 152,
	 142, 141, 152,
	 142, 152, 153,
	 143, 142, 153,
	 143, 153, 154,
	 144, 143, 154,
	 154, 155, 145,
	 144, 154, 145,
	 145, 155, 156,
	 157, 145, 156,
	 156, 158, 159,
	 157, 156, 159,
	 137, 146, 160,
	 147, 137, 160,
	 147, 161, 162,
	 148, 147, 162,
	 148, 162, 163,
	 149, 148, 163,
	 149, 163, 164,
	 150, 149, 164,
	 164, 165, 166,
	 150, 164, 166,
	 150, 166, 167,
	 151, 150, 167,
	 167, 168, 152,
	 151, 167, 152,
	 152, 169, 170,
	 153, 152, 170,
	 153, 170, 171,
	 154, 153, 171,
	 171, 172, 155,
	 154, 171, 155,
	 155, 172, 173,
	 156, 155, 173,
	 173, 174, 158,
	 156, 173, 158,
	 147, 160, 175,
	 161, 147, 175,
	 161, 176, 177,
	 162, 161, 177,
	 162, 177, 178,
	 163, 162, 178,
	 163, 178, 179,
	 164, 163, 179,
	 179, 180, 165,
	 164, 179, 165,
	 181, 182, 183,
	 184, 181, 183,
	 183, 185, 186,
	 184, 183, 186,
	 152, 168, 187,
	 169, 152, 187,
	 169, 188, 189,
	 170, 169, 189,
	 170, 189, 190,
	 171, 170, 190,
	 190, 191, 192,
	 171, 190, 192,
	 192, 193, 172,
	 171, 192, 172,
	 172, 193, 194,
	 173, 172, 194,
	 194, 195, 174,
	 173, 194, 174,
	 161, 175, 196,
	 176, 161, 196,
	 176, 197, 198,
	 177, 176, 198,
	 177, 198, 199,
	 178, 177, 199,
	 178, 199, 200,
	 179, 178, 200,
	 201, 202, 180,
	 179, 201, 180,
	 179, 200, 203,
	 201, 179, 203,
	 188, 204, 202,
	 201, 188, 202,
	 201, 203, 205,
	 188, 201, 205,
	 169, 187, 204,
	 188, 169, 204,
	 188, 205, 206,
	 189, 188, 206,
	 189, 206, 207,
	 190, 189, 207,
	 208, 209, 210,
	 211, 208, 210,
	 176, 196, 212,
	 197, 176, 212,
	 197, 213, 214,
	 198, 197, 214,
	 198, 214, 215,
	 199, 198, 215,
	 199, 215, 216,
	 200, 199, 216,
	 200, 216, 217,
	 203, 200, 217,
	 203, 217, 218,
	 205, 203, 218,
	 205, 218, 219,
	 206, 205, 219,
	 209, 208, 190,
	 207, 209, 190,
	 206, 219, 220,
	 207, 206, 220,
	 207, 220, 221,
	 209, 207, 221,
	 221, 222, 223,
	 209, 221, 223,
	 223, 224, 210,
	 209, 223, 210,
	 197, 212, 225,
	 213, 197, 225,
	 213, 226, 227,
	 214, 213, 227,
	 214, 227, 228,
	 215, 214, 228,
	 215, 228, 229,
	 216, 215, 229,
	 216, 229, 230,
	 217, 216, 230,
	 217, 230, 231,
	 218, 217, 231,
	 218, 231, 232,
	 219, 218, 232,
	 219, 232, 233,
	 220, 219, 233,
	 220, 233, 234,
	 221, 220, 234,
	 234, 235, 222,
	 221, 234, 222,
	 213, 225, 236,
	 226, 213, 236,
	 226, 237, 228,
	 227, 226, 228,
	 228, 237, 230,
	 229, 228, 230,
	 230, 237, 232,
	 231, 230, 232,
	 232, 237, 234,
	 233, 232, 234,
	 237, 238, 235,
	 234, 237, 235,
	 239, 240, 195,
	 194, 239, 195,
	 241, 242, 243,
	 244, 241, 243,
	 211, 210, 245,
	 244, 211, 245,
	 243, 242, 246,
	 191, 243, 246,
	 190, 208, 243,
	 191, 190, 243,
	 191, 246, 247,
	 192, 191, 247,
	 247, 248, 193,
	 192, 247, 193,
	 194, 193, 248,
	 239, 194, 248,
	 241, 249, 250,
	 239, 241, 250,
	 240, 239, 250,
	 251, 240, 250,
	 239, 248, 247,
	 241, 239, 247,
	 242, 241, 247,
	 246, 242, 247,
	 244, 245, 249,
	 241, 244, 249,
	 157, 159, 134,
	 145, 157, 134,
	 211, 244, 243,
	 208, 211, 243,
	 252, 253, 168,
	 167, 252, 168,
	 186, 185, 204,
	 187, 186, 204,
	 226, 236, 254,
	 237, 226, 254,
	 255, 256, 83,
	 82, 255, 83,
	 97, 257, 258,
	 95, 97, 258,
	 83, 259, 257,
	 97, 83, 257,
	 95, 258, 260,
	 80, 95, 260,
	 80, 260, 261,
	 81, 80, 261,
	 261, 262, 263,
	 81, 261, 263,
	 258, 257, 259,
	 264, 258, 259,
	 259, 265, 266,
	 264, 259, 266,
	 264, 261, 260,
	 258, 264, 260,
	 264, 266, 262,
	 261, 264, 262,
	 83, 256, 265,
	 259, 83, 265,
	 267, 268, 256,
	 255, 267, 256,
	 82, 81, 263,
	 255, 82, 263,
	 265, 269, 270,
	 266, 265, 270,
	 256, 268, 269,
	 265, 256, 269,
	 266, 270, 271,
	 262, 266, 271,
	 262, 271, 272,
	 263, 262, 272,
	 273, 274, 268,
	 267, 273, 268,
	 255, 263, 272,
	 267, 255, 272,
	 269, 275, 276,
	 270, 269, 276,
	 268, 274, 275,
	 269, 268, 275,
	 270, 276, 277,
	 271, 270, 277,
	 271, 277, 278,
	 272, 271, 278,
	 267, 272, 278,
	 273, 267, 278,
	 279, 280, 274,
	 273, 279, 274,
	 275, 281, 282,
	 276, 275, 282,
	 276, 282, 283,
	 277, 276, 283,
	 277, 283, 284,
	 278, 277, 284,
	 274, 280, 281,
	 275, 274, 281,
	 285, 286, 287,
	 288, 285, 287,
	 287, 280, 279,
	 288, 287, 279,
	 288, 289, 290,
	 285, 288, 290,
	 282, 281, 286,
	 285, 282, 286,
	 289, 284, 283,
	 290, 289, 283,
	 288, 279, 284,
	 289, 288, 284,
	 281, 280, 287,
	 286, 281, 287,
	 285, 290, 283,
	 282, 285, 283,
	 273, 278, 284,
	 279, 273, 284,
	 291, 292, 293,
	 5, 291, 293,
	 5, 4, 294,
	 291, 5, 294,
	 295, 296, 292,
	 291, 295, 292,
	 291, 294, 297,
	 295, 291, 297,
	 298, 299, 296,
	 295, 298, 296,
	 295, 297, 300,
	 298, 295, 300,
	 301, 302, 299,
	 298, 301, 299,
	 298, 300, 303,
	 301, 298, 303,
	 304, 305, 302,
	 301, 304, 302,
	 301, 303, 306,
	 304, 301, 306,
	 30, 29, 305,
	 304, 30, 305,
	 304, 306, 53,
	 30, 304, 53,
	 293, 292, 307,
	 33, 293, 307,
	 307, 308, 34,
	 33, 307, 34,
	 292, 296, 309,
	 307, 292, 309,
	 309, 310, 308,
	 307, 309, 308,
	 296, 299, 311,
	 309, 296, 311,
	 311, 312, 310,
	 309, 311, 310,
	 299, 302, 313,
	 311, 299, 313,
	 313, 314, 312,
	 311, 313, 312,
	 302, 305, 315,
	 313, 302, 315,
	 315, 316, 314,
	 313, 315, 314,
	 305, 29, 52,
	 315, 305, 52,
	 52, 51, 316,
	 315, 52, 316,
	 29, 28, 48,
	 52, 29, 48,
	 306, 317, 64,
	 53, 306, 64,
	 303, 318, 317,
	 306, 303, 317,
	 300, 319, 318,
	 303, 300, 318,
	 297, 320, 319,
	 300, 297, 319,
	 294, 321, 320,
	 297, 294, 320,
	 4, 63, 321,
	 294, 4, 321,
	 317, 322, 75,
	 64, 317, 75,
	 318, 323, 322,
	 317, 318, 322,
	 319, 324, 323,
	 318, 319, 323,
	 320, 325, 324,
	 319, 320, 324,
	 321, 326, 325,
	 320, 321, 325,
	 63, 74, 326,
	 321, 63, 326,
	 322, 327, 89,
	 75, 322, 89,
	 323, 328, 327,
	 322, 323, 327,
	 324, 329, 330,
	 323, 324, 330,
	 325, 331, 329,
	 324, 325, 329,
	 326, 332, 333,
	 325, 326, 333,
	 333, 334, 331,
	 325, 333, 331,
	 74, 88, 332,
	 326, 74, 332,
	 327, 335, 103,
	 89, 327, 103,
	 328, 336, 335,
	 327, 328, 335,
	 337, 338, 336,
	 328, 337, 336,
	 323, 330, 339,
	 328, 323, 339,
	 333, 340, 338,
	 337, 333, 338,
	 328, 339, 341,
	 337, 328, 341,
	 332, 342, 340,
	 333, 332, 340,
	 337, 341, 334,
	 333, 337, 334,
	 88, 102, 342,
	 332, 88, 342,
	 335, 343, 114,
	 103, 335, 114,
	 336, 344, 343,
	 335, 336, 343,
	 338, 345, 344,
	 336, 338, 344,
	 340, 346, 345,
	 338, 340, 345,
	 342, 347, 346,
	 340, 342, 346,
	 102, 113, 347,
	 342, 102, 347,
	 343, 348, 125,
	 114, 343, 125,
	 344, 349, 348,
	 343, 344, 348,
	 345, 350, 349,
	 344, 345, 349,
	 346, 351, 350,
	 345, 346, 350,
	 347, 352, 351,
	 346, 347, 351,
	 113, 124, 352,
	 347, 113, 352,
	 348, 353, 136,
	 125, 348, 136,
	 349, 354, 353,
	 348, 349, 353,
	 350, 355, 354,
	 349, 350, 354,
	 351, 356, 355,
	 350, 351, 355,
	 352, 357, 356,
	 351, 352, 356,
	 124, 135, 357,
	 352, 124, 357,
	 353, 358, 146,
	 136, 353, 146,
	 354, 359, 358,
	 353, 354, 358,
	 355, 360, 359,
	 354, 355, 359,
	 356, 361, 360,
	 355, 356, 360,
	 357, 362, 361,
	 356, 357, 361,
	 135, 363, 362,
	 357, 135, 362,
	 134, 159, 363,
	 135, 134, 363,
	 358, 364, 160,
	 146, 358, 160,
	 359, 365, 364,
	 358, 359, 364,
	 360, 366, 365,
	 359, 360, 365,
	 361, 367, 366,
	 360, 361, 366,
	 362, 368, 367,
	 361, 362, 367,
	 363, 369, 368,
	 362, 363, 368,
	 364, 370, 175,
	 160, 364, 175,
	 365, 371, 370,
	 364, 365, 370,
	 366, 372, 373,
	 365, 366, 373,
	 367, 374, 372,
	 366, 367, 372,
	 368, 375, 376,
	 367, 368, 376,
	 376, 377, 374,
	 367, 376, 374,
	 369, 378, 375,
	 368, 369, 375,
	 363, 159, 158,
	 369, 363, 158,
	 370, 379, 196,
	 175, 370, 196,
	 371, 380, 379,
	 370, 371, 379,
	 365, 373, 381,
	 371, 365, 381,
	 382, 383, 384,
	 385, 382, 384,
	 386, 387, 382,
	 385, 386, 382,
	 384, 388, 389,
	 385, 384, 389,
	 375, 390, 391,
	 376, 375, 391,
	 391, 392, 377,
	 376, 391, 377,
	 378, 224, 390,
	 375, 378, 390,
	 369, 158, 174,
	 378, 369, 174,
	 379, 393, 212,
	 196, 379, 212,
	 380, 394, 393,
	 379, 380, 393,
	 395, 396, 394,
	 380, 395, 394,
	 371, 381, 397,
	 380, 371, 397,
	 391, 398, 396,
	 395, 391, 396,
	 380, 397, 399,
	 395, 380, 399,
	 390, 400, 398,
	 391, 390, 398,
	 399, 392, 391,
	 395, 399, 391,
	 224, 223, 400,
	 390, 224, 400,
	 378, 401, 402,
	 224, 378, 402,
	 402, 245, 210,
	 224, 402, 210,
	 393, 403, 225,
	 212, 393, 225,
	 394, 404, 403,
	 393, 394, 403,
	 396, 405, 404,
	 394, 396, 404,
	 398, 406, 405,
	 396, 398, 405,
	 400, 407, 406,
	 398, 400, 406,
	 223, 222, 407,
	 400, 223, 407,
	 403, 254, 236,
	 225, 403, 236,
	 404, 408, 254,
	 403, 404, 254,
	 405, 409, 408,
	 404, 405, 408,
	 406, 410, 409,
	 405, 406, 409,
	 407, 238, 410,
	 406, 407, 410,
	 222, 235, 238,
	 407, 222, 238,
	 408, 409, 237,
	 254, 408, 237,
	 410, 238, 237,
	 409, 410, 237,
	 401, 251, 250,
	 402, 401, 250,
	 378, 174, 195,
	 401, 378, 195,
	 401, 195, 240,
	 251, 401, 240,
	 402, 250, 249,
	 245, 402, 249,
	 384, 383, 392,
	 399, 384, 392,
	 374, 387, 386,
	 372, 374, 386,
	 382, 387, 374,
	 377, 382, 374,
	 389, 388, 397,
	 381, 389, 397,
	 411, 412, 330,
	 329, 411, 330,
	 339, 413, 414,
	 341, 339, 414,
	 334, 415, 416,
	 331, 334, 416,
	 416, 417, 418,
	 331, 416, 418,
	 341, 414, 415,
	 334, 341, 415,
	 330, 419, 413,
	 339, 330, 413,
	 414, 413, 419,
	 420, 414, 419,
	 419, 421, 422,
	 420, 419, 422,
	 420, 416, 415,
	 414, 420, 415,
	 330, 412, 421,
	 419, 330, 421,
	 420, 422, 417,
	 416, 420, 417,
	 329, 331, 418,
	 411, 329, 418,
	 423, 424, 412,
	 411, 423, 412,
	 421, 425, 426,
	 422, 421, 426,
	 417, 427, 428,
	 418, 417, 428,
	 422, 426, 427,
	 417, 422, 427,
	 412, 424, 425,
	 421, 412, 425,
	 411, 418, 428,
	 423, 411, 428,
	 429, 430, 424,
	 423, 429, 424,
	 425, 431, 432,
	 426, 425, 432,
	 427, 433, 434,
	 428, 427, 434,
	 426, 432, 433,
	 427, 426, 433,
	 424, 430, 431,
	 425, 424, 431,
	 435, 436, 430,
	 429, 435, 430,
	 423, 428, 434,
	 429, 423, 434,
	 431, 437, 438,
	 432, 431, 438,
	 430, 436, 437,
	 431, 430, 437,
	 433, 439, 440,
	 434, 433, 440,
	 432, 438, 439,
	 433, 432, 439,
	 441, 442, 443,
	 444, 441, 443,
	 443, 436, 435,
	 444, 443, 435,
	 438, 437, 442,
	 441, 438, 442,
	 444, 445, 446,
	 441, 444, 446,
	 437, 436, 443,
	 442, 437, 443,
	 444, 435, 440,
	 445, 444, 440,
	 445, 440, 439,
	 446, 445, 439,
	 441, 446, 439,
	 438, 441, 439,
	 429, 434, 440,
	 435, 429, 440,
	 202, 204, 185,
	 183, 202, 185,
	 184, 186, 253,
	 252, 184, 253,
	 167, 166, 447,
	 252, 167, 447,
	 187, 168, 253,
	 186, 187, 253,
	 184, 252, 447,
	 181, 184, 447,
	 165, 180, 182,
	 181, 165, 182,
	 399, 397, 388,
	 384, 399, 388,
	 385, 389, 448,
	 386, 385, 448,
	 377, 392, 383,
	 382, 377, 383,
	 381, 373, 448,
	 389, 381, 448,
	 43, 41, 39,
	 449, 43, 39,
	 316, 51, 50,
	 449, 316, 50,
	 35, 34, 308,
	 449, 35, 308,
	 312, 314, 316,
	 449, 312, 316,
	 33, 32, 8,
	 293, 33, 8,
	 3, 5, 293,
	 8, 3, 293,
	 449, 39, 37,
	 35, 449, 37,
	 449, 47, 45,
	 43, 449, 45,
	 449, 50, 49,
	 47, 449, 49,
	 449, 308, 310,
	 312, 449, 310,
	 165, 181, 447,
	 166, 165, 447,
	 202, 183, 182,
	 180, 202, 182,
	 372, 386, 448,
	 373, 372, 448,
};
#define _PaperweightPenguin0_indices_
#endif
// Part of an OBJ_MATERIAL, the struct is 16 byte aligned so it is GPU register friendly.
#ifndef __OBJ_ATTRIBUTES__
typedef struct _OBJ_ATTRIBUTES_
{
	OBJ_VEC3    Kd; // diffuse reflectivity
	float	    d; // dissolve (transparency) 
	OBJ_VEC3    Ks; // specular reflectivity
	float       Ns; // specular exponent
	OBJ_VEC3    Ka; // ambient reflectivity
	float       sharpness; // local reflection map sharpness
	OBJ_VEC3    Tf; // transmission filter
	float       Ni; // optical density (index of refraction)
	OBJ_VEC3    Ke; // emissive reflectivity
	unsigned    illum; // illumination model
}OBJ_ATTRIBUTES;
#define __OBJ_ATTRIBUTES__
#endif
// This structure also has been made GPU register friendly so it can be transfered directly if desired.
// Note: Total struct size will vary depenedening on CPU processor architecture (string pointers).
#ifndef __OBJ_MATERIAL__
typedef struct _OBJ_MATERIAL_
{
	// The following items are typically used in a pixel/fragment shader, they are packed for GPU registers.
	OBJ_ATTRIBUTES attrib; // Surface shading characteristics & illumination model
	// All items below this line are not needed on the GPU and are generally only used during load time.
	const char* name; // the name of this material
	// If the model's materials contain any specific texture data it will be located below.
	const char* map_Kd; // diffuse texture
	const char* map_Ks; // specular texture
	const char* map_Ka; // ambient texture
	const char* map_Ke; // emissive texture
	const char* map_Ns; // specular exponent texture
	const char* map_d; // transparency texture
	const char* disp; // roughness map (displacement)
	const char* decal; // decal texture (lerps texture & material colors)
	const char* bump; // normal/bumpmap texture
	void* padding[2]; // 16 byte alignment on 32bit or 64bit
}OBJ_MATERIAL;
#define __OBJ_MATERIAL__
#endif
#ifndef _PaperweightPenguin0_materials_
// Material Data follows: pulled from a .mtl file of the same name if present.
const OBJ_MATERIAL PaperweightPenguin0_materials[1] =
{
	{
		{{ 0.500000f, 0.750000f, 1.000000f },
		1.000000f,
		{ 1.000000f, 1.000000f, 1.000000f },
		100.000000f,
		{ 0.500000f, 0.750000f, 1.000000f },
		60.000000f,
		{ 1.000000f, 1.000000f, 1.000000f },
		1.500000f,
		{ 0.000000f, 0.000000f, 0.000000f },
		2},
		"default",
		"",
		"",
		"",
		"",
		"",
		"",
		"",
		"",
		"",
	},
};
#define _PaperweightPenguin0_materials_
#endif
/************************************************/
/*  This section contains the model's structure */
/************************************************/
#ifndef _PaperweightPenguin0_batches_
// Use this conveinence array to batch render all geometry by like material.
// Each entry corresponds to the same entry in the materials array above.
// The two numbers provided are the IndexCount and the IndexOffset into the indices array.
// If you need more fine grained control(ex: for transformations) use the OBJ_MESH data below.
const unsigned int PaperweightPenguin0_batches[1][2] =
{
	{ 2688, 0 },
};
#define _PaperweightPenguin0_batches_
#endif
#ifndef __OBJ_MESH__
typedef struct _OBJ_MESH_
{
	const char* name;
	unsigned    indexCount;
	unsigned    indexOffset;
	unsigned    materialIndex;
}OBJ_MESH;
#define __OBJ_MESH__
#endif
#ifndef _PaperweightPenguin0_meshes_
// Mesh Data follows: Meshes are .obj groups sorted & split by material.
// Meshes are provided in sequential order, sorted by material first and name second.
const OBJ_MESH PaperweightPenguin0_meshes[1] =
{
	{
		"Paperweight_default",
		2688,
		0,
		0,
	},
};
#define _PaperweightPenguin0_meshes_
#endif
