// "PaperweightPenguin1.h" generated by "Obj2Header.exe" [Version 1.9d] Author: L.Norri Fullsail University.
// Data is converted to left-handed coordinate system and UV data is V flipped for Direct3D/Vulkan.
// The companion file "PaperweightPenguin1.h2b" is a binary dump of this format(-padding) for more flexibility.
// Loading *.h2b: read version, sizes, handle strings(max len 260) by reading until null-terminated.
/***********************/
/*  Generator version  */
/***********************/
#ifndef _PaperweightPenguin1_version_
const char PaperweightPenguin1_version[4] = { '0','1','9','d' };
#define _PaperweightPenguin1_version_
#endif
/************************************************/
/*  This section contains the model's size data */
/************************************************/
#ifndef _PaperweightPenguin1_vertexcount_
const unsigned PaperweightPenguin1_vertexcount = 1790;
#define _PaperweightPenguin1_vertexcount_
#endif
#ifndef _PaperweightPenguin1_indexcount_
const unsigned PaperweightPenguin1_indexcount = 10728;
#define _PaperweightPenguin1_indexcount_
#endif
#ifndef _PaperweightPenguin1_materialcount_
const unsigned PaperweightPenguin1_materialcount = 1; // can be used for batched draws
#define _PaperweightPenguin1_materialcount_
#endif
#ifndef _PaperweightPenguin1_meshcount_
const unsigned PaperweightPenguin1_meshcount = 1;
#define _PaperweightPenguin1_meshcount_
#endif
/************************************************/
/*  This section contains the raw data to load  */
/************************************************/
#ifndef __OBJ_VEC3__
typedef struct _OBJ_VEC3_
{
	float x,y,z; // 3D Coordinate.
}OBJ_VEC3;
#define __OBJ_VEC3__
#endif
#ifndef __OBJ_VERT__
typedef struct _OBJ_VERT_
{
	OBJ_VEC3 pos; // Left-handed +Z forward coordinate w not provided, assumed to be 1.
	OBJ_VEC3 uvw; // D3D/Vulkan style top left 0,0 coordinate.
	OBJ_VEC3 nrm; // Provided direct from obj file, may or may not be normalized.
}OBJ_VERT;
#define __OBJ_VERT__
#endif
#ifndef _PaperweightPenguin1_vertices_
// Raw Vertex Data follows: Positions, Texture Coordinates and Normals.
const OBJ_VERT PaperweightPenguin1_vertices[1790] =
{
	{	{ -9.717278f, -11.679067f, 4.158876f },	{ 0.000000f, 0.000000f, 0.000000f },	{ 0.243250f, -0.959203f, 0.144081f }	},
	{	{ -9.710551f, -11.705590f, 3.935526f },	{ 0.000000f, 0.000000f, 0.000000f },	{ 0.244070f, -0.962436f, 0.118937f }	},
	{	{ -9.524025f, -11.638435f, 3.935526f },	{ 0.000000f, 0.000000f, 0.000000f },	{ 0.427141f, -0.896325f, 0.118959f }	},
	{	{ -9.535799f, -11.613729f, 4.158876f },	{ 0.000000f, 0.000000f, 0.000000f },	{ 0.425706f, -0.893313f, 0.144108f }	},
	{	{ -9.354380f, -11.535858f, 3.935526f },	{ 0.000000f, 0.000000f, 0.000000f },	{ 0.593800f, -0.795774f, 0.118937f }	},
	{	{ -9.370745f, -11.513927f, 4.158876f },	{ 0.000000f, 0.000000f, 0.000000f },	{ 0.591805f, -0.793100f, 0.144081f }	},
	{	{ -9.906538f, -11.735439f, 3.935526f },	{ 0.000000f, 0.000000f, 0.000000f },	{ 0.051618f, -0.991557f, 0.118959f }	},
	{	{ -9.907960f, -11.708108f, 4.158876f },	{ 0.000000f, 0.000000f, 0.000000f },	{ 0.051445f, -0.988224f, 0.144108f }	},
	{	{ -10.100628f, -11.699022f, 4.158876f },	{ 0.000000f, 0.000000f, 0.000000f },	{ -0.142337f, -0.979276f, 0.144081f }	},
	{	{ -10.104564f, -11.726102f, 3.935526f },	{ 0.000000f, 0.000000f, 0.000000f },	{ -0.142817f, -0.982577f, 0.118937f }	},
	{	{ -10.297055f, -11.678678f, 3.935526f },	{ 0.000000f, 0.000000f, 0.000000f },	{ -0.331763f, -0.935832f, 0.118959f }	},
	{	{ -10.287910f, -11.652883f, 4.158876f },	{ 0.000000f, 0.000000f, 0.000000f },	{ -0.330648f, -0.932687f, 0.144108f }	},
	{	{ -10.462435f, -11.570758f, 4.158876f },	{ 0.000000f, 0.000000f, 0.000000f },	{ -0.506255f, -0.850263f, 0.144081f }	},
	{	{ -10.476434f, -11.594270f, 3.935526f },	{ 0.000000f, 0.000000f, 0.000000f },	{ -0.507962f, -0.853129f, 0.118937f }	},
	{	{ -10.636124f, -11.476792f, 3.935526f },	{ 0.000000f, 0.000000f, 0.000000f },	{ -0.664637f, -0.737636f, 0.118959f }	},
	{	{ -10.617804f, -11.456460f, 4.158876f },	{ 0.000000f, 0.000000f, 0.000000f },	{ -0.662403f, -0.735157f, 0.144108f }	},
	{	{ -10.747617f, -11.313799f, 4.158876f },	{ 0.000000f, 0.000000f, 0.000000f },	{ -0.793100f, -0.591805f, 0.144081f }	},
	{	{ -10.769547f, -11.330164f, 3.935526f },	{ 0.000000f, 0.000000f, 0.000000f },	{ -0.795774f, -0.593800f, 0.118937f }	},
	{	{ -10.872125f, -11.160519f, 3.935526f },	{ 0.000000f, 0.000000f, 0.000000f },	{ -0.896325f, -0.427141f, 0.118959f }	},
	{	{ -10.847419f, -11.148745f, 4.158876f },	{ 0.000000f, 0.000000f, 0.000000f },	{ -0.893313f, -0.425706f, 0.144108f }	},
	{	{ -10.912756f, -10.967266f, 4.158876f },	{ 0.000000f, 0.000000f, 0.000000f },	{ -0.959203f, -0.243250f, 0.144081f }	},
	{	{ -10.939280f, -10.973992f, 3.935526f },	{ 0.000000f, 0.000000f, 0.000000f },	{ -0.962436f, -0.244070f, 0.118937f }	},
	{	{ -10.969129f, -10.778007f, 3.935526f },	{ 0.000000f, 0.000000f, 0.000000f },	{ -0.991557f, -0.051618f, 0.118959f }	},
	{	{ -10.941797f, -10.776584f, 4.158876f },	{ 0.000000f, 0.000000f, 0.000000f },	{ -0.988224f, -0.051445f, 0.144108f }	},
	{	{ -10.932712f, -10.583916f, 4.158876f },	{ 0.000000f, 0.000000f, 0.000000f },	{ -0.979276f, 0.142337f, 0.144081f }	},
	{	{ -10.959791f, -10.579980f, 3.935526f },	{ 0.000000f, 0.000000f, 0.000000f },	{ -0.982577f, 0.142817f, 0.118937f }	},
	{	{ -10.912367f, -10.387489f, 3.935526f },	{ 0.000000f, 0.000000f, 0.000000f },	{ -0.935832f, 0.331763f, 0.118959f }	},
	{	{ -10.886572f, -10.396634f, 4.158876f },	{ 0.000000f, 0.000000f, 0.000000f },	{ -0.932687f, 0.330648f, 0.144108f }	},
	{	{ -10.804447f, -10.222109f, 4.158876f },	{ 0.000000f, 0.000000f, 0.000000f },	{ -0.850263f, 0.506255f, 0.144081f }	},
	{	{ -10.827959f, -10.208110f, 3.935526f },	{ 0.000000f, 0.000000f, 0.000000f },	{ -0.853129f, 0.507962f, 0.118937f }	},
	{	{ -10.710482f, -10.048420f, 3.935526f },	{ 0.000000f, 0.000000f, 0.000000f },	{ -0.737636f, 0.664637f, 0.118959f }	},
	{	{ -10.690149f, -10.066740f, 4.158876f },	{ 0.000000f, 0.000000f, 0.000000f },	{ -0.735157f, 0.662403f, 0.144108f }	},
	{	{ -10.547488f, -9.936928f, 4.158876f },	{ 0.000000f, 0.000000f, 0.000000f },	{ -0.591805f, 0.793100f, 0.144081f }	},
	{	{ -10.563853f, -9.914996f, 3.935526f },	{ 0.000000f, 0.000000f, 0.000000f },	{ -0.593800f, 0.795774f, 0.118937f }	},
	{	{ -10.394208f, -9.812419f, 3.935526f },	{ 0.000000f, 0.000000f, 0.000000f },	{ -0.427141f, 0.896325f, 0.118959f }	},
	{	{ -10.382434f, -9.837126f, 4.158876f },	{ 0.000000f, 0.000000f, 0.000000f },	{ -0.425706f, 0.893313f, 0.144108f }	},
	{	{ -10.373277f, -9.856341f, 4.284926f },	{ 0.000000f, 0.000000f, 0.000000f },	{ -0.421672f, 0.884849f, 0.198075f }	},
	{	{ -10.195724f, -9.792418f, 4.284926f },	{ 0.000000f, 0.000000f, 0.000000f },	{ -0.240946f, 0.950119f, 0.198040f }	},
	{	{ -10.200955f, -9.771788f, 4.158876f },	{ 0.000000f, 0.000000f, 0.000000f },	{ -0.243250f, 0.959203f, 0.144081f }	},
	{	{ -9.730044f, -11.628721f, 4.387098f },	{ 0.000000f, 0.000000f, 0.000000f },	{ 0.121361f, -0.478560f, 0.869627f }	},
	{	{ -9.727813f, -11.637522f, 4.376482f },	{ 0.000000f, 0.000000f, 0.000000f },	{ 0.219193f, -0.864339f, 0.452628f }	},
	{	{ -9.554240f, -11.575031f, 4.376482f },	{ 0.000000f, 0.000000f, 0.000000f },	{ 0.383591f, -0.804938f, 0.452696f }	},
	{	{ -9.558147f, -11.566833f, 4.387098f },	{ 0.000000f, 0.000000f, 0.000000f },	{ 0.212361f, -0.445625f, 0.869667f }	},
	{	{ -9.401806f, -11.472300f, 4.387098f },	{ 0.000000f, 0.000000f, 0.000000f },	{ 0.295260f, -0.395689f, 0.869627f }	},
	{	{ -9.414106f, -11.455816f, 4.390637f },	{ 0.000000f, 0.000000f, 0.000000f },	{ 0.050885f, -0.068193f, 0.996374f }	},
	{	{ -9.566997f, -11.548263f, 4.390637f },	{ 0.000000f, 0.000000f, 0.000000f },	{ 0.036597f, -0.076795f, 0.996375f }	},
	{	{ -10.093158f, -11.647624f, 4.387098f },	{ 0.000000f, 0.000000f, 0.000000f },	{ -0.071014f, -0.488575f, 0.869627f }	},
	{	{ -10.094463f, -11.656609f, 4.376482f },	{ 0.000000f, 0.000000f, 0.000000f },	{ -0.128260f, -0.882427f, 0.452628f }	},
	{	{ -9.910189f, -11.665298f, 4.376482f },	{ 0.000000f, 0.000000f, 0.000000f },	{ 0.046355f, -0.890459f, 0.452696f }	},
	{	{ -9.910661f, -11.656229f, 4.387098f },	{ 0.000000f, 0.000000f, 0.000000f },	{ 0.025663f, -0.492971f, 0.869667f }	},
	{	{ -10.435863f, -11.526131f, 4.387098f },	{ 0.000000f, 0.000000f, 0.000000f },	{ -0.252578f, -0.424208f, 0.869627f }	},
	{	{ -10.440509f, -11.533932f, 4.376482f },	{ 0.000000f, 0.000000f, 0.000000f },	{ -0.456187f, -0.766173f, 0.452628f }	},
	{	{ -10.273586f, -11.612478f, 4.376482f },	{ 0.000000f, 0.000000f, 0.000000f },	{ -0.297937f, -0.840417f, 0.452696f }	},
	{	{ -10.270552f, -11.603919f, 4.387098f },	{ 0.000000f, 0.000000f, 0.000000f },	{ -0.164942f, -0.465267f, 0.869667f }	},
	{	{ -10.090199f, -11.627271f, 4.390637f },	{ 0.000000f, 0.000000f, 0.000000f },	{ -0.012239f, -0.084201f, 0.996374f }	},
	{	{ -10.263679f, -11.584531f, 4.390637f },	{ 0.000000f, 0.000000f, 0.000000f },	{ -0.028425f, -0.080180f, 0.996375f }	},
	{	{ -10.705989f, -11.282738f, 4.387098f },	{ 0.000000f, 0.000000f, 0.000000f },	{ -0.395689f, -0.295260f, 0.869627f }	},
	{	{ -10.713266f, -11.288167f, 4.376482f },	{ 0.000000f, 0.000000f, 0.000000f },	{ -0.714664f, -0.533276f, 0.452628f }	},
	{	{ -10.589108f, -11.424613f, 4.376482f },	{ 0.000000f, 0.000000f, 0.000000f },	{ -0.596872f, -0.662428f, 0.452696f }	},
	{	{ -10.583030f, -11.417867f, 4.387098f },	{ 0.000000f, 0.000000f, 0.000000f },	{ -0.330437f, -0.366730f, 0.869667f }	},
	{	{ -10.862411f, -10.954499f, 4.387098f },	{ 0.000000f, 0.000000f, 0.000000f },	{ -0.478560f, -0.121361f, 0.869627f }	},
	{	{ -10.871211f, -10.956731f, 4.376482f },	{ 0.000000f, 0.000000f, 0.000000f },	{ -0.864339f, -0.219193f, 0.452628f }	},
	{	{ -10.808721f, -11.130303f, 4.376482f },	{ 0.000000f, 0.000000f, 0.000000f },	{ -0.804938f, -0.383591f, 0.452696f }	},
	{	{ -10.800523f, -11.126397f, 4.387098f },	{ 0.000000f, 0.000000f, 0.000000f },	{ -0.445625f, -0.212361f, 0.869667f }	},
	{	{ -10.689506f, -11.270437f, 4.390637f },	{ 0.000000f, 0.000000f, 0.000000f },	{ -0.068193f, -0.050885f, 0.996374f }	},
	{	{ -10.781952f, -11.117547f, 4.390637f },	{ 0.000000f, 0.000000f, 0.000000f },	{ -0.076795f, -0.036597f, 0.996375f }	},
	{	{ -10.881313f, -10.591387f, 4.387098f },	{ 0.000000f, 0.000000f, 0.000000f },	{ -0.488575f, 0.071014f, 0.869627f }	},
	{	{ -10.890298f, -10.590080f, 4.376482f },	{ 0.000000f, 0.000000f, 0.000000f },	{ -0.882427f, 0.128260f, 0.452628f }	},
	{	{ -10.898988f, -10.774355f, 4.376482f },	{ 0.000000f, 0.000000f, 0.000000f },	{ -0.890459f, -0.046355f, 0.452696f }	},
	{	{ -10.889918f, -10.773883f, 4.387098f },	{ 0.000000f, 0.000000f, 0.000000f },	{ -0.492971f, -0.025663f, 0.869667f }	},
	{	{ -10.759820f, -10.248680f, 4.387098f },	{ 0.000000f, 0.000000f, 0.000000f },	{ -0.424208f, 0.252578f, 0.869627f }	},
	{	{ -10.767621f, -10.244035f, 4.376482f },	{ 0.000000f, 0.000000f, 0.000000f },	{ -0.766173f, 0.456187f, 0.452628f }	},
	{	{ -10.846168f, -10.410957f, 4.376482f },	{ 0.000000f, 0.000000f, 0.000000f },	{ -0.840417f, 0.297937f, 0.452696f }	},
	{	{ -10.837608f, -10.413992f, 4.387098f },	{ 0.000000f, 0.000000f, 0.000000f },	{ -0.465267f, 0.164942f, 0.869667f }	},
	{	{ -10.860960f, -10.594345f, 4.390637f },	{ 0.000000f, 0.000000f, 0.000000f },	{ -0.084201f, 0.012239f, 0.996374f }	},
	{	{ -10.818220f, -10.420865f, 4.390637f },	{ 0.000000f, 0.000000f, 0.000000f },	{ -0.080180f, 0.028425f, 0.996375f }	},
	{	{ -10.516427f, -9.978555f, 4.387098f },	{ 0.000000f, 0.000000f, 0.000000f },	{ -0.295260f, 0.395689f, 0.869627f }	},
	{	{ -10.521857f, -9.971277f, 4.376482f },	{ 0.000000f, 0.000000f, 0.000000f },	{ -0.533276f, 0.714664f, 0.452628f }	},
	{	{ -10.658302f, -10.095435f, 4.376482f },	{ 0.000000f, 0.000000f, 0.000000f },	{ -0.662428f, 0.596872f, 0.452696f }	},
	{	{ -10.651556f, -10.101514f, 4.387098f },	{ 0.000000f, 0.000000f, 0.000000f },	{ -0.366730f, 0.330437f, 0.869667f }	},
	{	{ -10.351236f, -9.902592f, 4.390637f },	{ 0.000000f, 0.000000f, 0.000000f },	{ -0.036597f, 0.076795f, 0.996375f }	},
	{	{ -10.183132f, -9.842070f, 4.390637f },	{ 0.000000f, 0.000000f, 0.000000f },	{ -0.020915f, 0.082475f, 0.996374f }	},
	{	{ -10.188189f, -9.822133f, 4.387098f },	{ 0.000000f, 0.000000f, 0.000000f },	{ -0.121361f, 0.478560f, 0.869627f }	},
	{	{ -10.360086f, -9.884022f, 4.387098f },	{ 0.000000f, 0.000000f, 0.000000f },	{ -0.212361f, 0.445625f, 0.869667f }	},
	{	{ -10.190420f, -9.813333f, 4.376482f },	{ 0.000000f, 0.000000f, 0.000000f },	{ -0.219193f, 0.864339f, 0.452628f }	},
	{	{ -10.363993f, -9.875823f, 4.376482f },	{ 0.000000f, 0.000000f, 0.000000f },	{ -0.383591f, 0.804938f, 0.452696f }	},
	{	{ -10.425666f, -9.746408f, 3.335526f },	{ 0.000000f, 0.000000f, 0.000000f },	{ -0.427352f, 0.896767f, 0.114799f }	},
	{	{ -10.607576f, -9.856401f, 3.335526f },	{ 0.000000f, 0.000000f, 0.000000f },	{ -0.594092f, 0.796166f, 0.114778f }	},
	{	{ -10.583876f, -9.888164f, 3.649526f },	{ 0.000000f, 0.000000f, 0.000000f },	{ -0.593669f, 0.795599f, 0.120744f }	},
	{	{ -10.408613f, -9.782189f, 3.649526f },	{ 0.000000f, 0.000000f, 0.000000f },	{ -0.427047f, 0.896128f, 0.120766f }	},
	{	{ -10.764806f, -9.999472f, 3.335526f },	{ 0.000000f, 0.000000f, 0.000000f },	{ -0.738000f, 0.664964f, 0.114799f }	},
	{	{ -10.890777f, -10.170707f, 3.335526f },	{ 0.000000f, 0.000000f, 0.000000f },	{ -0.853261f, 0.508619f, 0.115118f }	},
	{	{ -10.856726f, -10.190982f, 3.649526f },	{ 0.000000f, 0.000000f, 0.000000f },	{ -0.852942f, 0.507850f, 0.120744f }	},
	{	{ -10.735359f, -10.026005f, 3.649526f },	{ 0.000000f, 0.000000f, 0.000000f },	{ -0.737474f, 0.664491f, 0.120766f }	},
	{	{ -10.981288f, -10.363055f, 3.335526f },	{ 0.000000f, 0.000000f, 0.000000f },	{ -0.935539f, 0.333450f, 0.116520f }	},
	{	{ -11.032141f, -10.569464f, 3.335526f },	{ 0.000000f, 0.000000f, 0.000000f },	{ -0.982401f, 0.144639f, 0.118184f }	},
	{	{ -10.992923f, -10.575164f, 3.649526f },	{ 0.000000f, 0.000000f, 0.000000f },	{ -0.982361f, 0.142786f, 0.120744f }	},
	{	{ -10.943929f, -10.376300f, 3.649526f },	{ 0.000000f, 0.000000f, 0.000000f },	{ -0.935627f, 0.331690f, 0.120766f }	},
	{	{ -11.042153f, -10.781808f, 3.335526f },	{ 0.000000f, 0.000000f, 0.000000f },	{ -0.991678f, -0.051040f, 0.118189f }	},
	{	{ -11.010146f, -10.991964f, 3.335526f },	{ 0.000000f, 0.000000f, 0.000000f },	{ -0.962673f, -0.244187f, 0.116764f }	},
	{	{ -10.971732f, -10.982223f, 3.649526f },	{ 0.000000f, 0.000000f, 0.000000f },	{ -0.962225f, -0.244016f, 0.120744f }	},
	{	{ -11.002569f, -10.779747f, 3.649526f },	{ 0.000000f, 0.000000f, 0.000000f },	{ -0.991339f, -0.051607f, 0.120766f }	},
	{	{ -10.938136f, -11.191977f, 3.335526f },	{ 0.000000f, 0.000000f, 0.000000f },	{ -0.896637f, -0.427290f, 0.116045f }	},
	{	{ -10.828142f, -11.373887f, 3.335526f },	{ 0.000000f, 0.000000f, 0.000000f },	{ -0.796013f, -0.593910f, 0.116764f }	},
	{	{ -10.796380f, -11.350186f, 3.649526f },	{ 0.000000f, 0.000000f, 0.000000f },	{ -0.795599f, -0.593669f, 0.120744f }	},
	{	{ -10.902354f, -11.174924f, 3.649526f },	{ 0.000000f, 0.000000f, 0.000000f },	{ -0.896128f, -0.427047f, 0.120766f }	},
	{	{ -10.685072f, -11.531116f, 3.335526f },	{ 0.000000f, 0.000000f, 0.000000f },	{ -0.664265f, -0.738095f, 0.118189f }	},
	{	{ -10.513837f, -11.657087f, 3.335526f },	{ 0.000000f, 0.000000f, 0.000000f },	{ -0.506436f, -0.854140f, 0.118184f }	},
	{	{ -10.493562f, -11.623036f, 3.649526f },	{ 0.000000f, 0.000000f, 0.000000f },	{ -0.507850f, -0.852942f, 0.120744f }	},
	{	{ -10.658539f, -11.501670f, 3.649526f },	{ 0.000000f, 0.000000f, 0.000000f },	{ -0.664491f, -0.737474f, 0.120766f }	},
	{	{ -10.321488f, -11.747599f, 3.335526f },	{ 0.000000f, 0.000000f, 0.000000f },	{ -0.330269f, -0.936667f, 0.116520f }	},
	{	{ -10.115080f, -11.798451f, 3.335526f },	{ 0.000000f, 0.000000f, 0.000000f },	{ -0.142390f, -0.983094f, 0.115118f }	},
	{	{ -10.109380f, -11.759233f, 3.649526f },	{ 0.000000f, 0.000000f, 0.000000f },	{ -0.142786f, -0.982361f, 0.120744f }	},
	{	{ -10.308244f, -11.710239f, 3.649526f },	{ 0.000000f, 0.000000f, 0.000000f },	{ -0.331690f, -0.935627f, 0.120766f }	},
	{	{ -9.902736f, -11.808464f, 3.335526f },	{ 0.000000f, 0.000000f, 0.000000f },	{ 0.051644f, -0.992045f, 0.114799f }	},
	{	{ -9.692579f, -11.776457f, 3.335526f },	{ 0.000000f, 0.000000f, 0.000000f },	{ 0.244190f, -0.962911f, 0.114778f }	},
	{	{ -9.702321f, -11.738043f, 3.649526f },	{ 0.000000f, 0.000000f, 0.000000f },	{ 0.244016f, -0.962225f, 0.120744f }	},
	{	{ -9.904797f, -11.768880f, 3.649526f },	{ 0.000000f, 0.000000f, 0.000000f },	{ 0.051607f, -0.991339f, 0.120766f }	},
	{	{ -9.492567f, -11.704447f, 3.335526f },	{ 0.000000f, 0.000000f, 0.000000f },	{ 0.427352f, -0.896767f, 0.114799f }	},
	{	{ -9.509620f, -11.668665f, 3.649526f },	{ 0.000000f, 0.000000f, 0.000000f },	{ 0.427047f, -0.896128f, 0.120766f }	},
	{	{ -9.310657f, -11.594453f, 3.335526f },	{ 0.000000f, 0.000000f, 0.000000f },	{ 0.594092f, -0.796166f, 0.114778f }	},
	{	{ -9.334357f, -11.562691f, 3.649526f },	{ 0.000000f, 0.000000f, 0.000000f },	{ 0.593669f, -0.795599f, 0.120744f }	},
	{	{ -10.444040f, -9.707849f, 2.770192f },	{ 0.000000f, 0.000000f, 0.000000f },	{ -0.430195f, 0.902732f, -0.002633f }	},
	{	{ -10.633116f, -9.822175f, 2.770192f },	{ 0.000000f, 0.000000f, 0.000000f },	{ -0.598008f, 0.801486f, -0.002589f }	},
	{	{ -10.626731f, -9.830731f, 3.030192f },	{ 0.000000f, 0.000000f, 0.000000f },	{ -0.596462f, 0.799341f, 0.072714f }	},
	{	{ -10.439446f, -9.717488f, 3.030192f },	{ 0.000000f, 0.000000f, 0.000000f },	{ -0.429057f, 0.900345f, 0.072728f }	},
	{	{ -10.796538f, -9.970880f, 2.770192f },	{ 0.000000f, 0.000000f, 0.000000f },	{ -0.742794f, 0.669515f, -0.002374f }	},
	{	{ -10.927470f, -10.148859f, 2.770192f },	{ 0.000000f, 0.000000f, 0.000000f },	{ -0.855324f, 0.518093f, 0.000195f }	},
	{	{ -10.918297f, -10.154322f, 3.030192f },	{ 0.000000f, 0.000000f, 0.000000f },	{ -0.855340f, 0.512714f, 0.074284f }	},
	{	{ -10.788606f, -9.978027f, 3.030192f },	{ 0.000000f, 0.000000f, 0.000000f },	{ -0.740944f, 0.667617f, 0.072728f }	},
	{	{ -11.023276f, -10.344433f, 2.770192f },	{ 0.000000f, 0.000000f, 0.000000f },	{ -0.933680f, 0.357995f, 0.008961f }	},
	{	{ -11.081323f, -10.545917f, 2.770192f },	{ 0.000000f, 0.000000f, 0.000000f },	{ -0.982725f, 0.182716f, 0.029420f }	},
	{	{ -11.065567f, -10.560506f, 3.030192f },	{ 0.000000f, 0.000000f, 0.000000f },	{ -0.984066f, 0.154178f, 0.088568f }	},
	{	{ -11.011914f, -10.351264f, 3.030192f },	{ 0.000000f, 0.000000f, 0.000000f },	{ -0.936010f, 0.342589f, 0.080739f }	},
	{	{ -11.095750f, -10.758188f, 2.770192f },	{ 0.000000f, 0.000000f, 0.000000f },	{ -0.998306f, -0.026547f, 0.051769f }	},
	{	{ -11.060699f, -10.986124f, 2.770192f },	{ 0.000000f, 0.000000f, 0.000000f },	{ -0.968541f, -0.241255f, 0.061033f }	},
	{	{ -11.043482f, -10.995753f, 3.030192f },	{ 0.000000f, 0.000000f, 0.000000f },	{ -0.965996f, -0.245281f, 0.081785f }	},
	{	{ -11.076880f, -10.777013f, 3.030192f },	{ 0.000000f, 0.000000f, 0.000000f },	{ -0.994919f, -0.048247f, 0.088366f }	},
	{	{ -10.979491f, -11.211684f, 2.770192f },	{ 0.000000f, 0.000000f, 0.000000f },	{ -0.900997f, -0.429310f, 0.062430f }	},
	{	{ -10.855448f, -11.416831f, 2.770192f },	{ 0.000000f, 0.000000f, 0.000000f },	{ -0.797361f, -0.600316f, 0.061941f }	},
	{	{ -10.852081f, -11.397392f, 3.030192f },	{ 0.000000f, 0.000000f, 0.000000f },	{ -0.798956f, -0.595802f, 0.081785f }	},
	{	{ -10.967754f, -11.206091f, 3.030192f },	{ 0.000000f, 0.000000f, 0.000000f },	{ -0.899955f, -0.428871f, 0.078425f }	},
	{	{ -10.700486f, -11.587623f, 2.770192f },	{ 0.000000f, 0.000000f, 0.000000f },	{ -0.648833f, -0.759079f, 0.053057f }	},
	{	{ -10.526525f, -11.710119f, 2.770192f },	{ 0.000000f, 0.000000f, 0.000000f },	{ -0.476519f, -0.878652f, 0.029995f }	},
	{	{ -10.527933f, -11.688692f, 3.030192f },	{ 0.000000f, 0.000000f, 0.000000f },	{ -0.500075f, -0.861441f, 0.088568f }	},
	{	{ -10.703221f, -11.561110f, 3.030192f },	{ 0.000000f, 0.000000f, 0.000000f },	{ -0.664136f, -0.742371f, 0.088366f }	},
	{	{ -10.333470f, -11.791942f, 2.770192f },	{ 0.000000f, 0.000000f, 0.000000f },	{ -0.310033f, -0.950683f, 0.008961f }	},
	{	{ -10.121222f, -11.840713f, 2.770192f },	{ 0.000000f, 0.000000f, 0.000000f },	{ -0.136330f, -0.990663f, 0.000195f }	},
	{	{ -10.119687f, -11.830147f, 3.030192f },	{ 0.000000f, 0.000000f, 0.000000f },	{ -0.140519f, -0.987287f, 0.074284f }	},
	{	{ -10.331619f, -11.778813f, 3.030192f },	{ 0.000000f, 0.000000f, 0.000000f },	{ -0.323467f, -0.942789f, 0.080739f }	},
	{	{ -9.900516f, -11.851120f, 2.770192f },	{ 0.000000f, 0.000000f, 0.000000f },	{ 0.052158f, -0.998636f, -0.002374f }	},
	{	{ -9.682082f, -11.817852f, 2.770192f },	{ 0.000000f, 0.000000f, 0.000000f },	{ 0.245856f, -0.969303f, -0.002589f }	},
	{	{ -9.684707f, -11.807503f, 3.030192f },	{ 0.000000f, 0.000000f, 0.000000f },	{ 0.245164f, -0.966751f, 0.072714f }	},
	{	{ -9.901071f, -11.840456f, 3.030192f },	{ 0.000000f, 0.000000f, 0.000000f },	{ 0.051850f, -0.996003f, 0.072728f }	},
	{	{ -9.474193f, -11.743006f, 2.770192f },	{ 0.000000f, 0.000000f, 0.000000f },	{ 0.430195f, -0.902732f, -0.002633f }	},
	{	{ -9.478786f, -11.733366f, 3.030192f },	{ 0.000000f, 0.000000f, 0.000000f },	{ 0.429057f, -0.900345f, 0.072728f }	},
	{	{ -9.285117f, -11.628679f, 2.770192f },	{ 0.000000f, 0.000000f, 0.000000f },	{ 0.598008f, -0.801486f, -0.002589f }	},
	{	{ -9.291502f, -11.620123f, 3.030192f },	{ 0.000000f, 0.000000f, 0.000000f },	{ 0.596462f, -0.799341f, 0.072714f }	},
	{	{ -10.426583f, -9.744481f, 2.369303f },	{ 0.000000f, 0.000000f, 0.000000f },	{ -0.420403f, 0.882186f, -0.212153f }	},
	{	{ -10.608852f, -9.854692f, 2.369303f },	{ 0.000000f, 0.000000f, 0.000000f },	{ -0.581946f, 0.785412f, -0.210871f }	},
	{	{ -10.627049f, -9.830304f, 2.551303f },	{ 0.000000f, 0.000000f, 0.000000f },	{ -0.594072f, 0.797505f, -0.105188f }	},
	{	{ -10.439676f, -9.717007f, 2.551303f },	{ 0.000000f, 0.000000f, 0.000000f },	{ -0.427781f, 0.897668f, -0.105808f }	},
	{	{ -10.766392f, -9.998043f, 2.362640f },	{ 0.000000f, 0.000000f, 0.000000f },	{ -0.718460f, 0.664609f, -0.205210f }	},
	{	{ -10.892610f, -10.169616f, 2.342649f },	{ 0.000000f, 0.000000f, 0.000000f },	{ -0.827971f, 0.525049f, -0.196946f }	},
	{	{ -10.918756f, -10.154049f, 2.544640f },	{ 0.000000f, 0.000000f, 0.000000f },	{ -0.847610f, 0.521650f, -0.097147f }	},
	{	{ -10.789001f, -9.977671f, 2.549638f },	{ 0.000000f, 0.000000f, 0.000000f },	{ -0.736895f, 0.668209f, -0.102382f }	},
	{	{ -10.983160f, -10.355626f, 2.317734f },	{ 0.000000f, 0.000000f, 0.000000f },	{ -0.909617f, 0.365051f, -0.198328f }	},
	{	{ -11.033696f, -10.542290f, 2.296299f },	{ 0.000000f, 0.000000f, 0.000000f },	{ -0.950813f, 0.222060f, -0.215971f }	},
	{	{ -11.072877f, -10.536308f, 2.533052f },	{ 0.000000f, 0.000000f, 0.000000f },	{ -0.972100f, 0.219602f, -0.082440f }	},
	{	{ -11.014112f, -10.345056f, 2.538411f },	{ 0.000000f, 0.000000f, 0.000000f },	{ -0.925423f, 0.367131f, -0.093841f }	},
	{	{ -11.127703f, -10.821041f, 2.447185f },	{ 0.000000f, 0.000000f, 0.000000f },	{ -0.736538f, 0.540462f, 0.406710f }	},
	{	{ -11.105476f, -11.002669f, 2.504210f },	{ 0.000000f, 0.000000f, 0.000000f },	{ -0.328731f, 0.073169f, 0.941585f }	},
	{	{ -11.076473f, -10.982091f, 2.585030f },	{ 0.000000f, 0.000000f, 0.000000f },	{ -0.954474f, -0.207687f, 0.214115f }	},
	{	{ -11.108619f, -10.738794f, 2.527162f },	{ 0.000000f, 0.000000f, 0.000000f },	{ -0.995538f, 0.092235f, 0.019937f }	},
	{	{ -11.060946f, -10.690347f, 2.281405f },	{ 0.000000f, 0.000000f, 0.000000f },	{ -0.947774f, 0.211124f, -0.239063f }	},
	{	{ -11.081641f, -10.760536f, 2.276112f },	{ 0.000000f, 0.000000f, 0.000000f },	{ -0.845163f, 0.481318f, -0.232448f }	},
	{	{ -11.024187f, -11.235200f, 2.504210f },	{ 0.000000f, 0.000000f, 0.000000f },	{ -0.230018f, -0.109876f, 0.966964f }	},
	{	{ -10.893060f, -11.448412f, 2.504210f },	{ 0.000000f, 0.000000f, 0.000000f },	{ -0.142350f, -0.292506f, 0.945609f }	},
	{	{ -10.861390f, -11.433428f, 2.585030f },	{ 0.000000f, 0.000000f, 0.000000f },	{ -0.760196f, -0.609761f, 0.224264f }	},
	{	{ -10.992064f, -11.218229f, 2.585030f },	{ 0.000000f, 0.000000f, 0.000000f },	{ -0.876041f, -0.417090f, 0.242052f }	},
	{	{ -10.625010f, -11.605127f, 2.281405f },	{ 0.000000f, 0.000000f, 0.000000f },	{ -0.408779f, -0.880578f, -0.239753f }	},
	{	{ -10.493711f, -11.675411f, 2.296299f },	{ 0.000000f, 0.000000f, 0.000000f },	{ -0.423968f, -0.879462f, -0.216329f }	},
	{	{ -10.513742f, -11.709611f, 2.533052f },	{ 0.000000f, 0.000000f, 0.000000f },	{ -0.439757f, -0.894398f, -0.081644f }	},
	{	{ -10.692701f, -11.611567f, 2.527162f },	{ 0.000000f, 0.000000f, 0.000000f },	{ -0.541093f, -0.840405f, 0.030632f }	},
	{	{ -10.764266f, -11.583688f, 2.447185f },	{ 0.000000f, 0.000000f, 0.000000f },	{ 0.033729f, -0.900972f, 0.432564f }	},
	{	{ -10.316896f, -11.753733f, 2.317734f },	{ 0.000000f, 0.000000f, 0.000000f },	{ -0.289397f, -0.936438f, -0.198328f }	},
	{	{ -10.115387f, -11.800562f, 2.342649f },	{ 0.000000f, 0.000000f, 0.000000f },	{ -0.113699f, -0.973799f, -0.196946f }	},
	{	{ -10.119763f, -11.830675f, 2.544640f },	{ 0.000000f, 0.000000f, 0.000000f },	{ -0.128709f, -0.986913f, -0.097147f }	},
	{	{ -10.328182f, -11.784431f, 2.538411f },	{ 0.000000f, 0.000000f, 0.000000f },	{ -0.297736f, -0.950025f, -0.093841f }	},
	{	{ -9.902625f, -11.810595f, 2.362640f },	{ 0.000000f, 0.000000f, 0.000000f },	{ 0.063675f, -0.976645f, -0.205210f }	},
	{	{ -9.692055f, -11.778524f, 2.369303f },	{ 0.000000f, 0.000000f, 0.000000f },	{ 0.243488f, -0.946703f, -0.210871f }	},
	{	{ -9.684575f, -11.808020f, 2.551303f },	{ 0.000000f, 0.000000f, 0.000000f },	{ 0.245243f, -0.963738f, -0.105188f }	},
	{	{ -9.901043f, -11.840988f, 2.549638f },	{ 0.000000f, 0.000000f, 0.000000f },	{ 0.054860f, -0.993231f, -0.102382f }	},
	{	{ -9.491650f, -11.706373f, 2.369303f },	{ 0.000000f, 0.000000f, 0.000000f },	{ 0.420403f, -0.882186f, -0.212153f }	},
	{	{ -9.478557f, -11.733848f, 2.551303f },	{ 0.000000f, 0.000000f, 0.000000f },	{ 0.427781f, -0.897668f, -0.105808f }	},
	{	{ -9.309381f, -11.596162f, 2.369303f },	{ 0.000000f, 0.000000f, 0.000000f },	{ 0.581946f, -0.785412f, -0.210871f }	},
	{	{ -9.291183f, -11.620550f, 2.551303f },	{ 0.000000f, 0.000000f, 0.000000f },	{ 0.594072f, -0.797505f, -0.105188f }	},
	{	{ -10.388426f, -9.824553f, 2.062637f },	{ 0.000000f, 0.000000f, 0.000000f },	{ -0.404401f, 0.848607f, -0.341066f }	},
	{	{ -10.555817f, -9.925767f, 2.062637f },	{ 0.000000f, 0.000000f, 0.000000f },	{ -0.557459f, 0.755983f, -0.343117f }	},
	{	{ -10.583461f, -9.888720f, 2.210859f },	{ 0.000000f, 0.000000f, 0.000000f },	{ -0.569862f, 0.773169f, -0.278329f }	},
	{	{ -10.408316f, -9.782816f, 2.210859f },	{ 0.000000f, 0.000000f, 0.000000f },	{ -0.413191f, 0.867051f, -0.278381f }	},
	{	{ -10.700497f, -10.057417f, 2.055973f },	{ 0.000000f, 0.000000f, 0.000000f },	{ -0.679500f, 0.642116f, -0.354918f }	},
	{	{ -10.816412f, -10.214985f, 2.035982f },	{ 0.000000f, 0.000000f, 0.000000f },	{ -0.771240f, 0.509176f, -0.382006f }	},
	{	{ -10.856130f, -10.191337f, 2.170877f },	{ 0.000000f, 0.000000f, 0.000000f },	{ -0.801672f, 0.526049f, -0.283893f }	},
	{	{ -10.734844f, -10.026468f, 2.200863f },	{ 0.000000f, 0.000000f, 0.000000f },	{ -0.697911f, 0.659526f, -0.279188f }	},
	{	{ -10.896658f, -10.386960f, 2.007868f },	{ 0.000000f, 0.000000f, 0.000000f },	{ -0.839179f, 0.350157f, -0.416136f }	},
	{	{ -10.934331f, -10.561831f, 1.976836f },	{ 0.000000f, 0.000000f, 0.000000f },	{ -0.873716f, 0.176528f, -0.453275f }	},
	{	{ -10.981581f, -10.554064f, 2.098153f },	{ 0.000000f, 0.000000f, 0.000000f },	{ -0.923095f, 0.196191f, -0.330765f }	},
	{	{ -10.940611f, -10.371232f, 2.132704f },	{ 0.000000f, 0.000000f, 0.000000f },	{ -0.884256f, 0.360697f, -0.296628f }	},
	{	{ -10.931754f, -10.744463f, 1.941902f },	{ 0.000000f, 0.000000f, 0.000000f },	{ -0.856912f, 0.020142f, -0.515069f }	},
	{	{ -10.891250f, -10.939722f, 1.902080f },	{ 0.000000f, 0.000000f, 0.000000f },	{ -0.770277f, -0.121279f, -0.626070f }	},
	{	{ -10.924335f, -10.951318f, 1.941947f },	{ 0.000000f, 0.000000f, 0.000000f },	{ -0.775560f, -0.073402f, -0.626991f }	},
	{	{ -10.987169f, -10.746729f, 2.047117f },	{ 0.000000f, 0.000000f, 0.000000f },	{ -0.899956f, 0.087608f, -0.427088f }	},
	{	{ -11.007775f, -10.811737f, 2.085500f },	{ 0.000000f, 0.000000f, 0.000000f },	{ -0.849667f, 0.198146f, -0.488675f }	},
	{	{ -10.816873f, -11.134189f, 1.880947f },	{ 0.000000f, 0.000000f, 0.000000f },	{ -0.648732f, -0.309152f, -0.695393f }	},
	{	{ -10.712676f, -11.314445f, 1.902080f },	{ 0.000000f, 0.000000f, 0.000000f },	{ -0.579300f, -0.521816f, -0.626194f }	},
	{	{ -10.742522f, -11.332838f, 1.941947f },	{ 0.000000f, 0.000000f, 0.000000f },	{ -0.544434f, -0.555637f, -0.628379f }	},
	{	{ -10.848500f, -11.149261f, 1.908788f },	{ 0.000000f, 0.000000f, 0.000000f },	{ -0.618881f, -0.294926f, -0.728015f }	},
	{	{ -10.767345f, -11.341361f, 1.969860f },	{ 0.000000f, 0.000000f, 0.000000f },	{ -0.494207f, -0.580109f, -0.647483f }	},
	{	{ -10.874356f, -11.161582f, 1.930783f },	{ 0.000000f, 0.000000f, 0.000000f },	{ -0.612728f, -0.291994f, -0.734374f }	},
	{	{ -10.586530f, -11.468891f, 1.941902f },	{ 0.000000f, 0.000000f, 0.000000f },	{ -0.523881f, -0.678212f, -0.515341f }	},
	{	{ -10.446301f, -11.585926f, 1.976836f },	{ 0.000000f, 0.000000f, 0.000000f },	{ -0.413049f, -0.789819f, -0.453405f }	},
	{	{ -10.470030f, -11.627517f, 2.098153f },	{ 0.000000f, 0.000000f, 0.000000f },	{ -0.427853f, -0.840875f, -0.331468f }	},
	{	{ -10.623056f, -11.510794f, 2.047117f },	{ 0.000000f, 0.000000f, 0.000000f },	{ -0.491784f, -0.756128f, -0.431762f }	},
	{	{ -10.286749f, -11.666810f, 2.007868f },	{ 0.000000f, 0.000000f, 0.000000f },	{ -0.256599f, -0.872346f, -0.416136f }	},
	{	{ -10.102631f, -11.712803f, 2.035982f },	{ 0.000000f, 0.000000f, 0.000000f },	{ -0.090295f, -0.919738f, -0.382006f }	},
	{	{ -10.109280f, -11.758547f, 2.170877f },	{ 0.000000f, 0.000000f, 0.000000f },	{ -0.096357f, -0.954002f, -0.283893f }	},
	{	{ -10.302217f, -11.710855f, 2.132704f },	{ 0.000000f, 0.000000f, 0.000000f },	{ -0.276805f, -0.913997f, -0.296628f }	},
	{	{ -9.907236f, -11.722016f, 2.055973f },	{ 0.000000f, 0.000000f, 0.000000f },	{ 0.070744f, -0.932217f, -0.354918f }	},
	{	{ -9.713855f, -11.692564f, 2.062637f },	{ 0.000000f, 0.000000f, 0.000000f },	{ 0.236054f, -0.909147f, -0.343117f }	},
	{	{ -9.702492f, -11.737370f, 2.210859f },	{ 0.000000f, 0.000000f, 0.000000f },	{ 0.241591f, -0.929606f, -0.278329f }	},
	{	{ -9.904833f, -11.768188f, 2.200863f },	{ 0.000000f, 0.000000f, 0.000000f },	{ 0.072670f, -0.957483f, -0.279188f }	},
	{	{ -9.529807f, -11.626302f, 2.062637f },	{ 0.000000f, 0.000000f, 0.000000f },	{ 0.404401f, -0.848607f, -0.341066f }	},
	{	{ -9.509917f, -11.668038f, 2.210859f },	{ 0.000000f, 0.000000f, 0.000000f },	{ 0.413191f, -0.867051f, -0.278381f }	},
	{	{ -9.362417f, -11.525087f, 2.062637f },	{ 0.000000f, 0.000000f, 0.000000f },	{ 0.557459f, -0.755983f, -0.343117f }	},
	{	{ -9.334772f, -11.562135f, 2.210859f },	{ 0.000000f, 0.000000f, 0.000000f },	{ 0.569862f, -0.773169f, -0.278329f }	},
	{	{ -10.330542f, -9.946017f, 1.793303f },	{ 0.000000f, 0.000000f, 0.000000f },	{ -0.364319f, 0.764497f, -0.531805f }	},
	{	{ -10.475363f, -10.033586f, 1.793303f },	{ 0.000000f, 0.000000f, 0.000000f },	{ -0.505771f, 0.678861f, -0.532300f }	},
	{	{ -10.521317f, -9.972001f, 1.923748f },	{ 0.000000f, 0.000000f, 0.000000f },	{ -0.532221f, 0.717972f, -0.448617f }	},
	{	{ -10.363605f, -9.876638f, 1.923748f },	{ 0.000000f, 0.000000f, 0.000000f },	{ -0.384885f, 0.807654f, -0.446719f }	},
	{	{ -10.600536f, -10.147485f, 1.793303f },	{ 0.000000f, 0.000000f, 0.000000f },	{ -0.625753f, 0.567290f, -0.535365f }	},
	{	{ -10.700823f, -10.283808f, 1.793303f },	{ 0.000000f, 0.000000f, 0.000000f },	{ -0.716393f, 0.437632f, -0.543377f }	},
	{	{ -10.766846f, -10.244497f, 1.917084f },	{ 0.000000f, 0.000000f, 0.000000f },	{ -0.737687f, 0.470419f, -0.484277f }	},
	{	{ -10.657632f, -10.096039f, 1.922082f },	{ 0.000000f, 0.000000f, 0.000000f },	{ -0.651923f, 0.603281f, -0.459399f }	},
	{	{ -10.771708f, -10.434284f, 1.790105f },	{ 0.000000f, 0.000000f, 0.000000f },	{ -0.774594f, 0.297601f, -0.558066f }	},
	{	{ -10.808680f, -10.590644f, 1.780508f },	{ 0.000000f, 0.000000f, 0.000000f },	{ -0.806732f, 0.141710f, -0.573674f }	},
	{	{ -10.880510f, -10.571916f, 1.886303f },	{ 0.000000f, 0.000000f, 0.000000f },	{ -0.822744f, 0.160351f, -0.545326f }	},
	{	{ -10.843094f, -10.406685f, 1.906057f },	{ 0.000000f, 0.000000f, 0.000000f },	{ -0.792188f, 0.324170f, -0.517061f }	},
	{	{ -10.812121f, -10.753341f, 1.769397f },	{ 0.000000f, 0.000000f, 0.000000f },	{ -0.812334f, -0.025943f, -0.582616f }	},
	{	{ -10.782419f, -10.922832f, 1.761659f },	{ 0.000000f, 0.000000f, 0.000000f },	{ -0.786591f, -0.189186f, -0.587779f }	},
	{	{ -10.844792f, -10.930281f, 1.844053f },	{ 0.000000f, 0.000000f, 0.000000f },	{ -0.772196f, -0.162945f, -0.614135f }	},
	{	{ -10.880582f, -10.744883f, 1.863682f },	{ 0.000000f, 0.000000f, 0.000000f },	{ -0.819310f, -0.006589f, -0.573312f }	},
	{	{ -10.721429f, -11.088705f, 1.758632f },	{ 0.000000f, 0.000000f, 0.000000f },	{ -0.728253f, -0.347047f, -0.590937f }	},
	{	{ -10.631009f, -11.240554f, 1.761659f },	{ 0.000000f, 0.000000f, 0.000000f },	{ -0.642386f, -0.491789f, -0.587779f }	},
	{	{ -10.676082f, -11.284307f, 1.844053f },	{ 0.000000f, 0.000000f, 0.000000f },	{ -0.612938f, -0.497137f, -0.614135f }	},
	{	{ -10.775755f, -11.114594f, 1.834986f },	{ 0.000000f, 0.000000f, 0.000000f },	{ -0.694436f, -0.330932f, -0.638939f }	},
	{	{ -10.518074f, -11.370380f, 1.769397f },	{ 0.000000f, 0.000000f, 0.000000f },	{ -0.531809f, -0.614604f, -0.582616f }	},
	{	{ -10.389538f, -11.470183f, 1.780508f },	{ 0.000000f, 0.000000f, 0.000000f },	{ -0.398064f, -0.715852f, -0.573674f }	},
	{	{ -10.420235f, -11.537771f, 1.886303f },	{ 0.000000f, 0.000000f, 0.000000f },	{ -0.393670f, -0.740029f, -0.545326f }	},
	{	{ -10.554624f, -11.428881f, 1.863682f },	{ 0.000000f, 0.000000f, 0.000000f },	{ -0.521171f, -0.632213f, -0.573312f }	},
	{	{ -10.244805f, -11.539953f, 1.790105f },	{ 0.000000f, 0.000000f, 0.000000f },	{ -0.256739f, -0.789080f, -0.558066f }	},
	{	{ -10.083281f, -11.579675f, 1.793303f },	{ 0.000000f, 0.000000f, 0.000000f },	{ -0.111318f, -0.832076f, -0.543377f }	},
	{	{ -10.094334f, -11.655716f, 1.917084f },	{ 0.000000f, 0.000000f, 0.000000f },	{ -0.099264f, -0.869265f, -0.484277f }	},
	{	{ -10.268332f, -11.612782f, 1.906057f },	{ 0.000000f, 0.000000f, 0.000000f },	{ -0.247185f, -0.819480f, -0.517061f }	},
	{	{ -9.914231f, -11.587646f, 1.793303f },	{ 0.000000f, 0.000000f, 0.000000f },	{ 0.046479f, -0.843341f, -0.535365f }	},
	{	{ -9.746923f, -11.562164f, 1.793303f },	{ 0.000000f, 0.000000f, 0.000000f },	{ 0.208709f, -0.820425f, -0.532300f }	},
	{	{ -9.728035f, -11.636647f, 1.923748f },	{ 0.000000f, 0.000000f, 0.000000f },	{ 0.222427f, -0.865603f, -0.448617f }	},
	{	{ -9.910235f, -11.664397f, 1.922082f },	{ 0.000000f, 0.000000f, 0.000000f },	{ 0.057950f, -0.886338f, -0.459399f }	},
	{	{ -9.587691f, -11.504837f, 1.793303f },	{ 0.000000f, 0.000000f, 0.000000f },	{ 0.364319f, -0.764497f, -0.531805f }	},
	{	{ -9.554628f, -11.574216f, 1.923748f },	{ 0.000000f, 0.000000f, 0.000000f },	{ 0.384885f, -0.807654f, -0.446719f }	},
	{	{ -9.442870f, -11.417269f, 1.793303f },	{ 0.000000f, 0.000000f, 0.000000f },	{ 0.505771f, -0.678861f, -0.532300f }	},
	{	{ -9.396916f, -11.478853f, 1.923748f },	{ 0.000000f, 0.000000f, 0.000000f },	{ 0.532221f, -0.717972f, -0.448617f }	},
	{	{ -10.263856f, -10.085954f, 1.555020f },	{ 0.000000f, 0.000000f, 0.000000f },	{ -0.370439f, 0.777340f, -0.508446f }	},
	{	{ -10.382676f, -10.157800f, 1.555020f },	{ 0.000000f, 0.000000f, 0.000000f },	{ -0.514998f, 0.690168f, -0.508375f }	},
	{	{ -10.426351f, -10.099269f, 1.670622f },	{ 0.000000f, 0.000000f, 0.000000f },	{ -0.501489f, 0.672064f, -0.544830f }	},
	{	{ -10.295279f, -10.020015f, 1.670622f },	{ 0.000000f, 0.000000f, 0.000000f },	{ -0.360719f, 0.756944f, -0.544902f }	},
	{	{ -10.485374f, -10.251249f, 1.555020f },	{ 0.000000f, 0.000000f, 0.000000f },	{ -0.639716f, 0.576407f, -0.508446f }	},
	{	{ -10.567656f, -10.363096f, 1.555020f },	{ 0.000000f, 0.000000f, 0.000000f },	{ -0.739538f, 0.440794f, -0.508709f }	},
	{	{ -10.630404f, -10.325735f, 1.670622f },	{ 0.000000f, 0.000000f, 0.000000f },	{ -0.718649f, 0.430530f, -0.546066f }	},
	{	{ -10.539639f, -10.202355f, 1.670622f },	{ 0.000000f, 0.000000f, 0.000000f },	{ -0.622931f, 0.561283f, -0.544902f }	},
	{	{ -10.626776f, -10.488734f, 1.555020f },	{ 0.000000f, 0.000000f, 0.000000f },	{ -0.810273f, 0.288603f, -0.510064f }	},
	{	{ -10.659991f, -10.623555f, 1.555020f },	{ 0.000000f, 0.000000f, 0.000000f },	{ -0.850144f, 0.124977f, -0.511504f }	},
	{	{ -10.731091f, -10.610396f, 1.667423f },	{ 0.000000f, 0.000000f, 0.000000f },	{ -0.820077f, 0.127994f, -0.557755f }	},
	{	{ -10.695328f, -10.463664f, 1.669822f },	{ 0.000000f, 0.000000f, 0.000000f },	{ -0.783866f, 0.285845f, -0.551222f }	},
	{	{ -10.666532f, -10.762254f, 1.555020f },	{ 0.000000f, 0.000000f, 0.000000f },	{ -0.858059f, -0.043976f, -0.511665f }	},
	{	{ -10.645625f, -10.899523f, 1.555020f },	{ 0.000000f, 0.000000f, 0.000000f },	{ -0.833458f, -0.211053f, -0.510690f }	},
	{	{ -10.713056f, -10.913777f, 1.662710f },	{ 0.000000f, 0.000000f, 0.000000f },	{ -0.805888f, -0.202129f, -0.556497f }	},
	{	{ -10.737173f, -10.761808f, 1.664645f },	{ 0.000000f, 0.000000f, 0.000000f },	{ -0.828095f, -0.038279f, -0.559279f }	},
	{	{ -10.598590f, -11.030167f, 1.555020f },	{ 0.000000f, 0.000000f, 0.000000f },	{ -0.776335f, -0.369960f, -0.510327f }	},
	{	{ -10.526744f, -11.148987f, 1.555020f },	{ 0.000000f, 0.000000f, 0.000000f },	{ -0.688890f, -0.514418f, -0.510690f }	},
	{	{ -10.580287f, -11.192381f, 1.662710f },	{ 0.000000f, 0.000000f, 0.000000f },	{ -0.664594f, -0.498624f, -0.556497f }	},
	{	{ -10.660254f, -11.059552f, 1.661954f },	{ 0.000000f, 0.000000f, 0.000000f },	{ -0.750840f, -0.357810f, -0.555168f }	},
	{	{ -10.433294f, -11.251685f, 1.555020f },	{ 0.000000f, 0.000000f, 0.000000f },	{ -0.574615f, -0.638761f, -0.511665f }	},
	{	{ -10.321447f, -11.333966f, 1.555020f },	{ 0.000000f, 0.000000f, 0.000000f },	{ -0.438404f, -0.739031f, -0.511504f }	},
	{	{ -10.356009f, -11.397478f, 1.667423f },	{ 0.000000f, 0.000000f, 0.000000f },	{ -0.417122f, -0.717578f, -0.557755f }	},
	{	{ -10.477443f, -11.306833f, 1.664645f },	{ 0.000000f, 0.000000f, 0.000000f },	{ -0.551318f, -0.619076f, -0.559279f }	},
	{	{ -10.195809f, -11.393086f, 1.555020f },	{ 0.000000f, 0.000000f, 0.000000f },	{ -0.286201f, -0.811125f, -0.510064f }	},
	{	{ -10.060988f, -11.426302f, 1.555020f },	{ 0.000000f, 0.000000f, 0.000000f },	{ -0.123440f, -0.852043f, -0.508709f }	},
	{	{ -10.071493f, -11.498572f, 1.670622f },	{ 0.000000f, 0.000000f, 0.000000f },	{ -0.118255f, -0.829354f, -0.546066f }	},
	{	{ -10.219516f, -11.462122f, 1.669822f },	{ 0.000000f, 0.000000f, 0.000000f },	{ -0.271711f, -0.788877f, -0.551222f }	},
	{	{ -9.922290f, -11.432842f, 1.555020f },	{ 0.000000f, 0.000000f, 0.000000f },	{ 0.044766f, -0.859929f, -0.508446f }	},
	{	{ -9.785021f, -11.411936f, 1.555020f },	{ 0.000000f, 0.000000f, 0.000000f },	{ 0.211680f, -0.834713f, -0.508375f }	},
	{	{ -9.767069f, -11.482724f, 1.670622f },	{ 0.000000f, 0.000000f, 0.000000f },	{ 0.206127f, -0.812818f, -0.544830f }	},
	{	{ -9.918492f, -11.505787f, 1.670622f },	{ 0.000000f, 0.000000f, 0.000000f },	{ 0.043591f, -0.837366f, -0.544902f }	},
	{	{ -9.654377f, -11.364901f, 1.555020f },	{ 0.000000f, 0.000000f, 0.000000f },	{ 0.370439f, -0.777340f, -0.508446f }	},
	{	{ -9.622954f, -11.430840f, 1.670622f },	{ 0.000000f, 0.000000f, 0.000000f },	{ 0.360719f, -0.756944f, -0.544902f }	},
	{	{ -9.535558f, -11.293055f, 1.555020f },	{ 0.000000f, 0.000000f, 0.000000f },	{ 0.514998f, -0.690168f, -0.508375f }	},
	{	{ -9.491882f, -11.351585f, 1.670622f },	{ 0.000000f, 0.000000f, 0.000000f },	{ 0.501489f, -0.672064f, -0.544830f }	},
	{	{ -10.217199f, -10.183858f, 1.332992f },	{ 0.000000f, 0.000000f, 0.000000f },	{ -0.407017f, 0.854097f, -0.323814f }	},
	{	{ -10.317828f, -10.244704f, 1.332992f },	{ 0.000000f, 0.000000f, 0.000000f },	{ -0.565834f, 0.758295f, -0.323759f }	},
	{	{ -10.345961f, -10.207003f, 1.443483f },	{ 0.000000f, 0.000000f, 0.000000f },	{ -0.537766f, 0.720681f, -0.437523f }	},
	{	{ -10.237440f, -10.141384f, 1.443483f },	{ 0.000000f, 0.000000f, 0.000000f },	{ -0.386822f, 0.811717f, -0.437589f }	},
	{	{ -10.404803f, -10.323847f, 1.332992f },	{ 0.000000f, 0.000000f, 0.000000f },	{ -0.702884f, 0.633324f, -0.323814f }	},
	{	{ -10.474487f, -10.418571f, 1.332992f },	{ 0.000000f, 0.000000f, 0.000000f },	{ -0.812973f, 0.483918f, -0.323880f }	},
	{	{ -10.514907f, -10.394505f, 1.443483f },	{ 0.000000f, 0.000000f, 0.000000f },	{ -0.772624f, 0.460028f, -0.437523f }	},
	{	{ -10.439758f, -10.292352f, 1.443483f },	{ 0.000000f, 0.000000f, 0.000000f },	{ -0.668007f, 0.601899f, -0.437589f }	},
	{	{ -10.524556f, -10.524972f, 1.332992f },	{ 0.000000f, 0.000000f, 0.000000f },	{ -0.891655f, 0.315556f, -0.324615f }	},
	{	{ -10.552687f, -10.639153f, 1.332992f },	{ 0.000000f, 0.000000f, 0.000000f },	{ -0.935642f, 0.135157f, -0.326046f }	},
	{	{ -10.599238f, -10.632386f, 1.443483f },	{ 0.000000f, 0.000000f, 0.000000f },	{ -0.889857f, 0.129340f, -0.437523f }	},
	{	{ -10.568902f, -10.509252f, 1.443483f },	{ 0.000000f, 0.000000f, 0.000000f },	{ -0.847495f, 0.300447f, -0.437589f }	},
	{	{ -10.558225f, -10.756616f, 1.332992f },	{ 0.000000f, 0.000000f, 0.000000f },	{ -0.943473f, -0.049694f, -0.327702f }	},
	{	{ -10.540520f, -10.872869f, 1.332992f },	{ 0.000000f, 0.000000f, 0.000000f },	{ -0.915494f, -0.232314f, -0.328482f }	},
	{	{ -10.586118f, -10.884432f, 1.443483f },	{ 0.000000f, 0.000000f, 0.000000f },	{ -0.871617f, -0.221039f, -0.437523f }	},
	{	{ -10.605211f, -10.759062f, 1.443483f },	{ 0.000000f, 0.000000f, 0.000000f },	{ -0.897959f, -0.046746f, -0.437589f }	},
	{	{ -10.500686f, -10.983510f, 1.332992f },	{ 0.000000f, 0.000000f, 0.000000f },	{ -0.852586f, -0.406309f, -0.328650f }	},
	{	{ -10.439839f, -11.084139f, 1.332992f },	{ 0.000000f, 0.000000f, 0.000000f },	{ -0.757076f, -0.564812f, -0.328364f }	},
	{	{ -10.477541f, -11.112271f, 1.443483f },	{ 0.000000f, 0.000000f, 0.000000f },	{ -0.720681f, -0.537766f, -0.437523f }	},
	{	{ -10.543159f, -11.003751f, 1.443483f },	{ 0.000000f, 0.000000f, 0.000000f },	{ -0.811717f, -0.386822f, -0.437589f }	},
	{	{ -10.360697f, -11.171114f, 1.332992f },	{ 0.000000f, 0.000000f, 0.000000f },	{ -0.632829f, -0.701569f, -0.327610f }	},
	{	{ -10.265974f, -11.240798f, 1.332992f },	{ 0.000000f, 0.000000f, 0.000000f },	{ -0.484334f, -0.811867f, -0.326025f }	},
	{	{ -10.290040f, -11.281218f, 1.443483f },	{ 0.000000f, 0.000000f, 0.000000f },	{ -0.460028f, -0.772624f, -0.437523f }	},
	{	{ -10.392192f, -11.206068f, 1.443483f },	{ 0.000000f, 0.000000f, 0.000000f },	{ -0.601899f, -0.668007f, -0.437589f }	},
	{	{ -10.159572f, -11.290867f, 1.332992f },	{ 0.000000f, 0.000000f, 0.000000f },	{ -0.316527f, -0.891311f, -0.324616f }	},
	{	{ -10.045392f, -11.318997f, 1.332992f },	{ 0.000000f, 0.000000f, 0.000000f },	{ -0.136762f, -0.936356f, -0.323317f }	},
	{	{ -10.052158f, -11.365549f, 1.443483f },	{ 0.000000f, 0.000000f, 0.000000f },	{ -0.129340f, -0.889857f, -0.437523f }	},
	{	{ -10.175292f, -11.335213f, 1.443483f },	{ 0.000000f, 0.000000f, 0.000000f },	{ -0.300447f, -0.847495f, -0.437589f }	},
	{	{ -9.927928f, -11.324535f, 1.332992f },	{ 0.000000f, 0.000000f, 0.000000f },	{ 0.048106f, -0.945401f, -0.322339f }	},
	{	{ -9.811675f, -11.306830f, 1.332992f },	{ 0.000000f, 0.000000f, 0.000000f },	{ 0.229721f, -0.918619f, -0.321508f }	},
	{	{ -9.800112f, -11.352428f, 1.443483f },	{ 0.000000f, 0.000000f, 0.000000f },	{ 0.221039f, -0.871617f, -0.437523f }	},
	{	{ -9.925482f, -11.371522f, 1.443483f },	{ 0.000000f, 0.000000f, 0.000000f },	{ 0.046746f, -0.897959f, -0.437589f }	},
	{	{ -9.701034f, -11.266996f, 1.332992f },	{ 0.000000f, 0.000000f, 0.000000f },	{ 0.407365f, -0.854825f, -0.321447f }	},
	{	{ -9.680793f, -11.309470f, 1.443483f },	{ 0.000000f, 0.000000f, 0.000000f },	{ 0.386822f, -0.811717f, -0.437589f }	},
	{	{ -9.600405f, -11.206150f, 1.332992f },	{ 0.000000f, 0.000000f, 0.000000f },	{ 0.568804f, -0.757030f, -0.321508f }	},
	{	{ -9.572272f, -11.243852f, 1.443483f },	{ 0.000000f, 0.000000f, 0.000000f },	{ 0.537766f, -0.720681f, -0.437523f }	},
	{	{ -10.203257f, -10.213117f, 1.126008f },	{ 0.000000f, 0.000000f, 0.000000f },	{ -0.429922f, 0.902161f, 0.035673f }	},
	{	{ -10.298449f, -10.270676f, 1.126008f },	{ 0.000000f, 0.000000f, 0.000000f },	{ -0.597664f, 0.800953f, 0.035666f }	},
	{	{ -10.301063f, -10.267173f, 1.226262f },	{ 0.000000f, 0.000000f, 0.000000f },	{ -0.591309f, 0.792435f, -0.149667f }	},
	{	{ -10.205137f, -10.209170f, 1.226262f },	{ 0.000000f, 0.000000f, 0.000000f },	{ -0.425349f, 0.892564f, -0.149694f }	},
	{	{ -10.380725f, -10.345542f, 1.126008f },	{ 0.000000f, 0.000000f, 0.000000f },	{ -0.742438f, 0.668964f, 0.035673f }	},
	{	{ -10.446644f, -10.435148f, 1.126008f },	{ 0.000000f, 0.000000f, 0.000000f },	{ -0.860037f, 0.509078f, 0.034301f }	},
	{	{ -10.450399f, -10.432912f, 1.226262f },	{ 0.000000f, 0.000000f, 0.000000f },	{ -0.849872f, 0.505119f, -0.150237f }	},
	{	{ -10.383973f, -10.342616f, 1.226262f },	{ 0.000000f, 0.000000f, 0.000000f },	{ -0.734540f, 0.661848f, -0.149694f }	},
	{	{ -10.493411f, -10.535647f, 1.125917f },	{ 0.000000f, 0.000000f, 0.000000f },	{ -0.945956f, 0.323217f, 0.026416f }	},
	{	{ -10.518232f, -10.643196f, 1.125646f },	{ 0.000000f, 0.000000f, 0.000000f },	{ -0.992035f, 0.125638f, 0.009040f }	},
	{	{ -10.524347f, -10.643030f, 1.226172f },	{ 0.000000f, 0.000000f, 0.000000f },	{ -0.977553f, 0.136493f, -0.160499f }	},
	{	{ -10.497979f, -10.534303f, 1.226240f },	{ 0.000000f, 0.000000f, 0.000000f },	{ -0.932501f, 0.326929f, -0.153490f }	},
	{	{ -10.521688f, -10.753829f, 1.125373f },	{ 0.000000f, 0.000000f, 0.000000f },	{ -0.997860f, -0.064704f, -0.009448f }	},
	{	{ -10.504359f, -10.863582f, 1.125279f },	{ 0.000000f, 0.000000f, 0.000000f },	{ -0.968368f, -0.248812f, -0.018890f }	},
	{	{ -10.512158f, -10.865647f, 1.226080f },	{ 0.000000f, 0.000000f, 0.000000f },	{ -0.954649f, -0.243076f, -0.171930f }	},
	{	{ -10.529181f, -10.754882f, 1.226104f },	{ 0.000000f, 0.000000f, 0.000000f },	{ -0.984235f, -0.055093f, -0.168064f }	},
	{	{ -10.466791f, -10.967988f, 1.125276f },	{ 0.000000f, 0.000000f, 0.000000f },	{ -0.902468f, -0.430285f, -0.020143f }	},
	{	{ -10.409529f, -11.062582f, 1.125278f },	{ 0.000000f, 0.000000f, 0.000000f },	{ -0.802580f, -0.596285f, -0.017588f }	},
	{	{ -10.416286f, -11.066829f, 1.226080f },	{ 0.000000f, 0.000000f, 0.000000f },	{ -0.789971f, -0.588703f, -0.171389f }	},
	{	{ -10.474215f, -10.971053f, 1.226080f },	{ 0.000000f, 0.000000f, 0.000000f },	{ -0.889178f, -0.423806f, -0.172487f }	},
	{	{ -10.335445f, -11.144651f, 1.125372f },	{ 0.000000f, 0.000000f, 0.000000f },	{ -0.677809f, -0.735189f, -0.008450f }	},
	{	{ -10.247419f, -11.211483f, 1.125645f },	{ 0.000000f, 0.000000f, 0.000000f },	{ -0.526891f, -0.849882f, 0.009256f }	},
	{	{ -10.251138f, -11.216342f, 1.226172f },	{ 0.000000f, 0.000000f, 0.000000f },	{ -0.509599f, -0.845328f, -0.160406f }	},
	{	{ -10.341039f, -11.149687f, 1.226104f },	{ 0.000000f, 0.000000f, 0.000000f },	{ -0.662464f, -0.730094f, -0.167642f }	},
	{	{ -10.148248f, -11.259951f, 1.125917f },	{ 0.000000f, 0.000000f, 0.000000f },	{ -0.344803f, -0.938304f, 0.026395f }	},
	{	{ -10.040730f, -11.286929f, 1.126008f },	{ 0.000000f, 0.000000f, 0.000000f },	{ -0.156199f, -0.986976f, 0.038467f }	},
	{	{ -10.041359f, -11.291254f, 1.226262f },	{ 0.000000f, 0.000000f, 0.000000f },	{ -0.146574f, -0.978125f, -0.147609f }	},
	{	{ -10.150079f, -11.264346f, 1.226240f },	{ 0.000000f, 0.000000f, 0.000000f },	{ -0.333427f, -0.930196f, -0.153499f }	},
	{	{ -9.936541f, -11.293926f, 1.126004f },	{ 0.000000f, 0.000000f, 0.000000f },	{ 0.029936f, -0.998395f, 0.048077f }	},
	{	{ -9.847349f, -11.282450f, 1.125992f },	{ 0.000000f, 0.000000f, 0.000000f },	{ 0.211181f, -0.976117f, 0.050963f }	},
	{	{ -9.825494f, -11.281414f, 1.226259f },	{ 0.000000f, 0.000000f, 0.000000f },	{ 0.231016f, -0.963168f, -0.137618f }	},
	{	{ -9.931118f, -11.296973f, 1.226261f },	{ 0.000000f, 0.000000f, 0.000000f },	{ 0.043983f, -0.988820f, -0.142477f }	},
	{	{ -9.659775f, -11.207778f, 1.113853f },	{ 0.000000f, 0.000000f, 0.000000f },	{ 0.513020f, -0.856142f, 0.061895f }	},
	{	{ -9.596871f, -11.163085f, 1.125992f },	{ 0.000000f, 0.000000f, 0.000000f },	{ 0.625141f, -0.778846f, 0.050963f }	},
	{	{ -9.611443f, -11.179408f, 1.226259f },	{ 0.000000f, 0.000000f, 0.000000f },	{ 0.602590f, -0.786096f, -0.137618f }	},
	{	{ -9.713939f, -11.239915f, 1.211507f },	{ 0.000000f, 0.000000f, 0.000000f },	{ 0.427763f, -0.897631f, -0.106193f }	},
	{	{ -9.773016f, -11.261743f, 1.113853f },	{ 0.000000f, 0.000000f, 0.000000f },	{ 0.341839f, -0.937718f, 0.061895f }	},
	{	{ -10.216508f, -10.185310f, 0.923920f },	{ 0.000000f, 0.000000f, 0.000000f },	{ -0.423053f, 0.887745f, 0.181479f }	},
	{	{ -10.316866f, -10.245993f, 0.923920f },	{ 0.000000f, 0.000000f, 0.000000f },	{ -0.588118f, 0.788159f, 0.181446f }	},
	{	{ -10.305285f, -10.261515f, 1.026977f },	{ 0.000000f, 0.000000f, 0.000000f },	{ -0.591300f, 0.792423f, 0.149769f }	},
	{	{ -10.208175f, -10.202797f, 1.026977f },	{ 0.000000f, 0.000000f, 0.000000f },	{ -0.425342f, 0.892550f, 0.149797f }	},
	{	{ -10.403609f, -10.324924f, 0.923920f },	{ 0.000000f, 0.000000f, 0.000000f },	{ -0.730575f, 0.658275f, 0.181479f }	},
	{	{ -10.473105f, -10.419393f, 0.923920f },	{ 0.000000f, 0.000000f, 0.000000f },	{ -0.850840f, 0.494108f, 0.178687f }	},
	{	{ -10.456465f, -10.429300f, 1.026977f },	{ 0.000000f, 0.000000f, 0.000000f },	{ -0.852870f, 0.500870f, 0.147449f }	},
	{	{ -10.389218f, -10.337890f, 1.026977f },	{ 0.000000f, 0.000000f, 0.000000f },	{ -0.734529f, 0.661837f, 0.149797f }	},
	{	{ -10.519959f, -10.524726f, 0.923728f },	{ 0.000000f, 0.000000f, 0.000000f },	{ -0.945184f, 0.283782f, 0.161542f }	},
	{	{ -10.538772f, -10.636247f, 0.923152f },	{ 0.000000f, 0.000000f, 0.000000f },	{ -0.990128f, 0.066130f, 0.123588f }	},
	{	{ -10.525867f, -10.640614f, 1.026333f },	{ 0.000000f, 0.000000f, 0.000000f },	{ -0.989621f, 0.100614f, 0.102607f }	},
	{	{ -10.503267f, -10.531593f, 1.026816f },	{ 0.000000f, 0.000000f, 0.000000f },	{ -0.942642f, 0.305909f, 0.133586f }	},
	{	{ -10.535087f, -10.750908f, 0.922575f },	{ 0.000000f, 0.000000f, 0.000000f },	{ -0.990479f, -0.106226f, 0.087563f }	},
	{	{ -10.514450f, -10.865663f, 0.922380f },	{ 0.000000f, 0.000000f, 0.000000f },	{ -0.962913f, -0.259757f, 0.072975f }	},
	{	{ -10.508124f, -10.864358f, 1.025681f },	{ 0.000000f, 0.000000f, 0.000000f },	{ -0.966116f, -0.252503f, 0.053499f }	},
	{	{ -10.526680f, -10.752742f, 1.025847f },	{ 0.000000f, 0.000000f, 0.000000f },	{ -0.994222f, -0.081405f, 0.069964f }	},
	{	{ -10.475329f, -10.974615f, 0.922369f },	{ 0.000000f, 0.000000f, 0.000000f },	{ -0.900039f, -0.429731f, 0.072536f }	},
	{	{ -10.416194f, -11.071871f, 0.922345f },	{ 0.000000f, 0.000000f, 0.000000f },	{ -0.805658f, -0.587518f, 0.075743f }	},
	{	{ -10.412015f, -11.066047f, 1.025672f },	{ 0.000000f, 0.000000f, 0.000000f },	{ -0.803131f, -0.593185f, 0.055785f }	},
	{	{ -10.469976f, -10.970460f, 1.025675f },	{ 0.000000f, 0.000000f, 0.000000f },	{ -0.901351f, -0.430032f, 0.051376f }	},
	{	{ -10.341319f, -11.157552f, 0.922522f },	{ 0.000000f, 0.000000f, 0.000000f },	{ -0.702673f, -0.705852f, 0.089568f }	},
	{	{ -10.254981f, -11.231784f, 0.923117f },	{ 0.000000f, 0.000000f, 0.000000f },	{ -0.571958f, -0.810656f, 0.125308f }	},
	{	{ -10.250230f, -11.219028f, 1.026323f },	{ 0.000000f, 0.000000f, 0.000000f },	{ -0.544367f, -0.832504f, 0.102964f }	},
	{	{ -10.337634f, -11.149456f, 1.025833f },	{ 0.000000f, 0.000000f, 0.000000f },	{ -0.687259f, -0.722867f, 0.071682f }	},
	{	{ -10.156491f, -11.287442f, 0.923719f },	{ 0.000000f, 0.000000f, 0.000000f },	{ -0.380443f, -0.908818f, 0.171209f }	},
	{	{ -10.045160f, -11.317406f, 0.923920f },	{ 0.000000f, 0.000000f, 0.000000f },	{ -0.181498f, -0.961317f, 0.207191f }	},
	{	{ -10.042375f, -11.298240f, 1.026977f },	{ 0.000000f, 0.000000f, 0.000000f },	{ -0.164537f, -0.974872f, 0.150174f }	},
	{	{ -10.151308f, -11.270156f, 1.026814f },	{ 0.000000f, 0.000000f, 0.000000f },	{ -0.356195f, -0.924819f, 0.133547f }	},
	{	{ -9.942429f, -11.326587f, 0.923916f },	{ 0.000000f, 0.000000f, 0.000000f },	{ -0.003192f, -0.972952f, 0.230986f }	},
	{	{ -9.941282f, -11.306697f, 1.026971f },	{ 0.000000f, 0.000000f, 0.000000f },	{ 0.012854f, -0.987192f, 0.159020f }	},
	{	{ -9.869739f, -11.319900f, 0.923904f },	{ 0.000000f, 0.000000f, 0.000000f },	{ 0.171652f, -0.955759f, 0.238872f }	},
	{	{ -9.865884f, -11.298944f, 1.026954f },	{ 0.000000f, 0.000000f, 0.000000f },	{ 0.183601f, -0.970200f, 0.158121f }	},
	{	{ -9.748142f, -11.267226f, 1.014823f },	{ 0.000000f, 0.000000f, 0.000000f },	{ 0.348527f, -0.918231f, 0.188097f }	},
	{	{ -9.754400f, -11.290650f, 0.923904f },	{ 0.000000f, 0.000000f, 0.000000f },	{ 0.307373f, -0.921092f, 0.238978f }	},
	{	{ -9.699228f, -11.270784f, 0.923912f },	{ 0.000000f, 0.000000f, 0.000000f },	{ 0.417541f, -0.876180f, 0.240766f }	},
	{	{ -9.706374f, -11.255790f, 0.987661f },	{ 0.000000f, 0.000000f, 0.000000f },	{ 0.420466f, -0.882319f, 0.211475f }	},
	{	{ -9.649047f, -11.240444f, 0.923904f },	{ 0.000000f, 0.000000f, 0.000000f },	{ 0.521816f, -0.818900f, 0.238978f }	},
	{	{ -9.671182f, -11.230552f, 1.014823f },	{ 0.000000f, 0.000000f, 0.000000f },	{ 0.493672f, -0.849063f, 0.188097f }	},
	{	{ -10.231404f, -10.154051f, 0.685179f },	{ 0.000000f, 0.000000f, 0.000000f },	{ -0.429520f, 0.901317f, 0.056047f }	},
	{	{ -10.337571f, -10.218246f, 0.685179f },	{ 0.000000f, 0.000000f, 0.000000f },	{ -0.597105f, 0.800203f, 0.056037f }	},
	{	{ -10.329021f, -10.229705f, 0.811699f },	{ 0.000000f, 0.000000f, 0.000000f },	{ -0.591696f, 0.792954f, 0.145330f }	},
	{	{ -10.225252f, -10.166961f, 0.811699f },	{ 0.000000f, 0.000000f, 0.000000f },	{ -0.425627f, 0.893148f, 0.145357f }	},
	{	{ -10.429334f, -10.301744f, 0.685179f },	{ 0.000000f, 0.000000f, 0.000000f },	{ -0.741743f, 0.668338f, 0.056047f }	},
	{	{ -10.502853f, -10.401681f, 0.685179f },	{ 0.000000f, 0.000000f, 0.000000f },	{ -0.867547f, 0.494289f, 0.055146f }	},
	{	{ -10.490568f, -10.408996f, 0.811699f },	{ 0.000000f, 0.000000f, 0.000000f },	{ -0.858335f, 0.492748f, 0.143043f }	},
	{	{ -10.418710f, -10.311316f, 0.811699f },	{ 0.000000f, 0.000000f, 0.000000f },	{ -0.735021f, 0.662281f, 0.145357f }	},
	{	{ -10.549584f, -10.512394f, 0.685318f },	{ 0.000000f, 0.000000f, 0.000000f },	{ -0.966834f, 0.250613f, 0.049240f }	},
	{	{ -10.560983f, -10.628222f, 0.685736f },	{ 0.000000f, 0.000000f, 0.000000f },	{ -0.999147f, 0.017037f, 0.037616f }	},
	{	{ -10.552094f, -10.631611f, 0.811241f },	{ 0.000000f, 0.000000f, 0.000000f },	{ -0.994683f, 0.034141f, 0.097162f }	},
	{	{ -10.537420f, -10.517506f, 0.811585f },	{ 0.000000f, 0.000000f, 0.000000f },	{ -0.956147f, 0.263307f, 0.128269f }	},
	{	{ -10.532932f, -10.858567f, 0.693235f },	{ 0.000000f, 0.000000f, 0.000000f },	{ -0.967220f, -0.252396f, 0.027961f }	},
	{	{ -10.516280f, -10.914781f, 0.717358f },	{ 0.000000f, 0.000000f, 0.000000f },	{ -0.949695f, -0.311508f, 0.032280f }	},
	{	{ -10.518712f, -10.878726f, 0.818548f },	{ 0.000000f, 0.000000f, 0.000000f },	{ -0.958393f, -0.273281f, 0.082466f }	},
	{	{ -10.544698f, -10.761548f, 0.798575f },	{ 0.000000f, 0.000000f, 0.000000f },	{ -0.987849f, -0.137819f, 0.071840f }	},
	{	{ -10.552802f, -10.739191f, 0.672598f },	{ 0.000000f, 0.000000f, 0.000000f },	{ -0.993972f, -0.105824f, 0.028660f }	},
	{	{ -10.540793f, -10.835325f, 0.632072f },	{ 0.000000f, 0.000000f, 0.000000f },	{ -0.973858f, -0.226641f, 0.015309f }	},
	{	{ -10.490107f, -10.984092f, 0.719978f },	{ 0.000000f, 0.000000f, 0.000000f },	{ -0.902356f, -0.429344f, 0.037643f }	},
	{	{ -10.453679f, -11.046627f, 0.716632f },	{ 0.000000f, 0.000000f, 0.000000f },	{ -0.838702f, -0.543414f, 0.035775f }	},
	{	{ -10.428078f, -11.069061f, 0.818323f },	{ 0.000000f, 0.000000f, 0.000000f },	{ -0.812746f, -0.576379f, 0.085039f }	},
	{	{ -10.482243f, -10.979483f, 0.819192f },	{ 0.000000f, 0.000000f, 0.000000f },	{ -0.898840f, -0.429162f, 0.088923f }	},
	{	{ -10.343415f, -11.178883f, 0.672129f },	{ 0.000000f, 0.000000f, 0.000000f },	{ -0.701769f, -0.711825f, 0.028733f }	},
	{	{ -10.262733f, -11.254097f, 0.685701f },	{ 0.000000f, 0.000000f, 0.000000f },	{ -0.631458f, -0.774182f, 0.043621f }	},
	{	{ -10.259780f, -11.245043f, 0.811189f },	{ 0.000000f, 0.000000f, 0.000000f },	{ -0.604469f, -0.790054f, 0.102134f }	},
	{	{ -10.355446f, -11.158869f, 0.798279f },	{ 0.000000f, 0.000000f, 0.000000f },	{ -0.723737f, -0.686161f, 0.073402f }	},
	{	{ -10.421833f, -11.092587f, 0.691902f },	{ 0.000000f, 0.000000f, 0.000000f },	{ -0.800062f, -0.599097f, 0.031367f }	},
	{	{ -10.160249f, -11.329554f, 0.671263f },	{ 0.000000f, 0.000000f, 0.000000f },	{ -0.499943f, -0.861248f, 0.091157f }	},
	{	{ -10.028846f, -11.396994f, 0.628992f },	{ 0.000000f, 0.000000f, 0.000000f },	{ -0.341729f, -0.922219f, 0.180926f }	},
	{	{ -10.042760f, -11.348849f, 0.797652f },	{ 0.000000f, 0.000000f, 0.000000f },	{ -0.230557f, -0.943967f, 0.236158f }	},
	{	{ -10.160553f, -11.308383f, 0.808060f },	{ 0.000000f, 0.000000f, 0.000000f },	{ -0.428980f, -0.888609f, 0.162325f }	},
	{	{ -9.904876f, -11.438846f, 0.586977f },	{ 0.000000f, 0.000000f, 0.000000f },	{ -0.117332f, -0.948184f, 0.295264f }	},
	{	{ -9.932715f, -11.366376f, 0.787148f },	{ 0.000000f, 0.000000f, 0.000000f },	{ -0.029875f, -0.954427f, 0.296947f }	},
	{	{ -9.824692f, -11.437533f, 0.573304f },	{ 0.000000f, 0.000000f, 0.000000f },	{ 0.198008f, -0.907016f, 0.371638f }	},
	{	{ -9.856734f, -11.360901f, 0.783727f },	{ 0.000000f, 0.000000f, 0.000000f },	{ 0.185057f, -0.928934f, 0.320680f }	},
	{	{ -9.739812f, -11.325599f, 0.782779f },	{ 0.000000f, 0.000000f, 0.000000f },	{ 0.340207f, -0.896977f, 0.282297f }	},
	{	{ -9.712017f, -11.386353f, 0.569514f },	{ 0.000000f, 0.000000f, 0.000000f },	{ 0.421554f, -0.839821f, 0.342043f }	},
	{	{ -9.657175f, -11.359031f, 0.567369f },	{ 0.000000f, 0.000000f, 0.000000f },	{ 0.406396f, -0.852793f, 0.328005f }	},
	{	{ -9.683646f, -11.303482f, 0.782245f },	{ 0.000000f, 0.000000f, 0.000000f },	{ 0.414153f, -0.869069f, 0.270547f }	},
	{	{ -9.601411f, -11.333643f, 0.569514f },	{ 0.000000f, 0.000000f, 0.000000f },	{ 0.386773f, -0.856395f, 0.342043f }	},
	{	{ -9.631091f, -11.273787f, 0.782779f },	{ 0.000000f, 0.000000f, 0.000000f },	{ 0.482404f, -0.829213f, 0.282297f }	},
	{	{ -10.221595f, -10.174635f, 0.394104f },	{ 0.000000f, 0.000000f, 0.000000f },	{ -0.418834f, 0.878893f, -0.228310f }	},
	{	{ -10.323937f, -10.236517f, 0.394104f },	{ 0.000000f, 0.000000f, 0.000000f },	{ -0.582255f, 0.780303f, -0.228269f }	},
	{	{ -10.337538f, -10.218291f, 0.545575f },	{ 0.000000f, 0.000000f, 0.000000f },	{ -0.596376f, 0.799226f, -0.074648f }	},
	{	{ -10.231380f, -10.154101f, 0.545575f },	{ 0.000000f, 0.000000f, 0.000000f },	{ -0.428995f, 0.900216f, -0.074662f }	},
	{	{ -10.412395f, -10.317008f, 0.394104f },	{ 0.000000f, 0.000000f, 0.000000f },	{ -0.723290f, 0.651710f, -0.228310f }	},
	{	{ -10.483265f, -10.413344f, 0.394104f },	{ 0.000000f, 0.000000f, 0.000000f },	{ -0.843280f, 0.488042f, -0.225152f }	},
	{	{ -10.502805f, -10.401710f, 0.545575f },	{ 0.000000f, 0.000000f, 0.000000f },	{ -0.866106f, 0.494484f, -0.073111f }	},
	{	{ -10.429292f, -10.301782f, 0.545575f },	{ 0.000000f, 0.000000f, 0.000000f },	{ -0.740838f, 0.667522f, -0.074662f }	},
	{	{ -10.530577f, -10.520643f, 0.394344f },	{ 0.000000f, 0.000000f, 0.000000f },	{ -0.939189f, 0.275095f, -0.205538f }	},
	{	{ -10.548360f, -10.634022f, 0.395066f },	{ 0.000000f, 0.000000f, 0.000000f },	{ -0.984922f, 0.070072f, -0.158175f }	},
	{	{ -10.561162f, -10.628290f, 0.546917f },	{ 0.000000f, 0.000000f, 0.000000f },	{ -0.998736f, 0.026846f, -0.042497f }	},
	{	{ -10.549590f, -10.512428f, 0.545911f },	{ 0.000000f, 0.000000f, 0.000000f },	{ -0.965001f, 0.254486f, -0.063320f }	},
	{	{ -10.547408f, -10.742774f, 0.411336f },	{ 0.000000f, 0.000000f, 0.000000f },	{ -0.992489f, -0.068299f, -0.101492f }	},
	{	{ -10.553344f, -10.738477f, 0.548050f },	{ 0.000000f, 0.000000f, 0.000000f },	{ -0.995724f, -0.089498f, -0.022884f }	},
	{	{ -10.538517f, -10.836195f, 0.458221f },	{ 0.000000f, 0.000000f, 0.000000f },	{ -0.972729f, -0.226114f, -0.051683f }	},
	{	{ -10.541958f, -10.832166f, 0.548767f },	{ 0.000000f, 0.000000f, 0.000000f },	{ -0.976087f, -0.216888f, -0.014605f }	},
	{	{ -10.431454f, -10.942641f, 0.554387f },	{ 0.000000f, 0.000000f, 0.000000f },	{ -0.766201f, -0.638723f, -0.070489f }	},
	{	{ -10.430009f, -10.943315f, 0.540020f },	{ 0.000000f, 0.000000f, 0.000000f },	{ -0.732400f, -0.645898f, 0.215420f }	},
	{	{ -10.424471f, -10.955312f, 0.538972f },	{ 0.000000f, 0.000000f, 0.000000f },	{ -0.891707f, -0.407931f, 0.196091f }	},
	{	{ -10.425340f, -10.956062f, 0.554231f },	{ 0.000000f, 0.000000f, 0.000000f },	{ -0.907969f, -0.412801f, -0.072027f }	},
	{	{ -10.419162f, -10.967161f, 0.539958f },	{ 0.000000f, 0.000000f, 0.000000f },	{ -0.965962f, -0.124727f, 0.226631f }	},
	{	{ -10.419406f, -10.969143f, 0.554396f },	{ 0.000000f, 0.000000f, 0.000000f },	{ -0.986846f, -0.148123f, -0.064773f }	},
	{	{ -10.342912f, -11.172172f, 0.410919f },	{ 0.000000f, 0.000000f, 0.000000f },	{ -0.672757f, -0.732593f, -0.103468f }	},
	{	{ -10.259264f, -11.240669f, 0.395066f },	{ 0.000000f, 0.000000f, 0.000000f },	{ -0.592409f, -0.788221f, -0.166612f }	},
	{	{ -10.262882f, -11.254215f, 0.546908f },	{ 0.000000f, 0.000000f, 0.000000f },	{ -0.634621f, -0.771666f, -0.042292f }	},
	{	{ -10.343258f, -11.179638f, 0.547585f },	{ 0.000000f, 0.000000f, 0.000000f },	{ -0.690205f, -0.723224f, -0.023732f }	},
	{	{ -10.154677f, -11.309602f, 0.380298f },	{ 0.000000f, 0.000000f, 0.000000f },	{ -0.520046f, -0.811512f, -0.266458f }	},
	{	{ -10.025566f, -11.374434f, 0.337917f },	{ 0.000000f, 0.000000f, 0.000000f },	{ -0.511322f, -0.753216f, -0.413782f }	},
	{	{ -10.018190f, -11.419601f, 0.461295f },	{ 0.000000f, 0.000000f, 0.000000f },	{ -0.500116f, -0.863017f, -0.071314f }	},
	{	{ -10.157612f, -11.335208f, 0.524839f },	{ 0.000000f, 0.000000f, 0.000000f },	{ -0.553636f, -0.830269f, -0.064343f }	},
	{	{ -9.896080f, -11.438889f, 0.275060f },	{ 0.000000f, 0.000000f, 0.000000f },	{ -0.622115f, -0.607121f, -0.494345f }	},
	{	{ -9.856353f, -11.516131f, 0.358254f },	{ 0.000000f, 0.000000f, 0.000000f },	{ -0.401688f, -0.914530f, 0.047771f }	},
	{	{ -9.790369f, -11.506696f, 0.198864f },	{ 0.000000f, 0.000000f, 0.000000f },	{ -0.740211f, -0.485038f, -0.465645f }	},
	{	{ -9.753199f, -11.575592f, 0.226419f },	{ 0.000000f, 0.000000f, 0.000000f },	{ -0.539284f, -0.841949f, -0.017148f }	},
	{	{ -9.710550f, -11.585150f, 0.236340f },	{ 0.000000f, 0.000000f, 0.000000f },	{ 0.057125f, -0.873131f, 0.484127f }	},
	{	{ -9.775375f, -11.521662f, 0.366291f },	{ 0.000000f, 0.000000f, 0.000000f },	{ 0.156652f, -0.889634f, 0.428965f }	},
	{	{ -9.672824f, -11.461578f, 0.360740f },	{ 0.000000f, 0.000000f, 0.000000f },	{ 0.455751f, -0.746233f, 0.485208f }	},
	{	{ -9.624041f, -11.539945f, 0.233089f },	{ 0.000000f, 0.000000f, 0.000000f },	{ 0.386668f, -0.655608f, 0.648588f }	},
	{	{ -9.581851f, -11.517092f, 0.230911f },	{ 0.000000f, 0.000000f, 0.000000f },	{ 0.322932f, -0.677650f, 0.660686f }	},
	{	{ -9.622386f, -11.432033f, 0.357514f },	{ 0.000000f, 0.000000f, 0.000000f },	{ 0.376363f, -0.789771f, 0.484369f }	},
	{	{ -9.537527f, -11.498717f, 0.233089f },	{ 0.000000f, 0.000000f, 0.000000f },	{ 0.265667f, -0.713270f, 0.648588f }	},
	{	{ -9.567668f, -11.411467f, 0.360740f },	{ 0.000000f, 0.000000f, 0.000000f },	{ 0.292544f, -0.824009f, 0.485208f }	},
	{	{ -10.173722f, -10.275091f, 0.151749f },	{ 0.000000f, 0.000000f, 0.000000f },	{ -0.324363f, 0.680653f, -0.656887f }	},
	{	{ -10.257399f, -10.325687f, 0.151749f },	{ 0.000000f, 0.000000f, 0.000000f },	{ -0.450956f, 0.604343f, -0.656816f }	},
	{	{ -10.297111f, -10.272469f, 0.254812f },	{ 0.000000f, 0.000000f, 0.000000f },	{ -0.540569f, 0.724436f, -0.427759f }	},
	{	{ -10.202294f, -10.215137f, 0.254812f },	{ 0.000000f, 0.000000f, 0.000000f },	{ -0.388838f, 0.815948f, -0.427824f }	},
	{	{ -10.329722f, -10.391498f, 0.151749f },	{ 0.000000f, 0.000000f, 0.000000f },	{ -0.560147f, 0.504713f, -0.656887f }	},
	{	{ -10.387668f, -10.470263f, 0.151749f },	{ 0.000000f, 0.000000f, 0.000000f },	{ -0.648656f, 0.385275f, -0.656360f }	},
	{	{ -10.444722f, -10.436293f, 0.254812f },	{ 0.000000f, 0.000000f, 0.000000f },	{ -0.779917f, 0.458829f, -0.425683f }	},
	{	{ -10.379064f, -10.347040f, 0.254812f },	{ 0.000000f, 0.000000f, 0.000000f },	{ -0.671489f, 0.605036f, -0.427824f }	},
	{	{ -10.429301f, -10.558742f, 0.151749f },	{ 0.000000f, 0.000000f, 0.000000f },	{ -0.714496f, 0.249474f, -0.653649f }	},
	{	{ -10.452693f, -10.653687f, 0.151749f },	{ 0.000000f, 0.000000f, 0.000000f },	{ -0.754233f, 0.105347f, -0.648101f }	},
	{	{ -10.514796f, -10.643220f, 0.255053f },	{ 0.000000f, 0.000000f, 0.000000f },	{ -0.918469f, 0.108230f, -0.380396f }	},
	{	{ -10.490997f, -10.536321f, 0.254873f },	{ 0.000000f, 0.000000f, 0.000000f },	{ -0.865363f, 0.284091f, -0.412843f }	},
	{	{ -10.457298f, -10.751362f, 0.151749f },	{ 0.000000f, 0.000000f, 0.000000f },	{ -0.761149f, -0.040185f, -0.647331f }	},
	{	{ -10.442575f, -10.848030f, 0.151749f },	{ 0.000000f, 0.000000f, 0.000000f },	{ -0.734104f, -0.185018f, -0.653345f }	},
	{	{ -10.497455f, -10.873543f, 0.245727f },	{ 0.000000f, 0.000000f, 0.000000f },	{ -0.892520f, -0.242676f, -0.380154f }	},
	{	{ -10.525807f, -10.766202f, 0.266079f },	{ 0.000000f, 0.000000f, 0.000000f },	{ -0.945630f, -0.084019f, -0.314205f }	},
	{	{ -10.529135f, -10.858993f, 0.386022f },	{ 0.000000f, 0.000000f, 0.000000f },	{ -0.963798f, -0.253303f, -0.083251f }	},
	{	{ -10.409452f, -10.940033f, 0.151749f },	{ 0.000000f, 0.000000f, 0.000000f },	{ -0.680357f, -0.324012f, -0.657366f }	},
	{	{ -10.358856f, -11.023709f, 0.151749f },	{ 0.000000f, 0.000000f, 0.000000f },	{ -0.605748f, -0.453240f, -0.653944f }	},
	{	{ -10.413058f, -11.050758f, 0.245554f },	{ 0.000000f, 0.000000f, 0.000000f },	{ -0.750158f, -0.538987f, -0.383087f }	},
	{	{ -10.463730f, -10.966168f, 0.244897f },	{ 0.000000f, 0.000000f, 0.000000f },	{ -0.829527f, -0.394336f, -0.395454f }	},
	{	{ -10.451956f, -11.039595f, 0.357070f },	{ 0.000000f, 0.000000f, 0.000000f },	{ -0.839356f, -0.532840f, -0.107528f }	},
	{	{ -10.487197f, -10.978162f, 0.354441f },	{ 0.000000f, 0.000000f, 0.000000f },	{ -0.897908f, -0.425819f, -0.111530f }	},
	{	{ -10.293046f, -11.096033f, 0.151749f },	{ 0.000000f, 0.000000f, 0.000000f },	{ -0.509962f, -0.565758f, -0.647963f }	},
	{	{ -10.214280f, -11.153978f, 0.151749f },	{ 0.000000f, 0.000000f, 0.000000f },	{ -0.395550f, -0.648060f, -0.650813f }	},
	{	{ -10.245267f, -11.208806f, 0.255053f },	{ 0.000000f, 0.000000f, 0.000000f },	{ -0.507862f, -0.768367f, -0.389471f }	},
	{	{ -10.347607f, -11.140280f, 0.265874f },	{ 0.000000f, 0.000000f, 0.000000f },	{ -0.658247f, -0.682721f, -0.317179f }	},
	{	{ -10.409210f, -11.108648f, 0.456553f },	{ 0.000000f, 0.000000f, 0.000000f },	{ -0.782546f, -0.620096f, -0.055706f }	},
	{	{ -10.421159f, -11.086427f, 0.384742f },	{ 0.000000f, 0.000000f, 0.000000f },	{ -0.802022f, -0.590580f, -0.089308f }	},
	{	{ -10.125802f, -11.195612f, 0.151749f },	{ 0.000000f, 0.000000f, 0.000000f },	{ -0.269399f, -0.690952f, -0.670827f }	},
	{	{ -10.030858f, -11.219004f, 0.151749f },	{ 0.000000f, 0.000000f, 0.000000f },	{ -0.159315f, -0.680059f, -0.715639f }	},
	{	{ -10.035085f, -11.296047f, 0.240766f },	{ 0.000000f, 0.000000f, 0.000000f },	{ -0.333702f, -0.712082f, -0.617723f }	},
	{	{ -10.145917f, -11.260487f, 0.251361f },	{ 0.000000f, 0.000000f, 0.000000f },	{ -0.396120f, -0.786607f, -0.473644f }	},
	{	{ -9.805553f, -11.430045f, 0.171577f },	{ 0.000000f, 0.000000f, 0.000000f },	{ -0.623836f, -0.141697f, -0.768603f }	},
	{	{ -9.915704f, -11.327015f, 0.220338f },	{ 0.000000f, 0.000000f, 0.000000f },	{ -0.364291f, -0.453590f, -0.813356f }	},
	{	{ -9.940123f, -11.225369f, 0.151749f },	{ 0.000000f, 0.000000f, 0.000000f },	{ -0.039659f, -0.622723f, -0.781436f }	},
	{	{ -9.864275f, -11.215926f, 0.151749f },	{ 0.000000f, 0.000000f, 0.000000f },	{ 0.111032f, -0.558276f, -0.822192f }	},
	{	{ -9.848162f, -11.302176f, 0.196902f },	{ 0.000000f, 0.000000f, 0.000000f },	{ -0.065782f, -0.149104f, -0.986631f }	},
	{	{ -9.737347f, -11.281144f, 0.209341f },	{ 0.000000f, 0.000000f, 0.000000f },	{ 0.101871f, 0.097030f, -0.990054f }	},
	{	{ -9.728229f, -11.209929f, 0.194224f },	{ 0.000000f, 0.000000f, 0.000000f },	{ 0.183278f, -0.384595f, -0.904708f }	},
	{	{ -9.667171f, -11.247703f, 0.209341f },	{ 0.000000f, 0.000000f, 0.000000f },	{ -0.139529f, -0.018008f, -0.990054f }	},
	{	{ -9.688773f, -11.292723f, 0.203846f },	{ 0.000000f, 0.000000f, 0.000000f },	{ -0.091269f, 0.191522f, -0.977235f }	},
	{	{ -10.092278f, -10.445997f, 0.026184f },	{ 0.000000f, 0.000000f, 0.000000f },	{ -0.166345f, 0.349063f, -0.922217f }	},
	{	{ -10.144198f, -10.477391f, 0.026184f },	{ 0.000000f, 0.000000f, 0.000000f },	{ -0.231284f, 0.309953f, -0.922191f }	},
	{	{ -10.206021f, -10.394540f, 0.077884f },	{ 0.000000f, 0.000000f, 0.000000f },	{ -0.331179f, 0.443825f, -0.832670f }	},
	{	{ -10.136758f, -10.352659f, 0.077884f },	{ 0.000000f, 0.000000f, 0.000000f },	{ -0.238198f, 0.499842f, -0.832718f }	},
	{	{ -10.189075f, -10.518227f, 0.026184f },	{ 0.000000f, 0.000000f, 0.000000f },	{ -0.287263f, 0.258834f, -0.922217f }	},
	{	{ -10.225029f, -10.567101f, 0.026184f },	{ 0.000000f, 0.000000f, 0.000000f },	{ -0.332292f, 0.197850f, -0.922191f }	},
	{	{ -10.313852f, -10.514215f, 0.077884f },	{ 0.000000f, 0.000000f, 0.000000f },	{ -0.475814f, 0.283304f, -0.832670f }	},
	{	{ -10.265888f, -10.449015f, 0.077884f },	{ 0.000000f, 0.000000f, 0.000000f },	{ -0.411348f, 0.370639f, -0.832718f }	},
	{	{ -10.250863f, -10.622000f, 0.026184f },	{ 0.000000f, 0.000000f, 0.000000f },	{ -0.364448f, 0.129201f, -0.922217f }	},
	{	{ -10.265377f, -10.680912f, 0.026184f },	{ 0.000000f, 0.000000f, 0.000000f },	{ -0.382712f, 0.055627f, -0.922191f }	},
	{	{ -10.367677f, -10.666043f, 0.077884f },	{ 0.000000f, 0.000000f, 0.000000f },	{ -0.548011f, 0.079653f, -0.832670f }	},
	{	{ -10.348315f, -10.587452f, 0.077884f },	{ 0.000000f, 0.000000f, 0.000000f },	{ -0.521873f, 0.185010f, -0.832718f }	},
	{	{ -10.268235f, -10.741519f, 0.026184f },	{ 0.000000f, 0.000000f, 0.000000f },	{ -0.386149f, -0.020102f, -0.922217f }	},
	{	{ -10.259099f, -10.801501f, 0.026184f },	{ 0.000000f, 0.000000f, 0.000000f },	{ -0.374868f, -0.095065f, -0.922191f }	},
	{	{ -10.359303f, -10.826913f, 0.077884f },	{ 0.000000f, 0.000000f, 0.000000f },	{ -0.536778f, -0.136125f, -0.832670f }	},
	{	{ -10.371490f, -10.746895f, 0.077884f },	{ 0.000000f, 0.000000f, 0.000000f },	{ -0.552948f, -0.028785f, -0.832718f }	},
	{	{ -10.238546f, -10.858588f, 0.026184f },	{ 0.000000f, 0.000000f, 0.000000f },	{ -0.349063f, -0.166345f, -0.922217f }	},
	{	{ -10.207152f, -10.910509f, 0.026184f },	{ 0.000000f, 0.000000f, 0.000000f },	{ -0.309953f, -0.231284f, -0.922191f }	},
	{	{ -10.290004f, -10.972332f, 0.077884f },	{ 0.000000f, 0.000000f, 0.000000f },	{ -0.443825f, -0.331179f, -0.832670f }	},
	{	{ -10.331884f, -10.903069f, 0.077884f },	{ 0.000000f, 0.000000f, 0.000000f },	{ -0.499842f, -0.238198f, -0.832718f }	},
	{	{ -10.166317f, -10.955385f, 0.026184f },	{ 0.000000f, 0.000000f, 0.000000f },	{ -0.258834f, -0.287263f, -0.922217f }	},
	{	{ -10.117444f, -10.991340f, 0.026184f },	{ 0.000000f, 0.000000f, 0.000000f },	{ -0.197850f, -0.332292f, -0.922191f }	},
	{	{ -10.170330f, -11.080163f, 0.077884f },	{ 0.000000f, 0.000000f, 0.000000f },	{ -0.283304f, -0.475814f, -0.832670f }	},
	{	{ -10.235529f, -11.032199f, 0.077884f },	{ 0.000000f, 0.000000f, 0.000000f },	{ -0.370639f, -0.411348f, -0.832718f }	},
	{	{ -10.062544f, -11.017174f, 0.026184f },	{ 0.000000f, 0.000000f, 0.000000f },	{ -0.129201f, -0.364448f, -0.922217f }	},
	{	{ -10.003632f, -11.031688f, 0.026184f },	{ 0.000000f, 0.000000f, 0.000000f },	{ -0.056032f, -0.382450f, -0.922276f }	},
	{	{ -10.018500f, -11.133987f, 0.077884f },	{ 0.000000f, 0.000000f, 0.000000f },	{ -0.082507f, -0.546585f, -0.833329f }	},
	{	{ -10.097092f, -11.114625f, 0.077884f },	{ 0.000000f, 0.000000f, 0.000000f },	{ -0.185010f, -0.521873f, -0.832718f }	},
	{	{ -9.943025f, -11.034546f, 0.026184f },	{ 0.000000f, 0.000000f, 0.000000f },	{ 0.019210f, -0.385556f, -0.922484f }	},
	{	{ -9.883042f, -11.025410f, 0.026184f },	{ 0.000000f, 0.000000f, 0.000000f },	{ 0.095255f, -0.375236f, -0.922022f }	},
	{	{ -9.864572f, -11.127374f, 0.077884f },	{ 0.000000f, 0.000000f, 0.000000f },	{ 0.126390f, -0.541055f, -0.831435f }	},
	{	{ -9.939384f, -11.138240f, 0.077884f },	{ 0.000000f, 0.000000f, 0.000000f },	{ 0.022392f, -0.549896f, -0.834933f }	},
	{	{ -9.825955f, -11.004857f, 0.026184f },	{ 0.000000f, 0.000000f, 0.000000f },	{ 0.167127f, -0.350704f, -0.921453f }	},
	{	{ -9.775270f, -11.111216f, 0.085786f },	{ 0.000000f, 0.000000f, 0.000000f },	{ 0.254117f, -0.533247f, -0.806890f }	},
	{	{ -9.774035f, -10.973463f, 0.026184f },	{ 0.000000f, 0.000000f, 0.000000f },	{ 0.231451f, -0.310332f, -0.922022f }	},
	{	{ -9.706473f, -11.052032f, 0.077884f },	{ 0.000000f, 0.000000f, 0.000000f },	{ 0.340633f, -0.438959f, -0.831435f }	},
	{	{ -9.688746f, -11.154613f, 0.162368f },	{ 0.000000f, 0.000000f, 0.000000f },	{ 0.237525f, -0.513876f, -0.824326f }	},
	{	{ -9.796062f, -11.205753f, 0.162368f },	{ 0.000000f, 0.000000f, 0.000000f },	{ 0.249523f, -0.508159f, -0.824326f }	},
	{	{ -10.024848f, -10.587495f, -0.023262f },	{ 0.000000f, 0.000000f, 0.000000f },	{ -0.089520f, 0.187851f, -0.978110f }	},
	{	{ -10.050476f, -10.602992f, -0.023262f },	{ 0.000000f, 0.000000f, 0.000000f },	{ -0.123477f, 0.170338f, -0.977619f }	},
	{	{ -10.087245f, -10.553718f, -0.006485f },	{ 0.000000f, 0.000000f, 0.000000f },	{ -0.175836f, 0.235644f, -0.955800f }	},
	{	{ -10.051302f, -10.531983f, -0.006485f },	{ 0.000000f, 0.000000f, 0.000000f },	{ -0.126463f, 0.265374f, -0.955816f }	},
	{	{ -10.072628f, -10.623149f, -0.023262f },	{ 0.000000f, 0.000000f, 0.000000f },	{ -0.158144f, 0.142494f, -0.977080f }	},
	{	{ -10.090376f, -10.647274f, -0.023262f },	{ 0.000000f, 0.000000f, 0.000000f },	{ -0.182239f, 0.105123f, -0.977619f }	},
	{	{ -10.143203f, -10.615821f, -0.006485f },	{ 0.000000f, 0.000000f, 0.000000f },	{ -0.252628f, 0.150417f, -0.955800f }	},
	{	{ -10.118312f, -10.581986f, -0.006485f },	{ 0.000000f, 0.000000f, 0.000000f },	{ -0.218391f, 0.196778f, -0.955816f }	},
	{	{ -10.103128f, -10.674374f, -0.023262f },	{ 0.000000f, 0.000000f, 0.000000f },	{ -0.196130f, 0.069530f, -0.978110f }	},
	{	{ -10.110292f, -10.703454f, -0.023262f },	{ 0.000000f, 0.000000f, 0.000000f },	{ -0.207759f, 0.033136f, -0.977619f }	},
	{	{ -10.171135f, -10.694611f, -0.006485f },	{ 0.000000f, 0.000000f, 0.000000f },	{ -0.290960f, 0.042291f, -0.955800f }	},
	{	{ -10.161087f, -10.653827f, -0.006485f },	{ 0.000000f, 0.000000f, 0.000000f },	{ -0.277071f, 0.098225f, -0.955816f }	},
	{	{ -10.111703f, -10.733371f, -0.023262f },	{ 0.000000f, 0.000000f, 0.000000f },	{ -0.212583f, -0.011067f, -0.977080f }	},
	{	{ -10.107194f, -10.762979f, -0.023262f },	{ 0.000000f, 0.000000f, 0.000000f },	{ -0.203195f, -0.054529f, -0.977619f }	},
	{	{ -10.166789f, -10.778092f, -0.006485f },	{ 0.000000f, 0.000000f, 0.000000f },	{ -0.284996f, -0.072274f, -0.955800f }	},
	{	{ -10.173113f, -10.736567f, -0.006485f },	{ 0.000000f, 0.000000f, 0.000000f },	{ -0.293569f, -0.015283f, -0.955816f }	},
	{	{ -10.097049f, -10.791159f, -0.023262f },	{ 0.000000f, 0.000000f, 0.000000f },	{ -0.187851f, -0.089520f, -0.978110f }	},
	{	{ -10.081552f, -10.816787f, -0.023262f },	{ 0.000000f, 0.000000f, 0.000000f },	{ -0.170338f, -0.123477f, -0.977619f }	},
	{	{ -10.130827f, -10.853556f, -0.006485f },	{ 0.000000f, 0.000000f, 0.000000f },	{ -0.235644f, -0.175836f, -0.955800f }	},
	{	{ -10.152560f, -10.817613f, -0.006485f },	{ 0.000000f, 0.000000f, 0.000000f },	{ -0.265374f, -0.126463f, -0.955816f }	},
	{	{ -10.061395f, -10.838939f, -0.023262f },	{ 0.000000f, 0.000000f, 0.000000f },	{ -0.142494f, -0.158144f, -0.977080f }	},
	{	{ -10.037270f, -10.856687f, -0.023262f },	{ 0.000000f, 0.000000f, 0.000000f },	{ -0.105123f, -0.182239f, -0.977619f }	},
	{	{ -10.068724f, -10.909513f, -0.006485f },	{ 0.000000f, 0.000000f, 0.000000f },	{ -0.150417f, -0.252628f, -0.955800f }	},
	{	{ -10.102557f, -10.884623f, -0.006485f },	{ 0.000000f, 0.000000f, 0.000000f },	{ -0.196778f, -0.218391f, -0.955816f }	},
	{	{ -10.010170f, -10.869438f, -0.023262f },	{ 0.000000f, 0.000000f, 0.000000f },	{ -0.069530f, -0.196130f, -0.978110f }	},
	{	{ -9.981090f, -10.876603f, -0.023262f },	{ 0.000000f, 0.000000f, 0.000000f },	{ -0.033136f, -0.207759f, -0.977619f }	},
	{	{ -9.989933f, -10.937445f, -0.006485f },	{ 0.000000f, 0.000000f, 0.000000f },	{ -0.042291f, -0.290960f, -0.955800f }	},
	{	{ -10.030717f, -10.927397f, -0.006485f },	{ 0.000000f, 0.000000f, 0.000000f },	{ -0.098225f, -0.277071f, -0.955816f }	},
	{	{ -9.951173f, -10.878014f, -0.023262f },	{ 0.000000f, 0.000000f, 0.000000f },	{ 0.011067f, -0.212583f, -0.977080f }	},
	{	{ -9.921565f, -10.873505f, -0.023262f },	{ 0.000000f, 0.000000f, 0.000000f },	{ 0.054529f, -0.203195f, -0.977619f }	},
	{	{ -9.906451f, -10.933100f, -0.006485f },	{ 0.000000f, 0.000000f, 0.000000f },	{ 0.072274f, -0.284996f, -0.955800f }	},
	{	{ -9.947976f, -10.939424f, -0.006485f },	{ 0.000000f, 0.000000f, 0.000000f },	{ 0.015283f, -0.293569f, -0.955816f }	},
	{	{ -9.893386f, -10.863359f, -0.023262f },	{ 0.000000f, 0.000000f, 0.000000f },	{ 0.089520f, -0.187851f, -0.978110f }	},
	{	{ -9.866932f, -10.918871f, -0.006485f },	{ 0.000000f, 0.000000f, 0.000000f },	{ 0.126463f, -0.265374f, -0.955816f }	},
	{	{ -9.867757f, -10.847862f, -0.023262f },	{ 0.000000f, 0.000000f, 0.000000f },	{ 0.123477f, -0.170338f, -0.977619f }	},
	{	{ -9.830988f, -10.897138f, -0.006485f },	{ 0.000000f, 0.000000f, 0.000000f },	{ 0.175836f, -0.235644f, -0.955800f }	},
	{	{ -9.986579f, -10.667799f, -0.032092f },	{ 0.000000f, 0.000000f, 0.000000f },	{ -0.011676f, 0.024501f, -0.999632f }	},
	{	{ -10.017444f, -10.672873f, -0.032092f },	{ 0.000000f, 0.000000f, 0.000000f },	{ -0.033426f, 0.030118f, -0.998987f }	},
	{	{ -10.028880f, -10.638337f, -0.029885f },	{ 0.000000f, 0.000000f, 0.000000f },	{ -0.064527f, 0.092353f, -0.993633f }	},
	{	{ -10.005684f, -10.627708f, -0.029885f },	{ 0.000000f, 0.000000f, 0.000000f },	{ -0.044491f, 0.093360f, -0.994638f }	},
	{	{ -10.052979f, -10.665084f, -0.029885f },	{ 0.000000f, 0.000000f, 0.000000f },	{ -0.098554f, 0.054589f, -0.993633f }	},
	{	{ -10.051073f, -10.642571f, -0.028168f },	{ 0.000000f, 0.000000f, 0.000000f },	{ -0.101673f, 0.091611f, -0.990591f }	},
	{	{ -10.070029f, -10.713176f, -0.029885f },	{ 0.000000f, 0.000000f, 0.000000f },	{ -0.110931f, 0.019676f, -0.993633f }	},
	{	{ -10.061142f, -10.689258f, -0.029885f },	{ 0.000000f, 0.000000f, 0.000000f },	{ -0.097475f, 0.034556f, -0.994638f }	},
	{	{ -10.019284f, -10.704097f, -0.032092f },	{ 0.000000f, 0.000000f, 0.000000f },	{ -0.025581f, 0.009069f, -0.999632f }	},
	{	{ -10.037521f, -10.729508f, -0.032092f },	{ 0.000000f, 0.000000f, 0.000000f },	{ -0.044932f, -0.002339f, -0.998987f }	},
	{	{ -10.068157f, -10.749129f, -0.029885f },	{ 0.000000f, 0.000000f, 0.000000f },	{ -0.108288f, -0.031088f, -0.993633f }	},
	{	{ -10.082727f, -10.731862f, -0.028168f },	{ 0.000000f, 0.000000f, 0.000000f },	{ -0.136672f, -0.007115f, -0.990591f }	},
	{	{ -10.046206f, -10.795191f, -0.029885f },	{ 0.000000f, 0.000000f, 0.000000f },	{ -0.092353f, -0.064527f, -0.993633f }	},
	{	{ -10.056835f, -10.771995f, -0.029885f },	{ 0.000000f, 0.000000f, 0.000000f },	{ -0.093360f, -0.044491f, -0.994638f }	},
	{	{ -10.016745f, -10.752890f, -0.032092f },	{ 0.000000f, 0.000000f, 0.000000f },	{ -0.024501f, -0.011676f, -0.999632f }	},
	{	{ -10.011671f, -10.783754f, -0.032092f },	{ 0.000000f, 0.000000f, 0.000000f },	{ -0.030118f, -0.033426f, -0.998987f }	},
	{	{ -10.019460f, -10.819290f, -0.029885f },	{ 0.000000f, 0.000000f, 0.000000f },	{ -0.054589f, -0.098554f, -0.993633f }	},
	{	{ -10.041972f, -10.817384f, -0.028168f },	{ 0.000000f, 0.000000f, 0.000000f },	{ -0.091611f, -0.101673f, -0.990591f }	},
	{	{ -9.971368f, -10.836340f, -0.029885f },	{ 0.000000f, 0.000000f, 0.000000f },	{ -0.019676f, -0.110931f, -0.993633f }	},
	{	{ -9.995286f, -10.827453f, -0.029885f },	{ 0.000000f, 0.000000f, 0.000000f },	{ -0.034556f, -0.097475f, -0.994638f }	},
	{	{ -9.980447f, -10.785595f, -0.032092f },	{ 0.000000f, 0.000000f, 0.000000f },	{ -0.009069f, -0.025581f, -0.999632f }	},
	{	{ -9.955035f, -10.803832f, -0.032092f },	{ 0.000000f, 0.000000f, 0.000000f },	{ 0.002339f, -0.044932f, -0.998987f }	},
	{	{ -9.935414f, -10.834468f, -0.029885f },	{ 0.000000f, 0.000000f, 0.000000f },	{ 0.031088f, -0.108288f, -0.993633f }	},
	{	{ -9.952682f, -10.849038f, -0.028168f },	{ 0.000000f, 0.000000f, 0.000000f },	{ 0.007115f, -0.136672f, -0.990591f }	},
	{	{ -9.931654f, -10.783055f, -0.032092f },	{ 0.000000f, 0.000000f, 0.000000f },	{ 0.011676f, -0.024501f, -0.999632f }	},
	{	{ -9.912549f, -10.823146f, -0.029885f },	{ 0.000000f, 0.000000f, 0.000000f },	{ 0.044491f, -0.093360f, -0.994638f }	},
	{	{ -9.900789f, -10.777982f, -0.032092f },	{ 0.000000f, 0.000000f, 0.000000f },	{ 0.033426f, -0.030118f, -0.998987f }	},
	{	{ -9.889353f, -10.812517f, -0.029885f },	{ 0.000000f, 0.000000f, 0.000000f },	{ 0.064527f, -0.092353f, -0.993633f }	},
	{	{ -9.520518f, -11.645794f, 0.082355f },	{ 0.000000f, 0.000000f, 0.000000f },	{ 0.375827f, -0.788645f, 0.486614f }	},
	{	{ -9.495808f, -11.631145f, 0.082320f },	{ 0.000000f, 0.000000f, 0.000000f },	{ 0.451829f, -0.746853f, 0.487915f }	},
	{	{ -9.512927f, -11.577806f, 0.151852f },	{ 0.000000f, 0.000000f, 0.000000f },	{ 0.343222f, -0.664976f, 0.663329f }	},
	{	{ -9.544814f, -11.594810f, 0.151284f },	{ 0.000000f, 0.000000f, 0.000000f },	{ 0.316657f, -0.664482f, 0.676899f }	},
	{	{ -9.553827f, -11.519662f, 0.041437f },	{ 0.000000f, 0.000000f, 0.000000f },	{ -0.421038f, 0.429222f, -0.799059f }	},
	{	{ -9.574697f, -11.532104f, 0.045066f },	{ 0.000000f, 0.000000f, 0.000000f },	{ -0.252191f, 0.529204f, -0.810150f }	},
	{	{ -9.609699f, -11.458655f, 0.109668f },	{ 0.000000f, 0.000000f, 0.000000f },	{ -0.244676f, 0.513435f, -0.822507f }	},
	{	{ -9.582267f, -11.442190f, 0.104190f },	{ 0.000000f, 0.000000f, 0.000000f },	{ -0.432836f, 0.415196f, -0.800166f }	},
	{	{ -9.597506f, -11.540477f, 0.041437f },	{ 0.000000f, 0.000000f, 0.000000f },	{ -0.068184f, 0.597374f, -0.799059f }	},
	{	{ -9.639766f, -11.469591f, 0.104190f },	{ 0.000000f, 0.000000f, 0.000000f },	{ -0.049858f, 0.597703f, -0.800166f }	},
	{	{ -9.656380f, -11.360699f, 0.173400f },	{ 0.000000f, 0.000000f, 0.000000f },	{ -0.189819f, 0.398323f, -0.897389f }	},
	{	{ -9.619283f, -11.338330f, 0.169744f },	{ 0.000000f, 0.000000f, 0.000000f },	{ -0.358663f, 0.309690f, -0.880598f }	},
	{	{ -9.665991f, -11.577026f, 0.048690f },	{ 0.000000f, 0.000000f, 0.000000f },	{ -0.722743f, -0.116668f, -0.681199f }	},
	{	{ -9.658786f, -11.620571f, 0.065544f },	{ 0.000000f, 0.000000f, 0.000000f },	{ -0.798234f, -0.444772f, -0.406202f }	},
	{	{ -9.710562f, -11.569905f, 0.124101f },	{ 0.000000f, 0.000000f, 0.000000f },	{ -0.800864f, -0.443383f, -0.402527f }	},
	{	{ -9.721635f, -11.511976f, 0.102666f },	{ 0.000000f, 0.000000f, 0.000000f },	{ -0.721419f, -0.097799f, -0.685559f }	},
	{	{ -9.703655f, -11.486705f, 0.094607f },	{ 0.000000f, 0.000000f, 0.000000f },	{ -0.369729f, 0.362405f, -0.855549f }	},
	{	{ -9.649549f, -11.556231f, 0.039515f },	{ 0.000000f, 0.000000f, 0.000000f },	{ -0.421502f, 0.293043f, -0.858173f }	},
	{	{ -9.636484f, -11.660249f, 0.080566f },	{ 0.000000f, 0.000000f, 0.000000f },	{ -0.598074f, -0.797895f, -0.075312f }	},
	{	{ -9.682256f, -11.622760f, 0.145289f },	{ 0.000000f, 0.000000f, 0.000000f },	{ -0.602969f, -0.797730f, -0.007441f }	},
	{	{ -9.607638f, -11.669438f, 0.084244f },	{ 0.000000f, 0.000000f, 0.000000f },	{ -0.079519f, -0.943077f, 0.322929f }	},
	{	{ -9.648533f, -11.632806f, 0.152607f },	{ 0.000000f, 0.000000f, 0.000000f },	{ -0.028391f, -0.878873f, 0.476210f }	},
	{	{ -9.525203f, -11.635964f, 0.002024f },	{ 0.000000f, 0.000000f, 0.000000f },	{ 0.164821f, -0.345865f, -0.923694f }	},
	{	{ -9.484809f, -11.611785f, 0.004605f },	{ 0.000000f, 0.000000f, 0.000000f },	{ 0.429496f, -0.195309f, -0.881696f }	},
	{	{ -9.486368f, -11.646537f, 0.031052f },	{ 0.000000f, 0.000000f, 0.000000f },	{ 0.559885f, -0.814330f, -0.152954f }	},
	{	{ -9.512727f, -11.662145f, 0.030482f },	{ 0.000000f, 0.000000f, 0.000000f },	{ 0.418380f, -0.877939f, -0.232768f }	},
	{	{ -9.524498f, -11.574832f, 0.001553f },	{ 0.000000f, 0.000000f, 0.000000f },	{ -0.168794f, 0.245820f, -0.954506f }	},
	{	{ -9.547742f, -11.588668f, 0.001788f },	{ 0.000000f, 0.000000f, 0.000000f },	{ -0.118364f, 0.248378f, -0.961404f }	},
	{	{ -9.569426f, -11.652108f, 0.004605f },	{ 0.000000f, 0.000000f, 0.000000f },	{ -0.118826f, -0.456610f, -0.881696f }	},
	{	{ -9.573129f, -11.598006f, 0.001553f },	{ 0.000000f, 0.000000f, 0.000000f },	{ -0.084613f, 0.285936f, -0.954506f }	},
	{	{ -9.608585f, -11.609977f, 0.006432f },	{ 0.000000f, 0.000000f, 0.000000f },	{ -0.376418f, 0.041771f, -0.925508f }	},
	{	{ -9.617565f, -11.650653f, 0.025082f },	{ 0.000000f, 0.000000f, 0.000000f },	{ -0.609986f, -0.477302f, -0.632535f }	},
	{	{ -9.632312f, -11.613523f, 0.023462f },	{ 0.000000f, 0.000000f, 0.000000f },	{ -0.614075f, -0.196873f, -0.764299f }	},
	{	{ -9.582918f, -11.680667f, 0.033996f },	{ 0.000000f, 0.000000f, 0.000000f },	{ -0.128880f, -0.963401f, -0.235048f }	},
	{	{ -9.612447f, -11.669351f, 0.044909f },	{ 0.000000f, 0.000000f, 0.000000f },	{ -0.524319f, -0.773115f, -0.356906f }	},
	{	{ -9.541451f, -11.672787f, 0.031052f },	{ 0.000000f, 0.000000f, 0.000000f },	{ 0.279845f, -0.947783f, -0.152954f }	},
	{	{ -9.564343f, -11.676497f, 0.046676f },	{ 0.000000f, 0.000000f, 0.000000f },	{ 0.202357f, -0.976991f, 0.067385f }	},
	{	{ -9.576534f, -11.662992f, 0.082766f },	{ 0.000000f, 0.000000f, 0.000000f },	{ 0.227024f, -0.851559f, 0.472554f }	},
	{	{ -9.612711f, -11.621142f, 0.152609f },	{ 0.000000f, 0.000000f, 0.000000f },	{ 0.275351f, -0.725880f, 0.630302f }	},
	{	{ -9.666229f, -11.563792f, 0.236079f },	{ 0.000000f, 0.000000f, 0.000000f },	{ 0.368259f, -0.691972f, 0.620934f }	},
	{	{ -9.722610f, -11.493617f, 0.365353f },	{ 0.000000f, 0.000000f, 0.000000f },	{ 0.429258f, -0.759785f, 0.488328f }	},
	{	{ -9.767377f, -11.413292f, 0.572606f },	{ 0.000000f, 0.000000f, 0.000000f },	{ 0.386954f, -0.844350f, 0.370594f }	},
	{	{ -9.798028f, -11.343588f, 0.783550f },	{ 0.000000f, 0.000000f, 0.000000f },	{ 0.298637f, -0.903650f, 0.306972f }	},
	{	{ -9.812069f, -11.305277f, 0.923896f },	{ 0.000000f, 0.000000f, 0.000000f },	{ 0.258404f, -0.936404f, 0.237433f }	},
	{	{ -9.805173f, -11.283086f, 1.023909f },	{ 0.000000f, 0.000000f, 0.000000f },	{ 0.283552f, -0.944988f, 0.163086f }	},
	{	{ -9.713399f, -11.241047f, 1.077468f },	{ 0.000000f, 0.000000f, 0.000000f },	{ 0.427265f, -0.896584f, 0.116541f }	},
	{	{ -9.600000f, -11.585939f, 0.010632f },	{ 0.000000f, 0.000000f, 0.000000f },	{ -0.158792f, 0.330195f, -0.930460f }	},
	{	{ -9.622406f, -11.547584f, 0.037327f },	{ 0.000000f, 0.000000f, 0.000000f },	{ -0.126497f, 0.539316f, -0.832548f }	},
	{	{ -9.671430f, -11.477956f, 0.096317f },	{ 0.000000f, 0.000000f, 0.000000f },	{ -0.073051f, 0.582038f, -0.809873f }	},
	{	{ -9.782241f, -11.397227f, 0.162462f },	{ 0.000000f, 0.000000f, 0.000000f },	{ -0.273232f, 0.279452f, -0.920462f }	},
	{	{ -9.739679f, -11.386325f, 0.164267f },	{ 0.000000f, 0.000000f, 0.000000f },	{ -0.019593f, 0.464725f, -0.885238f }	},
	{	{ -9.792706f, -11.289866f, 0.200008f },	{ 0.000000f, 0.000000f, 0.000000f },	{ 0.139860f, -0.002919f, -0.990167f }	},
	{	{ -10.467433f, -11.011197f, 0.453321f },	{ 0.000000f, 0.000000f, 0.000000f },	{ -0.891011f, -0.396358f, 0.221359f }	},
	{	{ -10.484292f, -10.978270f, 0.449163f },	{ 0.000000f, 0.000000f, 0.000000f },	{ -0.874991f, -0.416702f, 0.246478f }	},
	{	{ -10.462885f, -10.972707f, 0.603216f },	{ 0.000000f, 0.000000f, 0.000000f },	{ -0.634664f, -0.282917f, -0.719138f }	},
	{	{ -10.454572f, -10.990193f, 0.598946f },	{ 0.000000f, 0.000000f, 0.000000f },	{ -0.739990f, -0.079785f, -0.667869f }	},
	{	{ -10.470132f, -11.016396f, 0.636948f },	{ 0.000000f, 0.000000f, 0.000000f },	{ -0.880188f, -0.390968f, -0.269097f }	},
	{	{ -10.487472f, -10.983485f, 0.642171f },	{ 0.000000f, 0.000000f, 0.000000f },	{ -0.865273f, -0.403057f, -0.298074f }	},
	{	{ -10.502070f, -10.948571f, 0.638006f },	{ 0.000000f, 0.000000f, 0.000000f },	{ -0.864052f, -0.422945f, -0.273004f }	},
	{	{ -10.439240f, -11.018050f, 0.550187f },	{ 0.000000f, 0.000000f, 0.000000f },	{ -0.949124f, 0.314345f, -0.018704f }	},
	{	{ -10.440400f, -11.013274f, 0.529519f },	{ 0.000000f, 0.000000f, 0.000000f },	{ -0.941014f, 0.253377f, 0.224261f }	},
	{	{ -10.445819f, -11.054286f, 0.505057f },	{ 0.000000f, 0.000000f, 0.000000f },	{ -0.965030f, -0.256372f, 0.054678f }	},
	{	{ -10.444268f, -11.060159f, 0.547111f },	{ 0.000000f, 0.000000f, 0.000000f },	{ -0.971017f, -0.238385f, -0.017254f }	},
	{	{ -10.407997f, -11.114487f, 0.546948f },	{ 0.000000f, 0.000000f, 0.000000f },	{ -0.775150f, -0.631569f, -0.016245f }	},
	{	{ -10.517622f, -10.901672f, 0.507574f },	{ 0.000000f, 0.000000f, 0.000000f },	{ -0.812470f, -0.581032f, 0.047898f }	},
	{	{ -10.520689f, -10.897676f, 0.549827f },	{ 0.000000f, 0.000000f, 0.000000f },	{ -0.803868f, -0.594320f, -0.024085f }	},
	{	{ -10.519147f, -10.902869f, 0.590005f },	{ 0.000000f, 0.000000f, 0.000000f },	{ -0.818382f, -0.566469f, -0.096763f }	},
	{	{ -9.959117f, -10.725428f, -0.032092f },	{ 0.000000f, 0.000000f, 0.000000f },	{ -0.000000f, 0.000000f, -1.000000f }	},
	{	{ -9.937786f, -10.665259f, -0.032092f },	{ 0.000000f, 0.000000f, 0.000000f },	{ 0.009069f, 0.025581f, -0.999632f }	},
	{	{ -9.906562f, -10.667100f, -0.032092f },	{ 0.000000f, 0.000000f, 0.000000f },	{ 0.030118f, 0.033426f, -0.998987f }	},
	{	{ -9.901488f, -10.697965f, -0.032092f },	{ 0.000000f, 0.000000f, 0.000000f },	{ 0.024501f, 0.011676f, -0.999632f }	},
	{	{ -11.056691f, -11.250743f, 2.658020f },	{ 0.000000f, 0.000000f, 0.000000f },	{ 0.903035f, 0.429513f, -0.006765f }	},
	{	{ -10.926556f, -11.468179f, 2.658020f },	{ 0.000000f, 0.000000f, 0.000000f },	{ 0.865030f, 0.501140f, 0.024097f }	},
	{	{ -10.923700f, -11.460442f, 2.528338f },	{ 0.000000f, 0.000000f, 0.000000f },	{ 0.760383f, 0.413469f, 0.500860f }	},
	{	{ -11.053263f, -11.250176f, 2.528338f },	{ 0.000000f, 0.000000f, 0.000000f },	{ 0.798512f, 0.379356f, 0.467406f }	},
	{	{ -10.797823f, -11.347252f, 1.998102f },	{ 0.000000f, 0.000000f, 0.000000f },	{ -0.448039f, -0.587436f, -0.673929f }	},
	{	{ -10.904193f, -11.175800f, 1.958531f },	{ 0.000000f, 0.000000f, 0.000000f },	{ -0.614937f, -0.293046f, -0.732104f }	},
	{	{ -10.844632f, -11.357748f, 2.038956f },	{ 0.000000f, 0.000000f, 0.000000f },	{ -0.464214f, -0.584324f, -0.665636f }	},
	{	{ -10.947764f, -11.196565f, 2.003629f },	{ 0.000000f, 0.000000f, 0.000000f },	{ -0.645806f, -0.307764f, -0.698725f }	},
	{	{ -10.865346f, -11.666065f, 2.475432f },	{ 0.000000f, 0.000000f, 0.000000f },	{ 0.190326f, -0.959089f, -0.209583f }	},
	{	{ -10.804280f, -11.596101f, 2.292586f },	{ 0.000000f, 0.000000f, 0.000000f },	{ -0.065969f, -0.893565f, -0.444060f }	},
	{	{ -10.734456f, -11.586365f, 2.279984f },	{ 0.000000f, 0.000000f, 0.000000f },	{ 0.173571f, -0.945333f, -0.276077f }	},
	{	{ -10.805408f, -11.620339f, 2.476900f },	{ 0.000000f, 0.000000f, 0.000000f },	{ 0.824150f, -0.500069f, 0.265909f }	},
	{	{ -10.838625f, -11.630922f, 2.658020f },	{ 0.000000f, 0.000000f, 0.000000f },	{ 0.997675f, -0.058779f, 0.034496f }	},
	{	{ -10.772253f, -11.492818f, 2.137691f },	{ 0.000000f, 0.000000f, 0.000000f },	{ -0.290169f, -0.740482f, -0.606208f }	},
	{	{ -10.718746f, -11.487967f, 2.108144f },	{ 0.000000f, 0.000000f, 0.000000f },	{ -0.240607f, -0.785517f, -0.570150f }	},
	{	{ -11.066506f, -10.875348f, 2.137691f },	{ 0.000000f, 0.000000f, 0.000000f },	{ -0.756212f, 0.264334f, -0.598557f }	},
	{	{ -11.164464f, -10.840280f, 2.292586f },	{ 0.000000f, 0.000000f, 0.000000f },	{ -0.713200f, 0.565708f, -0.413907f }	},
	{	{ -11.111055f, -10.796100f, 2.279984f },	{ 0.000000f, 0.000000f, 0.000000f },	{ -0.636637f, 0.730802f, -0.246214f }	},
	{	{ -11.028570f, -10.837825f, 2.108144f },	{ 0.000000f, 0.000000f, 0.000000f },	{ -0.768253f, 0.316846f, -0.556233f }	},
	{	{ -10.970362f, -10.985192f, 1.998102f },	{ 0.000000f, 0.000000f, 0.000000f },	{ -0.739700f, 0.024236f, -0.672500f }	},
	{	{ -11.007998f, -11.014937f, 2.038956f },	{ 0.000000f, 0.000000f, 0.000000f },	{ -0.746115f, 0.010574f, -0.665733f }	},
	{	{ -11.211130f, -10.849246f, 2.658020f },	{ 0.000000f, 0.000000f, 0.000000f },	{ 0.604104f, 0.796594f, 0.022294f }	},
	{	{ -11.141846f, -11.016409f, 2.658020f },	{ 0.000000f, 0.000000f, 0.000000f },	{ 0.934605f, 0.354696f, 0.026554f }	},
	{	{ -11.132378f, -11.022546f, 2.528338f },	{ 0.000000f, 0.000000f, 0.000000f },	{ 0.798267f, 0.329834f, 0.503964f }	},
	{	{ -11.178321f, -10.837808f, 2.476900f },	{ 0.000000f, 0.000000f, 0.000000f },	{ 0.138893f, 0.949957f, 0.279804f }	},
	{	{ -11.255604f, -10.847136f, 2.475432f },	{ 0.000000f, 0.000000f, 0.000000f },	{ -0.570616f, 0.799062f, -0.189466f }	},
	{	{ -11.293656f, -10.833321f, 2.658020f },	{ 0.000000f, 0.000000f, 0.000000f },	{ -0.460097f, 0.883180f, -0.091129f }	},
	{	{ -11.137439f, -11.286828f, 2.266481f },	{ 0.000000f, 0.000000f, 0.000000f },	{ -0.745800f, -0.355498f, -0.563386f }	},
	{	{ -11.025293f, -11.454124f, 2.280838f },	{ 0.000000f, 0.000000f, 0.000000f },	{ -0.593981f, -0.578860f, -0.558666f }	},
	{	{ -11.118506f, -11.519017f, 2.472495f },	{ 0.000000f, 0.000000f, 0.000000f },	{ -0.690398f, -0.626918f, -0.361004f }	},
	{	{ -11.241848f, -11.336535f, 2.468905f },	{ 0.000000f, 0.000000f, 0.000000f },	{ -0.842467f, -0.401569f, -0.359154f }	},
	{	{ -11.146768f, -11.546543f, 2.658020f },	{ 0.000000f, 0.000000f, 0.000000f },	{ -0.744482f, -0.656751f, -0.120108f }	},
	{	{ -11.276605f, -11.353200f, 2.658020f },	{ 0.000000f, 0.000000f, 0.000000f },	{ -0.896722f, -0.427360f, -0.115122f }	},
	{	{ -10.917285f, -11.388242f, 2.123007f },	{ 0.000000f, 0.000000f, 0.000000f },	{ -0.524207f, -0.574707f, -0.628426f }	},
	{	{ -11.020403f, -11.231149f, 2.096229f },	{ 0.000000f, 0.000000f, 0.000000f },	{ -0.691260f, -0.329460f, -0.643130f }	},
	{	{ -11.196841f, -11.094145f, 2.280838f },	{ 0.000000f, 0.000000f, 0.000000f },	{ -0.824064f, -0.094881f, -0.558494f }	},
	{	{ -11.077492f, -11.052057f, 2.123007f },	{ 0.000000f, 0.000000f, 0.000000f },	{ -0.776576f, -0.043232f, -0.628539f }	},
	{	{ -11.205262f, -10.927991f, 2.298132f },	{ 0.000000f, 0.000000f, 0.000000f },	{ -0.825604f, 0.178496f, -0.535273f }	},
	{	{ -11.114193f, -10.941359f, 2.180326f },	{ 0.000000f, 0.000000f, 0.000000f },	{ -0.782728f, 0.132319f, -0.608135f }	},
	{	{ -11.351080f, -10.937451f, 2.658020f },	{ 0.000000f, 0.000000f, 0.000000f },	{ -0.964106f, 0.230338f, -0.132075f }	},
	{	{ -11.310726f, -10.943267f, 2.476818f },	{ 0.000000f, 0.000000f, 0.000000f },	{ -0.910666f, 0.223054f, -0.347757f }	},
	{	{ -11.306031f, -11.125508f, 2.472495f },	{ 0.000000f, 0.000000f, 0.000000f },	{ -0.922185f, -0.139072f, -0.360878f }	},
	{	{ -10.900782f, -11.566920f, 2.298132f },	{ 0.000000f, 0.000000f, 0.000000f },	{ -0.399560f, -0.740082f, -0.540954f }	},
	{	{ -10.978755f, -11.639885f, 2.476818f },	{ 0.000000f, 0.000000f, 0.000000f },	{ -0.426035f, -0.834282f, -0.349953f }	},
	{	{ -10.854119f, -11.487105f, 2.180326f },	{ 0.000000f, 0.000000f, 0.000000f },	{ -0.399710f, -0.683590f, -0.610686f }	},
	{	{ -11.035483f, -11.238739f, 2.991819f },	{ 0.000000f, 0.000000f, 0.000000f },	{ 0.902830f, 0.429808f, -0.012739f }	},
	{	{ -10.919930f, -11.452981f, 2.991819f },	{ 0.000000f, 0.000000f, 0.000000f },	{ 0.904512f, 0.425777f, 0.023923f }	},
	{	{ -10.919381f, -11.467175f, 2.832700f },	{ 0.000000f, 0.000000f, 0.000000f },	{ 0.885183f, 0.464193f, -0.031237f }	},
	{	{ -11.046692f, -11.244422f, 2.832700f },	{ 0.000000f, 0.000000f, 0.000000f },	{ 0.901454f, 0.429265f, -0.055782f }	},
	{	{ -11.149911f, -11.551126f, 2.832700f },	{ 0.000000f, 0.000000f, 0.000000f },	{ -0.752088f, -0.657314f, -0.047979f }	},
	{	{ -11.280092f, -11.355062f, 2.832700f },	{ 0.000000f, 0.000000f, 0.000000f },	{ -0.901564f, -0.429551f, -0.051652f }	},
	{	{ -11.167767f, -11.547194f, 2.991819f },	{ 0.000000f, 0.000000f, 0.000000f },	{ -0.750012f, -0.657088f, -0.075607f }	},
	{	{ -11.290694f, -11.360359f, 2.991819f },	{ 0.000000f, 0.000000f, 0.000000f },	{ -0.898586f, -0.428001f, -0.096744f }	},
	{	{ -10.852908f, -11.617329f, 2.991819f },	{ 0.000000f, 0.000000f, 0.000000f },	{ 0.979784f, -0.105367f, 0.170060f }	},
	{	{ -10.905169f, -11.691734f, 2.991819f },	{ 0.000000f, 0.000000f, 0.000000f },	{ 0.367013f, -0.908529f, 0.199693f }	},
	{	{ -10.882141f, -11.707658f, 2.832700f },	{ 0.000000f, 0.000000f, 0.000000f },	{ 0.388925f, -0.920010f, 0.048162f }	},
	{	{ -10.837656f, -11.634854f, 2.832700f },	{ 0.000000f, 0.000000f, 0.000000f },	{ 0.997782f, -0.054938f, 0.037592f }	},
	{	{ -11.026771f, -11.670317f, 2.991819f },	{ 0.000000f, 0.000000f, 0.000000f },	{ -0.428919f, -0.903011f, 0.024480f }	},
	{	{ -11.002879f, -11.681208f, 2.832700f },	{ 0.000000f, 0.000000f, 0.000000f },	{ -0.447012f, -0.894327f, -0.018987f }	},
	{	{ -11.364482f, -10.961655f, 2.991819f },	{ 0.000000f, 0.000000f, 0.000000f },	{ -0.970559f, 0.239215f, 0.028138f }	},
	{	{ -11.304380f, -10.854019f, 2.991819f },	{ 0.000000f, 0.000000f, 0.000000f },	{ -0.472279f, 0.858217f, 0.201035f }	},
	{	{ -11.302093f, -10.826420f, 2.832700f },	{ 0.000000f, 0.000000f, 0.000000f },	{ -0.456272f, 0.889166f, 0.034640f }	},
	{	{ -11.358329f, -10.935322f, 2.832700f },	{ 0.000000f, 0.000000f, 0.000000f },	{ -0.974097f, 0.225193f, -0.020582f }	},
	{	{ -11.350280f, -11.130665f, 2.832700f },	{ 0.000000f, 0.000000f, 0.000000f },	{ -0.984516f, -0.168887f, -0.046960f }	},
	{	{ -11.358093f, -11.147807f, 2.991819f },	{ 0.000000f, 0.000000f, 0.000000f },	{ -0.983126f, -0.167259f, -0.074085f }	},
	{	{ -11.213817f, -10.859988f, 2.991819f },	{ 0.000000f, 0.000000f, 0.000000f },	{ 0.535270f, 0.827774f, 0.168155f }	},
	{	{ -11.128815f, -11.014651f, 2.991819f },	{ 0.000000f, 0.000000f, 0.000000f },	{ 0.900614f, 0.434033f, 0.022582f }	},
	{	{ -11.138963f, -11.006398f, 2.832700f },	{ 0.000000f, 0.000000f, 0.000000f },	{ 0.918251f, 0.394831f, -0.030383f }	},
	{	{ -11.217121f, -10.838573f, 2.832700f },	{ 0.000000f, 0.000000f, 0.000000f },	{ 0.591887f, 0.805545f, 0.027691f }	},
	{	{ -11.068372f, -11.254358f, 3.353601f },	{ 0.000000f, 0.000000f, 0.000000f },	{ 0.881306f, 0.413149f, 0.229363f }	},
	{	{ -10.994637f, -11.412115f, 3.353601f },	{ 0.000000f, 0.000000f, 0.000000f },	{ 0.909803f, 0.314702f, 0.270595f }	},
	{	{ -10.940812f, -11.432370f, 3.157934f },	{ 0.000000f, 0.000000f, 0.000000f },	{ 0.914877f, 0.374977f, 0.149640f }	},
	{	{ -11.037799f, -11.239962f, 3.157934f },	{ 0.000000f, 0.000000f, 0.000000f },	{ 0.898323f, 0.425807f, 0.108188f }	},
	{	{ -11.199309f, -11.534615f, 3.157934f },	{ 0.000000f, 0.000000f, 0.000000f },	{ -0.743130f, -0.663429f, -0.087293f }	},
	{	{ -11.308056f, -11.368752f, 3.157934f },	{ 0.000000f, 0.000000f, 0.000000f },	{ -0.895926f, -0.426657f, -0.123616f }	},
	{	{ -11.243512f, -11.513261f, 3.353601f },	{ 0.000000f, 0.000000f, 0.000000f },	{ -0.729438f, -0.678830f, -0.084321f }	},
	{	{ -11.331822f, -11.379906f, 3.353601f },	{ 0.000000f, 0.000000f, 0.000000f },	{ -0.894790f, -0.426154f, -0.133207f }	},
	{	{ -10.966131f, -11.539077f, 3.353601f },	{ 0.000000f, 0.000000f, 0.000000f },	{ 0.883537f, -0.229242f, 0.408425f }	},
	{	{ -11.027938f, -11.603743f, 3.353601f },	{ 0.000000f, 0.000000f, 0.000000f },	{ 0.329300f, -0.873034f, 0.359686f }	},
	{	{ -10.952619f, -11.656174f, 3.157934f },	{ 0.000000f, 0.000000f, 0.000000f },	{ 0.342539f, -0.887676f, 0.307732f }	},
	{	{ -10.892895f, -11.583639f, 3.157934f },	{ 0.000000f, 0.000000f, 0.000000f },	{ 0.935406f, -0.165459f, 0.312472f }	},
	{	{ -11.135313f, -11.597881f, 3.353601f },	{ 0.000000f, 0.000000f, 0.000000f },	{ -0.352888f, -0.929907f, 0.103645f }	},
	{	{ -11.071064f, -11.642368f, 3.157934f },	{ 0.000000f, 0.000000f, 0.000000f },	{ -0.396372f, -0.915583f, 0.067801f }	},
	{	{ -11.376243f, -11.091047f, 3.353601f },	{ 0.000000f, 0.000000f, 0.000000f },	{ -0.942122f, 0.318842f, 0.103657f }	},
	{	{ -11.311570f, -11.003516f, 3.353601f },	{ 0.000000f, 0.000000f, 0.000000f },	{ -0.469893f, 0.808720f, 0.353797f }	},
	{	{ -11.305785f, -10.913818f, 3.157934f },	{ 0.000000f, 0.000000f, 0.000000f },	{ -0.473278f, 0.825692f, 0.306988f }	},
